tree
version=v4
num_class=4
num_tree_per_iteration=4
label_index=0
max_feature_idx=7
objective=multiclass num_class:4
feature_names=Column_0 Column_1 Column_2 Column_3 Column_4 Column_5 Column_6 Column_7
feature_infos=[0:1] [0:1] [0:1] [0:1] [0:1] [0.29999999999999999:1] [100.08:299.82999999999998] [0.59999999999999998:999.87]
tree_sizes=3329 3345 3259 1643 3491 3435 3419 3531 3494 3432 3427 3535 3497 3433 3424 3522 3489 3431 3420 3536 3498 3445 3421 3531 3486 3440 3414 3535 3490 3435 3416 3530 3487 3432 3422 3526 3488 3443 3424 3531 3492 3436 3426 3529 3498 3430 3422 3529 3497 3444 3431 3529 3496 3444 3424 3536 3498 3438 3419 3533 3492 3437 3429 3538 3489 3431 3420 3525 3492 3437 3432 3532 3501 3439 3420 3536 3492 3441 3424 3534 3492 3437 3409 3544 3496 3438 3422 3539 3496 3437 3421 3533 3485 3439 3420 3536 3495 3434 3426 3535 3492 3435 3424 3528 3501 3439 3421 3535 3497 3443 3419 3526 3492 3435 3428 3538 3493 3449 3425 3543 3494 3446 3422 3524 3491 3447 3421 3532 3500 3432 3419 3543 3491 3438 3425 3555 3492 3441 3421 3551 3492 3435 3422 3536 3488 3444 3423 3532 3498 3438 3415 3545 3490 3448 3417 3543 3501 3440 3426 3540 3492 3436 3425 3546 3498 3451 3431 3526 3501 3445 3430 3545 3498 3443 3418 3544 3488 3445 3419 3529 3494 3438 3424 3557 3499 3444 3420 3529 3504 3452 3423 3547 3493 3444 3426 3530 3499 3447 3422 3547 3495 3445 3429 3538 3487 3437 3429 3556 3480 3451 3419 3529 3496 3445 3426 3535 3497 3445 3430 3544 3491 3445 3423 3532 3498 3438 3431 3543 3489 3444 3418 3539 3493 3453 3430 3535 3489 3442 3420 3547 3491 3442 3434 3526 3500 3445 3416 3546 3489 3442 3422 3523 3499 3444 3423 3542 3496 3448 3431 3549 3496 3439 3420 3544 3497 3449 3429 3536 3498 3433 3419 3545 3491 3451 3424 3535 3494 3450 3415 3546 3501 3438 3430 3538 3487 3439 3420 3544 3501 3450 3435 3527 3498 3440 3431 3534 3497 3447 3437 3552 3499 3443 3419 3541 3490 3446 3432 3556 3491 3449 3423 3543 3494 3439 3432 3547 3496 3447 3421 3552 3498 3438 3437 3542 3494 3445 3427 3549 3494 3443 3438 3539 3495 3446 3433 3553 3494 3448 3424 3529 3494 3442 3425 3558 3488 3445 3429 3551 3501 3445 3434 3528 3494 3453 3422 3552 3494 3446 3431 3540 3499 3441 3434 3543 3495 3442 3422 3530 3491 3445 3427 3552 3502 3448 3430 3546 3497 3438 3435 3545 3494 3447 3424 3540 3497 3445 3436 3553 3495 3452 3431 3533 3496 3454 3438 3548 3504 3440 3427 3536 3500 3444 3421 3541 3493 3446 3431 3538 3493 3455 3431 3551 3496 3443 3426 3547 3501 3446 3426 3536 3495 3439 3435 3543 3495 3448 3426 3545 3496 3444 3434 3536 3492 3447 3423 3549 3504 3449 3422 3543 3498 3449 3419 3553 3499 3452 3422 3534 3485 3450 3425 3550 3496 3455 3434 3546 3494 3444 3418 3548 3493 3451 3426 3537 3501 3451 3422 3543 3499 3447 3427 3548 3499 3455 3423 3550 3495 3456 3422 3548 3489 3445 3427 3554 3501 3455 3434 3546 3490 3457 3415 3545 3502 3448 3416 3552 3493 3447 3435 3544 3495 3451 3422 3540 3498 3443 3433 3549 3501 3450 3428 3558 3499 3460 3439 3557 3501 3449 3422 3552 3492 3450 3419 3556 3495 3455 3428 3552 3502 3449 3425 3553 3489 3442 3427 3557 3503 3445 3418 3557 3492 3451 3426 3555 3493 3437 3425 3556 3494 3435 3422 3551 3496 3449 3417 3545 3492 3447 3432 3549 3499 3442 3436 3545 3497 3440 3419 3538 3495 3441 3420 3550 3496 3447 3433 3536 3494 3444 3429 3549 3496 3452 3420 3554 3495 3443 3430 3550 3501 3445 3433 3539 3496 3448 3421 3551 3503 3449 3427 3543 3498 3445 3438 3552 3498 3452 3435 3551 3498 3446 3423 3549 3489 3453 3422 3560 3500 3454 3423 3556 3489 3455 3428 3541 3498 3451 3426 3550 3498 3451 3424 3549 3494 3449 3425 3556 3496 3452 3429 3541 3497 3449 3423 3557 3507 3454 3431 3549 3507 3451 3430 3549 3479 3460 3428 3541 3499 3458 3436 3557 3494 3453 3432 3553 3497 3448 3434 3551 3496 3457 3422 3540 3489 3446 3431 3557 3500 3457 3436 3554 3499 3443 3423 3547 3499 3459 3430 3549 3496 3452 3423 3551 3497 3457 3421 3544 3491 3454 3420 3540 3503 3454 3429 3558 3491 3459 3441 3545 3499 3460 3421 3555 3497 3456 3427 3545 3477 3461 3428 3542 3491 3451 3433 3542 3502 3457 3439 3558 3497 3458 3421 3551 3490 3451 3427 3554 3502 3454 3429 3547 3493 3453 3428 3544 3491 3451 3425 3555 3487 3459 3436 3549 3502 3457 3421 3542 3492 3454 3429 3547 3489 3459 3429 3550 3500 3447 3412 3548 3496 3450 3429 3542 3496 3457 3431 3550 3500 3453 3434 3540 3493 3458 3436 3560 3504 3461 3424 3547 3494 3460 3431 3552 3497 3461 3422 3551 3495 3458 3435 3540 3493 3460 3423 3549 3488 3458 3427 3554 3491 3455 3431 3554 3496 3458 3437 3545 3490 3460 3426 3543 3496 3456 3418 3546 3492 3458 3429 3551 3489 3457 3430 3554 3502 3459 3412 3543 3485 3457 3433 3557 3494 3462 3439 3544 3489 3457 3440 3549 3496 3449 3433 3550 3497 3463 3430 3539 3493 3460 3432 3554 3496 3456 3441 3552 3502 3460 3419 3541 3493 3447 3428 3538 3497 3452 3418 3548 3493 3457 3438 3547 3486 3465 3432 3540 3489 3461 3430 3555 3502 3454 3428 3549 3499 3464 3442 3548 3489 3465 3433 3554 3489 3449 3436 3556 3493 3458 3432 3549 3498 3461 3425 3552 3488 3451 3440 3552 3499 3461 3433 3556 3497 3459 3434 3536 3495 3455 3432 3562 3498 3457 3435 3547 3493 3457 3432 3563 3491 3458 3423 3551 3496 3460 3442 3545 3489 3453 3431 3541 3498 3464 3437 3553 3494 3453 3430 3560 3491 3464 3439 3547 3491 3464 3428 3549 3486 3462 3435 3541 3494 3469 3443 3546 3494 3471 3426 3552 3486 3460 3434 3554 3498 3456 3441 3555 3491 3461 3434 3555 3504 3463 3438 3566 3496 3463 3436 3543 3495 3467 3436 3566

Tree=0
num_leaves=31
num_cat=0
split_feature=0 2 6 6 5 5 6 6 6 5 4 5 6 6 6 6 7 6 7 5 7 7 5 5 6 7 5 5 6 6
split_gain=129.26 163.391 129.767 103.184 95.6796 94.2974 4.3502 3.1411 4.04289 2.92392 2.64441 6.45837 4.90608 6.05888 2.5536 2.43202 2.55426 2.519 2.27022 3.33991 2.61977 2.21544 3.64099 2.18926 2.09366 4.39267 3.05788 1.9817 1.93714 5.07606
threshold=1.0000000180025095e-35 1.0000000180025095e-35 200.18500000000003 200.18500000000003 0.60500000000000009 0.60500000000000009 102.73500000000001 271.78000000000003 244.94000000000003 0.94500000000000006 1.0000000180025095e-35 0.53500000000000014 170.59000000000003 184.20500000000001 255.35000000000005 192.65000000000003 331.16000000000003 145.29000000000005 440.74000000000007 0.39500000000000007 559.28500000000008 648.91000000000008 0.46500000000000002 0.39500000000000007 123.95500000000001 920.93500000000006 0.60500000000000009 0.39500000000000007 139.28000000000003 155.34500000000003
decision_type=2 2 2 2 2 2 2 2 2 2 2 2 2 2 2 2 2 2 2 2 2 2 2 2 2 2 2 2 2 2
left_child=1 6 -3 -2 -5 -4 -1 8 -7 -6 27 15 24 -14 -10 16 17 23 -18 -20 -21 -22 -23 -12 -13 26 -26 28 -8 -30
right_child=3 2 5 4 9 7 10 -9 14 -11 11 12 13 -15 -16 -17 18 -19 19 20 21 22 -24 -25 25 -27 -28 -29 29 -31
leaf_value=-0.9109855995756142 -0.90928394779589905 -0.9093008110117341 -0.90928394779589905 -0.90928394779589905 -0.91149056128260275 -0.91164809160964388 -0.91176697029078946 -0.91186443619435587 -0.91080163722105034 -0.91089758310424962 -0.9113637444155509 -0.91112376788251415 -0.91041050429821047 -0.91145828062553502 -0.91143802286625275 -0.91112740389059044 -0.91110376983809438 -0.91222705621993461 -0.91205046971449244 -0.91209167323242901 -0.91091161471562654 -0.91109538356140218 -0.91191105931545924 -0.91205700995543482 -0.91141101252054291 -0.91084379526063786 -0.91204367792582164 -0.91171452621755955 -0.91073980542965527 -0.91163740186550501
leaf_weight=10.577957063913344 57.69794762134552 59.300668388605118 22.438090741634369 27.246253043413162 78.853861749172211 41.029651641845703 15.706663519144056 25.964076429605484 11.860133677721025 9.2957804501056653 9.6163246035575884 12.501221984624861 11.539589524269106 10.577957063913344 13.46285444498062 7.0519713759422293 7.6930596828460684 16.988840132951736 16.988840132951736 6.4108830690383902 7.3725155293941524 9.936868757009508 12.180677831172941 8.6546921432018262 14.103942751884462 6.4108830690383902 16.668295979499817 294.58007702231407 9.6163246035575884 18.271016746759415
leaf_count=33 180 185 70 85 246 128 49 81 37 29 30 39 36 33 42 22 24 53 53 20 23 31 38 27 44 20 52 919 30 57
internal_value=-0.911149 -0.911341 -0.910502 -0.910376 -0.910922 -0.911123 -0.91162 -0.91157 -0.911454 -0.911428 -0.911633 -0.911534 -0.911303 -0.910912 -0.91114 -0.911694 -0.911736 -0.91195 -0.911611 -0.911685 -0.911512 -0.911386 -0.911545 -0.911692 -0.911478 -0.911597 -0.911754 -0.911685 -0.911486 -0.911328
internal_weight=870.598 697.504 174.055 173.094 115.396 114.755 523.449 92.3167 66.3526 88.1496 512.871 174.697 71.8019 22.1175 25.323 102.895 95.8427 35.2599 60.5828 52.8898 35.9009 29.4901 22.1175 18.271 49.6843 37.1831 30.7722 338.174 43.594 27.8873
internal_count=2716 2176 543 540 360 358 1633 288 207 275 1600 545 224 69 79 321 299 110 189 165 112 92 69 57 155 116 96 1055 136 87
is_linear=0
shrinkage=1


Tree=1
num_leaves=31
num_cat=0
split_feature=6 2 0 1 5 6 6 7 4 5 6 6 6 5 6 7 7 5 6 6 6 5 5 7 6 6 7 5 5 5
split_gain=529.248 218.31 270.417 37.3697 76.5189 4.27073 2.90974 3.81862 2.83316 5.85725 4.05344 5.43699 5.57483 3.90519 2.48722 2.32813 2.51217 2.33365 2.30085 2.21636 8.80569 3.59154 2.20372 2.25527 2.14968 2.13527 2.12703 2.06487 1.91215 1.86219
threshold=199.17500000000004 1.0000000180025095e-35 1.0000000180025095e-35 1.0000000180025095e-35 0.60500000000000009 102.73500000000001 109.11000000000001 684.5200000000001 1.0000000180025095e-35 0.53500000000000014 121.22500000000001 161.96000000000004 184.20500000000001 0.59500000000000008 200.18500000000003 331.16000000000003 440.74000000000007 0.39500000000000007 173.94000000000003 150.24000000000004 139.28000000000003 0.49500000000000005 0.54500000000000015 204.01500000000001 265.56000000000006 151.95000000000002 726.95000000000016 0.6150000000000001 0.37500000000000006 0.39500000000000007
decision_type=2 2 2 2 2 2 2 2 2 2 2 2 2 2 2 2 2 2 2 2 2 2 2 2 2 2 2 2 2 2
left_child=1 2 5 14 24 -1 7 -7 19 15 -11 13 18 -12 -2 29 -17 -18 -13 20 22 -22 23 -8 -5 -21 -15 -24 -27 -10
right_child=3 -3 -4 4 -6 6 8 -9 9 10 11 12 -14 26 -16 16 17 -19 -20 25 21 -23 27 -25 -26 28 -28 -29 -30 -31
leaf_value=-0.97685812630198698 -0.97796207123189149 -0.97860119724394146 -0.97860119724394146 -0.9761027955604733 -0.97830367306591814 -0.97554759518636935 -0.97642235856649839 -0.97647077720377484 -0.97622013955199061 -0.97732294521984153 -0.97661280520645266 -0.97681164441020152 -0.97623024590891738 -0.97565785376739544 -0.97860119724394146 -0.97685812630198698 -0.97591915058623169 -0.97637028569244622 -0.97757859562466154 -0.97554450762109368 -0.97732294521984153 -0.97643273398877184 -0.97668381920779157 -0.97577429372910496 -0.97677512292379864 -0.97644762046420785 -0.9763376259512645 -0.9760446931957415 -0.97606062708523866 -0.97576063719038597
leaf_weight=10.326602071523665 6.2585467100143424 56.326920390129089 54.449356377124786 17.211003452539448 90.748927295207977 14.081730097532274 6.8844013810157803 6.5714740455150595 15.959294110536574 6.2585467100143424 14.081730097532271 7.8231833875179309 9.7007474005222303 11.891238749027254 224.68182688951492 6.8844013810157767 17.523930788040161 33.170297563076019 7.8231833875179291 7.1973287165164939 9.3878200650215167 8.7619653940200788 9.3878200650215167 24.408332169055939 6.5714740455150595 14.394657433032988 7.510256052017211 10.952456742525099 112.9667681157589 19.714422136545181
leaf_count=33 20 180 174 55 290 45 22 21 51 20 45 25 31 38 718 22 56 106 25 23 30 28 30 78 21 46 24 35 361 63
internal_value=-0.977399 -0.976746 -0.976512 -0.978352 -0.977885 -0.976224 -0.976206 -0.975841 -0.976227 -0.976328 -0.976558 -0.976476 -0.976826 -0.976212 -0.978584 -0.976167 -0.976291 -0.976214 -0.977195 -0.976149 -0.976294 -0.976893 -0.976083 -0.975917 -0.976289 -0.976074 -0.975921 -0.97634 -0.976104 -0.975966
internal_weight=849.911 504.439 448.112 345.472 114.531 393.663 383.336 20.6532 362.683 158.341 65.0889 58.8303 25.3471 33.4832 230.94 93.2523 57.5786 50.6942 15.6464 204.342 69.7828 18.1498 51.633 31.2927 23.7825 134.559 19.4015 20.3403 127.361 35.6737
internal_count=2716 1612 1432 1104 366 1258 1225 66 1159 506 208 188 81 107 738 298 184 162 50 653 223 58 165 100 76 430 62 65 407 114
is_linear=0
shrinkage=1


Tree=2
num_leaves=31
num_cat=0
split_feature=6 1 5 7 7 5 5 6 5 7 7 6 6 6 6 6 5 5 5 7 5 7 5 6 5 7 5 6 7 5
split_gain=570.984 318.261 346.609 5.7761 6.99299 6.95936 4.03252 3.6491 5.81688 3.54738 2.62411 2.5659 7.2035 2.12851 4.87414 2.05978 2.9105 1.93414 4.04103 2.72867 2.29438 2.01773 1.76956 1.63268 2.12097 1.07653 1.17701 0.96832 0.627281 0.473756
threshold=200.18500000000003 1.0000000180025095e-35 0.60500000000000009 577.42500000000007 538.74500000000012 0.92500000000000016 0.74500000000000011 272.71000000000009 0.93500000000000016 150.35500000000002 88.820000000000007 276.65500000000003 247.28000000000003 213.47500000000002 234.38000000000002 231.31500000000003 0.7350000000000001 0.83500000000000008 0.71500000000000008 423.74000000000007 0.64500000000000013 440.74000000000007 0.93500000000000016 231.31500000000003 0.62500000000000011 694.29500000000019 0.82500000000000007 282.84500000000008 207.66000000000003 0.87500000000000011
decision_type=2 2 2 2 2 2 2 2 2 2 2 2 2 2 2 2 2 2 2 2 2 2 2 2 2 2 2 2 2 2
left_child=-1 2 -2 4 7 11 23 8 9 10 -4 12 15 -8 -15 16 -5 18 20 -19 -11 -20 27 24 -3 26 -16 -9 -29 -27
right_child=1 6 3 5 -6 -7 13 22 -10 17 -12 -13 -14 14 25 -17 -18 19 21 -21 -22 -23 -24 -25 -26 29 -28 28 -30 -31
leaf_value=-1.848679132708636 -1.8486825902624247 -1.8486825902624247 -1.844712570934038 -1.8455752866727066 -1.8434095902313881 -1.8461967473906502 -1.8486825902624247 -1.8447278402391472 -1.8456287292405886 -1.8447524039038881 -1.8457349504935221 -1.844288423569894 -1.8459433694670808 -1.847237332778835 -1.847976384901125 -1.8440154939616624 -1.8443966542766066 -1.8434849188032598 -1.8453869652430268 -1.8446471310549986 -1.8437964126274873 -1.8444453580946274 -1.8435979116610679 -1.8486825902624247 -1.8477713575381671 -1.8481176259733849 -1.8485648893688746 -1.8445067672564794 -1.8440014575818104 -1.8476064678071109
leaf_weight=289.22182446718216 27.435362786054611 4.7790631949901599 6.5490866005420667 3.5400468111038297 5.3100702166557303 4.4250585138797751 4.2480561733245841 5.3100702166557339 6.5490866005420676 4.0710538327693992 4.0710538327693939 6.3720842599868766 5.8410772383213034 7.6111006438732174 5.6640748977661159 4.071053832769393 5.1330678761005402 4.4250585138797742 6.3720842599868757 3.7170491516590118 6.5490866005420685 3.5400468111038208 3.5400468111038199 20.886276185512543 5.4870725572109222 3.5400468111038199 8.4961123466491681 4.0710538327693921 6.1950819194316864 3.7170491516590118
leaf_count=1634 155 27 37 20 30 25 24 30 37 23 23 36 33 43 32 23 29 25 36 21 37 20 20 118 31 20 48 23 35 21
internal_value=-1.84779 -1.84645 -1.84554 -1.84467 -1.84451 -1.84504 -1.84826 -1.8446 -1.84476 -1.84461 -1.8451 -1.84484 -1.84502 -1.84802 -1.84792 -1.8446 -1.84488 -1.84443 -1.84459 -1.84402 -1.84416 -1.84505 -1.84424 -1.84852 -1.8482 -1.84817 -1.84833 -1.84438 -1.8442 -1.84786
internal_weight=480.738 191.517 127.088 99.6523 70.2699 29.3824 64.4289 64.9599 45.8436 39.2945 10.6201 24.9573 18.5852 33.2764 29.0284 12.7442 8.67311 28.6744 20.5323 8.14211 10.6201 9.91213 19.1163 31.1524 10.2661 21.4173 14.1602 15.5762 10.2661 7.2571
internal_count=2716 1082 718 563 397 166 364 367 259 222 60 141 105 188 164 72 49 162 116 46 60 56 108 176 58 121 80 88 58 41
is_linear=0
shrinkage=1


Tree=3
num_leaves=15
num_cat=0
split_feature=1 6 5 5 6 5 6 6 5 7 7 6 7 5
split_gain=573.749 324.351 277.396 19.5137 10.658 13.0363 10.2688 8.8326 7.81765 7.78313 6.24864 4.74248 2.98877 4.44089e-16
threshold=1.0000000180025095e-35 199.61500000000004 0.6150000000000001 0.75500000000000012 243.52500000000001 0.89500000000000013 241.58000000000004 223.43000000000004 0.82500000000000007 436.50000000000006 457.88000000000005 223.43000000000004 498.14000000000004 0.57500000000000007
decision_type=2 2 2 2 2 2 2 2 2 2 2 2 2 2
left_child=-1 -2 13 6 7 12 11 -5 -9 -7 -8 -4 -6 -3
right_child=1 2 3 4 5 9 10 8 -10 -11 -12 -13 -14 -15
leaf_value=-2.7486615269786778 -2.7486615269786778 -2.7486615269786778 -2.7401559279031584 -2.7416056001437821 -2.7431579040474592 -2.7380295281342786 -2.740188207216538 -2.742407410011384 -2.7455344684950309 -2.7409641522497008 -2.7379927392109416 -2.742407410011384 -2.7414452381702619 -2.7486615269786778
leaf_weight=174.68493245542049 13.271258026361464 4.317156225442889 1.998683437705042 3.1179461628198606 1.9986834377050398 1.5989467501640322 2.4783674627542496 1.5989467501640322 1.5989467501640318 2.0786307752132416 2.7182094752788544 1.758841425180435 2.0786307752132416 1.8387887626886366
leaf_count=2185 166 54 25 39 25 20 31 20 20 26 34 22 26 23
internal_value=-2.74786 -2.74456 -2.7427 -2.7411 -2.74184 -2.74105 -2.73995 -2.7428 -2.74397 -2.73969 -2.73904 -2.74121 -2.74228 -2.74866
internal_weight=217.137 42.452 29.1808 23.0248 14.0707 7.75489 8.9541 6.31584 3.19789 3.67758 5.19658 3.75752 4.07731 6.15594
internal_count=2716 531 365 288 176 97 112 79 40 46 65 47 51 77
is_linear=0
shrinkage=1


Tree=4
num_leaves=31
num_cat=0
split_feature=0 2 6 6 5 5 6 6 6 5 4 5 6 6 6 6 7 6 7 5 7 7 5 5 6 7 5 5 6 6
split_gain=128.906 162.96 129.383 102.866 95.4126 94.0463 4.34143 3.13613 4.03714 2.91804 2.64188 6.44535 4.89519 6.04321 2.54962 2.42909 2.54972 2.51662 2.26552 3.33439 2.61637 2.21268 3.63656 2.18583 2.08956 4.38584 3.05215 1.9799 1.93253 5.06644
threshold=1.0000000180025095e-35 1.0000000180025095e-35 200.18500000000003 200.18500000000003 0.60500000000000009 0.60500000000000009 102.73500000000001 271.78000000000003 244.94000000000003 0.94500000000000006 1.0000000180025095e-35 0.53500000000000014 170.59000000000003 184.20500000000001 255.35000000000005 192.65000000000003 331.16000000000003 145.29000000000005 440.74000000000007 0.39500000000000007 559.28500000000008 648.91000000000008 0.46500000000000002 0.39500000000000007 123.95500000000001 920.93500000000006 0.60500000000000009 0.39500000000000007 139.28000000000003 155.34500000000003
decision_type=2 2 2 2 2 2 2 2 2 2 2 2 2 2 2 2 2 2 2 2 2 2 2 2 2 2 2 2 2 2
left_child=1 6 -3 -2 -5 -4 -1 8 -7 -6 27 15 24 -14 -10 16 17 23 -18 -20 -21 -22 -23 -12 -13 26 -26 28 -8 -30
right_child=3 2 5 4 9 7 10 -9 14 -11 11 12 13 -15 -16 -17 18 -19 19 20 21 22 -24 -25 25 -27 -28 -29 29 -31
leaf_value=0.0001636210622088057 0.001862123242295643 0.0018452854869919848 0.0018621072424682137 0.0018621072424682137 -0.00034099876236993429 -0.00049845295360672964 -0.00061685370918272545 -0.00071462155128989939 0.00034735964782689358 0.00025135974471296891 -0.00021394099819509898 2.566749537705214e-05 0.00073791221412135668 -0.00030849383028299244 -0.00028852399219077762 2.2257528373394737e-05 4.559599770066724e-05 -0.0010768217039287861 -0.00090027228963996471 -0.00094156430087183058 0.00023782552908800859 5.4155768253029294e-05 -0.00076107537666596876 -0.00090674267214110177 -0.00026135728271440813 0.00030548466366133381 -0.00089348702640904129 -0.0005646143292785961 0.00040922753919337779 -0.00048752255194660333
leaf_weight=10.578253090381621 57.7309330701828 59.334406405687332 22.450981140136719 27.261905670166016 78.848657757043839 41.025875747203827 15.702822148799894 25.960051268339157 11.861085981130602 9.2966676056385023 9.615070581436159 12.500887244939802 11.541901439428331 10.576590299606321 13.462221324443815 7.0513684451580039 7.6929931640624991 16.983255714178085 16.98381096124649 6.4091551303863517 7.3723201453685787 9.9363396465778369 12.178086221218107 8.6519164144992811 14.102665781974794 6.4109644889831534 16.663409471511841 294.52771681547165 9.6170037090778369 18.268023103475571
leaf_count=33 180 185 70 85 246 128 49 81 37 29 30 39 36 33 42 22 24 53 53 20 23 31 38 27 44 20 52 919 30 57
internal_value=5.3604e-10 -0.000191718 0.000646372 0.000772309 0.000227144 2.64982e-05 -0.000470505 -0.000419949 -0.000304655 -0.000278523 -0.000483586 -0.000383722 -0.000153781 0.000237543 9.31509e-06 -0.000544198 -0.000585882 -0.000799712 -0.000461444 -0.000535209 -0.000362483 -0.000236615 -0.00039478 -0.000542077 -0.000328014 -0.00044694 -0.000603729 -0.000535176 -0.000336261 -0.000178251
internal_weight=870.597 697.459 174.095 173.138 115.407 114.76 523.365 92.3092 66.3492 88.1453 512.786 174.671 71.7964 22.1185 25.3233 102.874 95.8229 35.2502 60.5727 52.8797 35.8959 29.4867 22.1144 18.267 49.6779 37.177 30.7661 338.116 43.5878 27.885
internal_count=2716 2176 543 540 360 358 1633 288 207 275 1600 545 224 69 79 321 299 110 189 165 112 92 69 57 155 116 96 1055 136 87
is_linear=0
shrinkage=0.001


Tree=5
num_leaves=31
num_cat=0
split_feature=6 2 0 1 5 6 6 7 4 5 6 6 6 5 6 7 7 5 6 6 6 5 5 7 6 6 7 5 5 5
split_gain=528.185 217.757 269.674 37.3116 76.357 4.25556 2.90225 3.80885 2.82335 5.83573 4.04398 5.41838 5.55852 3.89156 2.4843 2.31897 2.50371 2.32446 2.29505 2.21025 8.78047 3.58169 2.1978 2.24919 2.14449 2.13016 2.11927 2.05984 1.90621 1.8552
threshold=199.17500000000004 1.0000000180025095e-35 1.0000000180025095e-35 1.0000000180025095e-35 0.60500000000000009 102.73500000000001 109.11000000000001 684.5200000000001 1.0000000180025095e-35 0.53500000000000014 121.22500000000001 161.96000000000004 184.20500000000001 0.59500000000000008 200.18500000000003 331.16000000000003 440.74000000000007 0.39500000000000007 173.94000000000003 150.24000000000004 139.28000000000003 0.49500000000000005 0.54500000000000015 204.01500000000001 265.56000000000006 151.95000000000002 726.95000000000016 0.6150000000000001 0.37500000000000006 0.39500000000000007
decision_type=2 2 2 2 2 2 2 2 2 2 2 2 2 2 2 2 2 2 2 2 2 2 2 2 2 2 2 2 2 2
left_child=1 2 5 14 24 -1 7 -7 19 15 -11 13 18 -12 -2 29 -17 -18 -13 20 22 -22 23 -8 -5 -21 -15 -24 -27 -10
right_child=3 -3 -4 4 -6 6 8 -9 9 10 11 12 -14 26 -16 16 17 -19 -20 25 21 -23 27 -25 -26 28 -28 -29 -30 -31
leaf_value=0.00053993658746161687 -0.0005628610106818095 -0.0012015352754504577 -0.0012015304010096588 0.0012938175789653371 -0.00090435573088387526 0.0018481941909174134 0.00097471794406144507 0.00092640318092157884 0.0011766565549347183 7.5491638978163037e-05 0.00078480291741299304 0.00058633012499757515 0.001166733629633586 0.0017378261953152614 -0.0012016774784517502 0.00053986927718724668 0.0014770113512336963 0.0010268783578664684 -0.00017963080386494611 0.0018512937959946729 7.5488714547097442e-05 0.00096436616058810502 0.00071361489456805418 0.0016217656846582431 0.00062242418892713186 0.00094961123643885011 0.0010594605955041602 0.0013518295390606179 0.0013359289499383375 0.001635174225653113
leaf_weight=10.328495264053343 6.2572964131832114 56.297764778137207 54.421022236347198 17.21936792135239 90.723311215639114 14.090169429779055 6.8872187137603786 6.5740241110324851 15.966573417186735 6.2591129541397086 14.085821986198424 7.8247896730899829 9.7047597765922529 11.898801773786547 224.58307757973671 6.8857933282852164 17.533851534128189 33.182983875274658 7.822505384683609 7.2016217410564414 9.3886778354644793 8.7655085325241071 9.3910351395607012 24.422257542610168 6.5735775232315055 14.400025844573973 7.5132476091384879 10.957935005426405 113.02261355519295 19.726682364940643
leaf_count=33 20 180 174 55 290 45 22 21 51 20 45 25 31 38 718 22 56 106 25 23 30 28 30 78 21 46 24 35 361 63
internal_value=2.37532e-10 0.00065221 0.000885027 -0.000952854 -0.000486183 0.00117335 0.00119041 0.00155494 0.00116965 0.00106944 0.00083968 0.000920957 0.000572167 0.00118493 -0.00118436 0.00122978 0.00110568 0.0011825 0.000203406 0.0012473 0.00110291 0.000504671 0.00131315 0.00147943 0.00110832 0.00132218 0.00147527 0.00105729 0.00129227 0.00143007
internal_weight=849.91 504.553 448.256 345.357 114.516 393.835 383.506 20.6642 362.842 158.405 65.109 58.8499 25.3521 33.4979 230.84 93.2959 57.6026 50.7168 15.6473 204.437 69.8126 18.1542 51.6584 31.3095 23.7929 134.624 19.412 20.349 127.423 35.6933
internal_count=2716 1612 1432 1104 366 1258 1225 66 1159 506 208 188 81 107 738 298 184 162 50 653 223 58 165 100 76 430 62 65 407 114
is_linear=0
shrinkage=0.001


Tree=6
num_leaves=31
num_cat=0
split_feature=6 1 5 7 7 5 5 6 5 7 7 6 6 6 6 6 5 5 5 7 5 7 5 6 5 7 5 6 7 5
split_gain=569.652 316.879 344.625 5.72804 6.92681 6.90803 4.02861 3.61323 5.76896 3.51781 2.60464 2.54276 7.14852 2.1268 4.86502 2.04258 2.88779 1.91698 4.00621 2.70273 2.27322 2.00187 1.75318 1.63249 2.11896 1.07547 1.17616 0.95994 0.621334 0.473094
threshold=200.18500000000003 1.0000000180025095e-35 0.60500000000000009 577.42500000000007 538.74500000000012 0.92500000000000016 0.74500000000000011 272.71000000000009 0.93500000000000016 150.35500000000002 88.820000000000007 276.65500000000003 247.28000000000003 213.47500000000002 234.38000000000002 231.31500000000003 0.7350000000000001 0.83500000000000008 0.71500000000000008 423.74000000000007 0.64500000000000013 440.74000000000007 0.93500000000000016 231.31500000000003 0.62500000000000011 694.29500000000019 0.82500000000000007 282.84500000000008 207.66000000000003 0.87500000000000011
decision_type=2 2 2 2 2 2 2 2 2 2 2 2 2 2 2 2 2 2 2 2 2 2 2 2 2 2 2 2 2 2
left_child=-1 2 -2 4 7 11 23 8 9 10 -4 12 15 -8 -15 16 -5 18 20 -19 -11 -20 27 24 -3 26 -16 -9 -29 -27
right_child=1 6 3 5 -6 -7 13 22 -10 17 -12 -13 -14 14 25 -17 -18 19 21 -21 -22 -23 -24 -25 -26 29 -28 28 -30 -31
leaf_value=-0.00088667647982330758 -0.0008901311750245328 -0.00089014530520944925 0.0030687781289572055 0.0022101592966119032 0.0043634002742710528 0.0015913814405434583 -0.00089019858731607937 0.0030532890949273189 0.0021572973494304671 0.0030291219372263018 0.0020513118395816174 0.0034902011728398918 0.0018437899134162478 0.00055400490069656342 -0.00018411671438738734 0.0037617598651204709 0.0033827784896411513 0.0042887861527125589 0.0023977799673045122 0.0031338591335281392 0.0039793381070752027 0.0033344720435496125 0.00417634462045058 -0.00089016784568519611 2.08116568774186e-05 -0.00032526759552881752 -0.0007724556001279312 0.0032732018904146555 0.0037753676352368882 0.00018551367764044107
leaf_weight=288.99517537653446 27.41312749683857 4.7755165994167346 6.5662960112094861 3.5473787188530057 5.3288438618183127 4.4319162368774405 4.2460111677646628 5.3243569731712368 6.5617021918296805 4.081679999828344 4.078855112195015 6.3910746276378623 5.8512782007455817 7.6155091077089336 5.6642292737960842 4.0836571604013434 5.1478065699338913 4.4403329044580442 6.3858509361743909 3.7269817590713501 6.5704314261674881 3.5500048100948334 3.552156835794448 20.873079106211662 5.48768150806427 3.539746180176734 8.4924068301916105 4.0825365334749204 6.2147521823644638 3.7179532498121262
leaf_count=1634 155 27 37 20 30 25 24 30 37 23 23 36 33 43 32 23 29 25 36 21 37 20 20 118 31 20 48 23 35 21
internal_value=-5.95193e-10 0.0013364 0.00225073 0.00311244 0.00326724 0.0027421 -0.000471068 0.00317756 0.00302544 0.00317002 0.00267892 0.00294592 0.00275921 -0.000229154 -0.000132467 0.00317837 0.00290438 0.00335182 0.0031892 0.00376176 0.00361523 0.00273245 0.00354222 -0.000729607 -0.000403061 -0.000376594 -0.000537055 0.00339802 0.00357628 -6.3606e-05
internal_weight=480.738 191.743 127.331 99.9179 70.4648 29.4531 64.4121 65.1359 45.9621 39.4004 10.6452 25.0212 18.6301 33.2759 29.0298 12.7788 8.69519 28.7553 20.588 8.16731 10.6521 9.93586 19.1738 31.1363 10.2632 21.4143 14.1566 15.6216 10.2973 7.2577
internal_count=2716 1082 718 563 397 166 364 367 259 222 60 141 105 188 164 72 49 162 116 46 60 56 108 176 58 121 80 88 58 41
is_linear=0
shrinkage=0.001


Tree=7
num_leaves=31
num_cat=0
split_feature=1 6 5 5 6 5 6 6 5 7 7 6 7 6 5 6 7 6 6 7 7 6 5 6 7 6 5 5 5 7
split_gain=571.442 321.429 274.012 19.1167 10.4673 12.7768 10.0332 8.69583 7.72375 7.59535 6.09321 4.65364 2.93962 3.50875e-09 1.72998e-09 2.09141e-10 3.4447e-10 2.48268e-10 2.08106e-10 1.68168e-10 2.2624e-10 1.6243e-10 1.99339e-10 1.80158e-10 1.47102e-10 1.34698e-10 1.42137e-10 9.96074e-11 8.24301e-11 7.98668e-11
threshold=1.0000000180025095e-35 199.61500000000004 0.6150000000000001 0.75500000000000012 243.52500000000001 0.89500000000000013 241.58000000000004 223.43000000000004 0.82500000000000007 436.50000000000006 457.88000000000005 218.90500000000003 498.14000000000004 199.17500000000004 0.60500000000000009 109.11000000000001 684.5200000000001 102.73500000000001 265.56000000000006 577.42500000000007 150.35500000000002 150.24000000000004 0.46500000000000002 142.56000000000003 538.74500000000012 152.28500000000005 0.36500000000000005 0.60500000000000009 0.92500000000000016 91.790000000000006
decision_type=2 2 2 2 2 2 2 2 2 2 2 2 2 2 2 2 2 2 2 2 2 2 2 2 2 2 2 2 2 2
left_child=13 -2 18 6 7 12 11 -5 -9 -7 -8 -4 -6 15 -15 16 17 -1 -3 20 29 22 23 -17 -22 -23 -27 -24 -21 -16
right_child=1 2 3 4 5 9 10 8 -10 -11 -12 -13 -14 14 19 21 -18 -19 -20 28 24 25 27 -25 -26 26 -28 -29 -30 -31
leaf_value=-0.00080128936460738926 -0.00080128864241944765 -0.00080129064862942976 0.0078907052481874702 0.0062119028211948613 0.0046763034928338403 0.0097326795632376641 0.0076096583320166876 0.0054197750069087097 0.0023176004548006346 0.00684532533124667 0.0097687313915674756 0.005647260673861924 0.0063702415345444708 -0.00080128863441132733 -0.00080130264096997896 -0.00080128705353984251 -0.00080129413950231034 -0.00080127507437968075 -0.00080130370794748759 -0.00080130361701461524 -0.00080129972203844802 -0.00080128284016429952 -0.00080129491193202244 -0.00080129625923016333 -0.00080129146526658219 -0.00080129370503595574 -0.00080128866109857274 -0.00080129046134699096 -0.00080131056874719079 -0.00080130913389579478
leaf_weight=1.8372824788093556 13.260228946804999 4.4734830856323269 1.6105890423059483 3.1367645859718305 2.0080623999238014 1.6137357056140902 2.4966029599308968 1.6073495298624041 1.6030324399471281 2.0923099294304848 2.7434539794921875 2.1709012165665627 2.0914832651615143 13.020579740405081 5.2733969539403898 12.620847649872301 2.4765397682785988 3.5938136875629425 1.6779288724064825 11.665584594011305 21.651816897094253 3.5942896232008925 14.060548141598703 2.5565209984779349 2.3965438455343238 6.151363603770732 60.869304455816746 7.8285748139023772 1.9977685287594784 2.9566241204738617
leaf_count=23 166 56 20 39 25 20 31 20 20 26 34 27 26 163 66 158 31 45 21 146 271 45 176 32 30 77 762 98 25 37
internal_value=-1.7961e-09 0.00328433 0.00513173 0.0067066 0.00598146 0.00675696 0.00784419 0.00502776 0.00387077 0.00810258 0.00874005 0.00660277 0.00554051 -0.000801293 -0.000801299 -0.000801289 -0.000801284 -0.00080128 -0.000801294 -0.000801302 -0.0008013 -0.00080129 -0.000801291 -0.000801289 -0.000801299 -0.000801289 -0.000801289 -0.000801293 -0.000801305 -0.000801305
internal_weight=217.137 42.5859 29.3257 23.1743 14.1527 7.80559 9.02155 6.34715 3.21038 3.70605 5.24006 3.78149 4.09955 174.551 58.9623 115.589 7.90764 5.4311 6.15141 45.9417 32.2784 107.681 37.0665 15.1774 24.0484 70.615 67.0207 21.8891 13.6634 8.23002
internal_count=2716 531 365 288 176 97 112 79 40 46 65 47 51 2185 738 1447 99 68 77 575 404 1348 464 190 301 884 839 274 171 103
is_linear=0
shrinkage=0.001


Tree=8
num_leaves=31
num_cat=0
split_feature=0 2 6 6 5 5 6 6 6 5 4 5 6 6 6 6 7 6 7 5 7 7 5 5 6 7 5 5 6 6
split_gain=128.553 162.53 129.001 102.55 95.1467 93.7963 4.33268 3.13117 4.03139 2.91217 2.63934 6.43237 4.88432 6.02759 2.54566 2.42616 2.54519 2.51426 2.26083 3.32888 2.61297 2.20993 3.63215 2.1824 2.08546 4.37902 3.04643 1.9781 1.92793 5.05684
threshold=1.0000000180025095e-35 1.0000000180025095e-35 200.18500000000003 200.18500000000003 0.60500000000000009 0.60500000000000009 102.73500000000001 271.78000000000003 244.94000000000003 0.94500000000000006 1.0000000180025095e-35 0.53500000000000014 170.59000000000003 184.20500000000001 255.35000000000005 192.65000000000003 331.16000000000003 145.29000000000005 440.74000000000007 0.39500000000000007 559.28500000000008 648.91000000000008 0.46500000000000002 0.39500000000000007 123.95500000000001 920.93500000000006 0.60500000000000009 0.39500000000000007 139.28000000000003 155.34500000000003
decision_type=2 2 2 2 2 2 2 2 2 2 2 2 2 2 2 2 2 2 2 2 2 2 2 2 2 2 2 2 2 2
left_child=1 6 -3 -2 -5 -4 -1 8 -7 -6 27 15 24 -14 -10 16 17 23 -18 -20 -21 -22 -23 -12 -13 26 -26 28 -8 -30
right_child=3 2 5 4 9 7 10 -9 14 -11 11 12 13 -15 -16 -17 18 -19 19 20 21 22 -24 -25 25 -27 -28 -29 29 -31
leaf_value=0.00016350951848682988 0.001858875710595664 0.0018420634690554279 0.0018588439712722482 0.0018588439712722482 -0.00034076805640089651 -0.00049814617816545145 -0.00061607040179521204 -0.00071413905129026937 0.00034702535257878154 0.0002509713460795802 -0.0002134704631735796 2.5770367336601209e-05 0.00073699787416721375 -0.00030803980011722732 -0.00028835685892903009 2.2586145509991206e-05 4.5629414910705029e-05 -0.0010759214923038503 -0.00089940867281082743 -0.00094078892777803703 0.00023793317323870931 5.4362436159651336e-05 -0.00076042448563609514 -0.00090580933833235642 -0.00026103468911264216 0.00030543224344791039 -0.00089262987623447716 -0.00056403535058361406 0.0004089284676829318 -0.00048697612650919301
leaf_weight=10.578549116849898 57.763657450675964 59.367870390415192 22.463767230510712 27.277431637048721 78.843432664871216 41.02208885550499 15.698972046375273 25.956014782190323 11.862033903598787 9.2975505888462049 9.6138163208961505 12.500551074743269 11.544205337762834 10.575222611427305 13.46158456802368 7.0507649779319754 7.6929264664649954 16.97765326499939 16.978766113519669 6.4074225425720206 7.3721247017383602 9.9358096420764941 12.175491213798521 8.6491316556930524 14.101388394832613 6.4110459089279166 16.658509194850922 294.47525304555893 9.6176803410053271 18.265026330947876
leaf_count=33 180 185 70 85 246 128 49 81 37 29 30 39 36 33 42 22 24 53 53 20 23 31 38 27 44 20 52 919 30 57
internal_value=1.21154e-09 -0.000191486 0.000645365 0.000771131 0.000226745 2.63156e-05 -0.000469967 -0.000419673 -0.00030447 -0.000278348 -0.000483038 -0.000383214 -0.000153502 0.000237369 9.26749e-06 -0.000543551 -0.000585216 -0.00079889 -0.000460882 -0.000534583 -0.000361997 -0.000236212 -0.000394296 -0.000541355 -0.000327563 -0.000446389 -0.000603085 -0.000534608 -0.000335769 -0.000177949
internal_weight=870.596 697.414 174.133 173.182 115.418 114.765 523.28 92.3017 66.3457 88.141 512.702 174.645 71.7909 22.1194 25.3236 102.854 95.8031 35.2406 60.5625 52.8696 35.8908 29.4834 22.1113 18.2629 49.6715 37.1709 30.7599 338.057 43.5817 27.8827
internal_count=2716 2176 543 540 360 358 1633 288 207 275 1600 545 224 69 79 321 299 110 189 165 112 92 69 57 155 116 96 1055 136 87
is_linear=0
shrinkage=0.001


Tree=9
num_leaves=31
num_cat=0
split_feature=6 2 0 1 5 6 6 7 4 5 6 6 6 5 6 7 7 5 6 6 6 5 5 7 6 6 7 5 5 5
split_gain=527.125 217.207 268.934 37.2537 76.1956 4.24047 2.89479 3.79914 2.81358 5.81431 4.03455 5.39985 5.54228 3.87801 2.48139 2.30987 2.4953 2.31533 2.28926 2.20417 8.75537 3.57188 2.19191 2.24315 2.13934 2.12508 2.11157 2.05484 1.90031 1.84826
threshold=199.17500000000004 1.0000000180025095e-35 1.0000000180025095e-35 1.0000000180025095e-35 0.60500000000000009 102.73500000000001 109.11000000000001 684.5200000000001 1.0000000180025095e-35 0.53500000000000014 121.22500000000001 161.96000000000004 184.20500000000001 0.59500000000000008 200.18500000000003 331.16000000000003 440.74000000000007 0.39500000000000007 173.94000000000003 150.24000000000004 139.28000000000003 0.49500000000000005 0.54500000000000015 204.01500000000001 265.56000000000006 151.95000000000002 726.95000000000016 0.6150000000000001 0.37500000000000006 0.39500000000000007
decision_type=2 2 2 2 2 2 2 2 2 2 2 2 2 2 2 2 2 2 2 2 2 2 2 2 2 2 2 2 2 2
left_child=1 2 5 14 24 -1 7 -7 19 15 -11 13 18 -12 -2 29 -17 -18 -13 20 22 -22 23 -8 -5 -21 -15 -24 -27 -10
right_child=3 -3 -4 4 -6 6 8 -9 9 10 11 12 -14 26 -16 16 17 -19 -20 25 21 -23 27 -25 -26 28 -28 -29 -30 -31
leaf_value=0.00053928256939402084 -0.00056236928734707643 -0.0012005938863096784 -0.0012005840126698469 0.001291718815744603 -0.00090375691308215613 0.001845276557011655 0.0009730806233495396 0.00092486926735056219 0.0011747402133702775 7.5211112249519042e-05 0.0007836954747445895 0.00058558804468275755 0.0011649998520283111 0.0017348001976842447 -0.0012008776341394518 0.00053914815582398862 0.001474463803591121 0.0010253282558953967 -0.0001793839028869491 0.0018483881033411358 7.5205262990007127e-05 0.0009627522795159464 0.00071233379377608522 0.0016191164078932876 0.00062125569715532796 0.00094812838568264762 0.0010578332170763293 0.0013496412042840274 0.001333773563696845 0.0016322786319229328
leaf_weight=10.330383539199827 6.2560436427593222 56.268523335456848 54.392610311508179 17.227694690227512 90.697653770446777 14.098563045263292 6.8900247216224697 6.5765642523765555 15.973820120096205 6.2596774101257315 14.089899480342863 7.8263912200927752 9.7087555229663831 11.90632086992264 224.48408648371696 6.8871813416481009 17.543721169233322 33.195620566606522 7.8218281269073486 7.205891638994216 9.3895331025123614 8.7690383195877057 9.3942385911941546 24.436111092567444 6.5756741166114798 14.405373215675352 7.5162269473075858 10.963386148214338 113.07820254564285 19.738872766494751
leaf_count=33 20 180 174 55 290 45 22 21 51 20 45 25 31 38 718 22 56 106 25 23 30 28 30 78 21 46 24 35 361 63
internal_value=3.47568e-10 0.000651373 0.000883773 -0.000952164 -0.000485848 0.00117152 0.00118854 0.0015525 0.00116781 0.00106779 0.000838483 0.000919643 0.000571465 0.00118309 -0.00118357 0.0012278 0.00110396 0.00118062 0.000203214 0.00124531 0.00110114 0.000503815 0.00131101 0.00147702 0.0011065 0.00132006 0.00147282 0.00105555 0.0012902 0.00142763
internal_weight=849.908 504.667 448.398 345.241 114.501 394.006 383.675 20.6751 363 158.468 65.1291 58.8694 25.357 33.5124 230.74 93.3392 57.6265 50.7393 15.6482 204.532 69.8423 18.1586 51.6838 31.3261 23.8034 134.689 19.4225 20.3576 127.484 35.7127
internal_count=2716 1612 1432 1104 366 1258 1225 66 1159 506 208 188 81 107 738 298 184 162 50 653 223 58 165 100 76 430 62 65 407 114
is_linear=0
shrinkage=0.001


Tree=10
num_leaves=31
num_cat=0
split_feature=6 1 5 7 7 5 5 6 5 7 7 6 6 6 6 6 5 5 5 7 5 7 5 6 5 7 5 6 7 5
split_gain=568.324 315.506 342.658 5.6806 6.86161 6.85727 4.0247 3.57785 5.72162 3.48863 2.58539 2.51992 7.09419 2.1251 4.85592 2.02561 2.86535 1.90006 3.97186 2.67718 2.25238 1.98621 1.73705 1.63228 2.11692 1.07442 1.17531 0.951675 0.615475 0.472432
threshold=200.18500000000003 1.0000000180025095e-35 0.60500000000000009 577.42500000000007 538.74500000000012 0.92500000000000016 0.74500000000000011 272.71000000000009 0.93500000000000016 150.35500000000002 88.820000000000007 276.65500000000003 247.28000000000003 213.47500000000002 234.38000000000002 231.31500000000003 0.7350000000000001 0.83500000000000008 0.71500000000000008 423.74000000000007 0.64500000000000013 440.74000000000007 0.93500000000000016 231.31500000000003 0.62500000000000011 694.29500000000019 0.82500000000000007 282.84500000000008 207.66000000000003 0.87500000000000011
decision_type=2 2 2 2 2 2 2 2 2 2 2 2 2 2 2 2 2 2 2 2 2 2 2 2 2 2 2 2 2 2
left_child=-1 2 -2 4 7 11 23 8 9 10 -4 12 15 -8 -15 16 -5 18 20 -19 -11 -20 27 24 -3 26 -16 -9 -29 -27
right_child=1 6 3 5 -6 -7 13 22 -10 17 -12 -13 -14 14 25 -17 -18 19 21 -21 -22 -23 -24 -25 -26 29 -28 28 -30 -31
leaf_value=-0.00088651345964108259 -0.00088996529942066767 -0.00088999339548302507 0.0030579073910841719 0.0022033485035946763 0.0043442703531260882 0.0015872345502251544 -0.0008900997439806349 0.0030422012943882911 0.0021510627771303046 0.0030184261957481528 0.0020453111466331927 0.0034766359119056587 0.0018386798558894992 0.00055305298848541153 -0.00018414111353041667 0.0037468392267347717 0.0033700120683010292 0.004270361514132761 0.0023902742356625324 0.0031226331737035495 0.0039629328151374234 0.0033220982719346388 0.004158463911083596 -0.00089003827386057279 2.0681375398229369e-05 -0.0003252019174877461 -0.00077231483736844321 0.0032609658130889735 0.0037600234639024593 0.00018520318976951404
leaf_weight=288.76856316626072 27.390882968902588 4.7719692587852496 6.5834731608629209 3.5546990036964505 5.3475734144449225 4.4387639909982672 4.2439604103565207 5.3386172205209759 6.5742973983287802 4.0922863781452232 4.0866444557905197 6.4100265949964514 5.8614642471075049 7.6199059039354351 5.6643811166286495 4.0962334126234046 5.1625160723924637 4.4555714428424817 6.3995946347713453 3.736895427107811 6.5917291641235352 3.5599433332681656 3.5642391294240943 20.859860137104988 5.4883220642805099 3.5394443422555915 8.4886983186006528 4.0939973592758161 6.2343811541795731 3.7188548743724823
leaf_count=1634 155 27 37 20 30 25 24 30 37 23 23 36 33 43 32 23 29 25 36 21 37 20 20 118 31 20 48 23 35 21
internal_value=-1.21965e-09 0.00133353 0.00224435 0.0031013 0.00325523 0.00273292 -0.000470906 0.00316606 0.00301485 0.0031586 0.00267008 0.00293565 0.00274996 -0.000229138 -0.000132515 0.00316682 0.00289427 0.00333936 0.00317766 0.00374684 0.00360116 0.00272335 0.00352836 -0.000729418 -0.000402865 -0.000376495 -0.000536914 0.00338501 0.00356221 -6.36913e-05
internal_weight=480.738 191.969 127.574 100.183 70.6592 29.5237 64.3954 65.3117 46.0804 39.5061 10.6701 25.0849 18.6749 33.2752 29.0313 12.8134 8.71722 28.836 20.6436 8.19247 10.684 9.95954 19.2312 31.1202 10.2603 21.4114 14.1531 15.667 10.3284 7.2583
internal_count=2716 1082 718 563 397 166 364 367 259 222 60 141 105 188 164 72 49 162 116 46 60 56 108 176 58 121 80 88 58 41
is_linear=0
shrinkage=0.001


Tree=11
num_leaves=31
num_cat=0
split_feature=1 6 5 5 6 5 6 6 5 7 7 6 6 6 5 6 7 6 6 7 7 6 5 6 7 6 5 5 5 7
split_gain=569.152 318.547 270.691 18.731 10.2813 12.5246 9.80504 8.56199 7.63148 7.41384 5.9432 4.57754 2.91196 1.39508e-08 6.97257e-09 8.37858e-10 1.36964e-09 9.78882e-10 8.31776e-10 6.68237e-10 9.02904e-10 6.53657e-10 7.96117e-10 7.19707e-10 5.8691e-10 5.33142e-10 5.69543e-10 4.00247e-10 3.31584e-10 3.18137e-10
threshold=1.0000000180025095e-35 199.61500000000004 0.6150000000000001 0.75500000000000012 243.52500000000001 0.89500000000000013 241.58000000000004 223.43000000000004 0.82500000000000007 436.50000000000006 457.88000000000005 223.43000000000004 274.68500000000006 199.17500000000004 0.60500000000000009 109.11000000000001 684.5200000000001 102.73500000000001 265.56000000000006 577.42500000000007 150.35500000000002 150.24000000000004 0.46500000000000002 142.56000000000003 538.74500000000012 152.28500000000005 0.36500000000000005 0.60500000000000009 0.92500000000000016 91.790000000000006
decision_type=2 2 2 2 2 2 2 2 2 2 2 2 2 2 2 2 2 2 2 2 2 2 2 2 2 2 2 2 2 2
left_child=13 -2 18 6 7 12 11 -5 -9 -7 -8 -4 -6 15 -15 16 17 -1 -3 20 29 22 23 -17 -22 -23 -27 -24 -21 -16
right_child=1 2 3 4 5 9 10 8 -10 -11 -12 -13 -14 14 19 21 -18 -19 -20 28 24 25 27 -25 -26 26 -28 -29 -30 -31
leaf_value=-0.00080124109731388076 -0.00080123974823182809 -0.00080124376416420119 0.0075829296901999202 0.0061697725688823367 0.0062092054368657083 0.0096366258526420032 0.0075483139840201354 0.0053871496294591254 0.0023095270995371693 0.0067953324388762733 0.0096719612530558677 0.0053846693602040445 0.0045013272728482035 -0.00080123961926829661 -0.00080126774953517789 -0.00080123660887313917 -0.00080125070220078102 -0.00080121270903770196 -0.00080126988090049856 -0.00080126966960257832 -0.00080126191211843617 -0.00080122821932854542 -0.00080125232994016267 -0.00080125501515466828 -0.00080124541318743827 -0.00080124990002663772 -0.00080123979936630864 -0.00080124340505263573 -0.00080128361571488833 -0.00080128071167876857
leaf_weight=1.8357775658369053 13.249203525483606 4.4699164628982571 2.0274021029472373 3.1555597558617574 2.4246956035494804 1.6284999251365664 2.5148135870695114 1.6157420948147776 1.6071146577596662 2.1059708520770073 2.7686564326286316 1.7780219689011572 1.6970555856823919 13.009740039706228 5.2702678963541967 12.610020190477369 2.474713109433651 3.5899992883205414 1.6769638136029241 11.658853985369204 21.637898385524753 3.5909498408436766 14.050369136035444 2.5547275245189658 2.3946668654680243 6.1467831060290328 60.818739496171474 7.8223120495676985 1.996853046119212 2.9551954939961433
leaf_count=23 166 56 25 39 30 20 31 20 20 26 34 22 21 163 66 158 31 45 21 146 271 45 176 32 30 77 762 98 25 37
internal_value=-3.5081e-09 0.00327136 0.0051023 0.00665817 0.00594209 0.00670786 0.00777968 0.00499889 0.00385246 0.00803434 0.00866115 0.00655583 0.00550602 -0.000801248 -0.00080126 -0.000801241 -0.000801231 -0.000801222 -0.000801251 -0.000801266 -0.000801263 -0.000801242 -0.000801245 -0.00080124 -0.00080126 -0.00080124 -0.000801241 -0.000801249 -0.000801272 -0.000801272
internal_weight=217.137 42.7196 29.4704 23.3235 14.2346 7.85622 9.08889 6.37842 3.22286 3.73447 5.28347 3.80542 4.12175 174.418 58.9235 115.494 7.90049 5.42578 6.14688 45.9137 32.258 107.594 37.0374 15.1647 24.0326 70.5565 66.9655 21.8727 13.6557 8.22546
internal_count=2716 531 365 288 176 97 112 79 40 46 65 47 51 2185 738 1447 99 68 77 575 404 1348 464 190 301 884 839 274 171 103
is_linear=0
shrinkage=0.001


Tree=12
num_leaves=31
num_cat=0
split_feature=0 2 6 6 5 5 6 6 6 5 4 5 6 6 6 6 7 6 7 5 7 7 5 5 6 7 5 5 6 6
split_gain=128.202 162.101 128.62 102.236 94.8818 93.5471 4.32395 3.12622 4.02566 2.90631 2.63679 6.41941 4.87348 6.012 2.5417 2.42324 2.54068 2.51189 2.25615 3.32339 2.60958 2.20718 3.62774 2.17899 2.08138 4.37221 3.04072 1.9763 1.92335 5.04726
threshold=1.0000000180025095e-35 1.0000000180025095e-35 200.18500000000003 200.18500000000003 0.60500000000000009 0.60500000000000009 102.73500000000001 271.78000000000003 244.94000000000003 0.94500000000000006 1.0000000180025095e-35 0.53500000000000014 170.59000000000003 184.20500000000001 255.35000000000005 192.65000000000003 331.16000000000003 145.29000000000005 440.74000000000007 0.39500000000000007 559.28500000000008 648.91000000000008 0.46500000000000002 0.39500000000000007 123.95500000000001 920.93500000000006 0.60500000000000009 0.39500000000000007 139.28000000000003 155.34500000000003
decision_type=2 2 2 2 2 2 2 2 2 2 2 2 2 2 2 2 2 2 2 2 2 2 2 2 2 2 2 2 2 2
left_child=1 6 -3 -2 -5 -4 -1 8 -7 -6 27 15 24 -14 -10 16 17 23 -18 -20 -21 -22 -23 -12 -13 26 -26 28 -8 -30
right_child=3 2 5 4 9 7 10 -9 14 -11 11 12 13 -15 -16 -17 18 -19 19 20 21 22 -24 -25 25 -27 -28 -29 29 -31
leaf_value=0.00016339809761584473 0.0018556420641047907 0.0018388548943117579 0.0018555943503594651 0.0018555943503594651 -0.00034053679105939172 -0.00049783896799528637 -0.00061528794459552859 -0.00071365631645647237 0.00034669227760392179 0.00025058411355363246 -0.00021300032651046924 2.5873155342086851e-05 0.00073608504277422073 -0.00030758604619973224 -0.00028818910665089081 2.2914400412251791e-05 4.5662895745978453e-05 -0.0010750229214189922 -0.00089854634362862443 -0.00094001463037370254 0.00023804076842428321 5.4568929064304632e-05 -0.00075977442389405739 -0.00090487763695348714 -0.00026071237044685111 0.00030537981512913042 -0.00089177406103966704 -0.0005634568020411666 0.00040862964928572515 -0.00048643028877354679
leaf_weight=10.578844159841536 57.796115934848785 59.40107136964798 22.476453185081482 27.292836010456085 78.838190406560898 41.018289893865585 15.69511505961418 25.951967805624008 11.862977057695391 9.2984302639961225 9.6125609278678912 12.500214368104933 11.546500891447069 10.573853015899656 13.460944652557371 7.050161510705947 7.6928595900535575 16.972034990787506 16.973710030317307 6.4056856632232657 7.3719291985034969 9.9352805614471453 12.172890633344648 8.6463393867015821 14.100109666585924 6.4111269414424887 16.653595387935638 294.4227167069912 9.6183552145957965 18.262025207281113
leaf_count=33 180 185 70 85 246 128 49 81 37 29 30 39 36 33 42 22 24 53 53 20 23 31 38 27 44 20 52 919 30 57
internal_value=2.02271e-09 -0.000191254 0.00064436 0.000769956 0.000226347 2.61338e-05 -0.00046943 -0.000419396 -0.000304286 -0.000278173 -0.000482489 -0.000382707 -0.000153224 0.000237195 9.22073e-06 -0.000542903 -0.000584551 -0.000798068 -0.000460321 -0.000533958 -0.000361511 -0.000235809 -0.000393813 -0.000540633 -0.000327113 -0.000445838 -0.000602442 -0.000534039 -0.000335277 -0.000177647
internal_weight=870.593 697.368 174.172 173.226 115.429 114.771 523.196 92.2942 66.3422 88.1366 512.617 174.619 71.7854 22.1204 25.3239 102.833 95.7833 35.2309 60.5524 52.8595 35.8858 29.4801 22.1082 18.2589 49.665 37.1648 30.7537 337.998 43.5755 27.8804
internal_count=2716 2176 543 540 360 358 1633 288 207 275 1600 545 224 69 79 321 299 110 189 165 112 92 69 57 155 116 96 1055 136 87
is_linear=0
shrinkage=0.001


Tree=13
num_leaves=31
num_cat=0
split_feature=6 2 0 1 5 6 6 7 4 5 6 6 6 5 6 7 7 5 6 6 6 5 5 7 6 6 7 5 5 5
split_gain=526.068 216.658 268.196 37.196 76.0345 4.22546 2.88737 3.7895 2.80386 5.793 4.02516 5.38141 5.52609 3.86454 2.47849 2.30083 2.48692 2.30625 2.28349 2.19811 8.73039 3.5621 2.18606 2.23715 2.1342 2.12003 2.10392 2.04986 1.89444 1.84137
threshold=199.17500000000004 1.0000000180025095e-35 1.0000000180025095e-35 1.0000000180025095e-35 0.60500000000000009 102.73500000000001 109.11000000000001 684.5200000000001 1.0000000180025095e-35 0.53500000000000014 121.22500000000001 161.96000000000004 184.20500000000001 0.59500000000000008 200.18500000000003 331.16000000000003 440.74000000000007 0.39500000000000007 173.94000000000003 150.24000000000004 139.28000000000003 0.49500000000000005 0.54500000000000015 204.01500000000001 265.56000000000006 151.95000000000002 726.95000000000016 0.6150000000000001 0.37500000000000006 0.39500000000000007
decision_type=2 2 2 2 2 2 2 2 2 2 2 2 2 2 2 2 2 2 2 2 2 2 2 2 2 2 2 2 2 2
left_child=1 2 5 14 24 -1 7 -7 19 15 -11 13 18 -12 -2 29 -17 -18 -13 20 22 -22 23 -8 -5 -21 -15 -24 -27 -10
right_child=3 -3 -4 4 -6 6 8 -9 9 10 11 12 -14 26 -16 16 17 -19 -20 25 21 -23 27 -25 -26 28 -28 -29 -30 -31
leaf_value=0.00053862967840568341 -0.00056187814408733725 -0.0011996549509765211 -0.0011996401639045593 0.0012896262117654978 -0.00090315869821156489 0.0018423698923321049 0.00097144718497884221 0.00092333905584994383 0.0011728290646850165 7.4931031222588037e-05 0.00078259005768554655 0.00058484718421079386 0.001163270474331771 0.0017317853380124184 -0.0012000796636036039 0.00053842820362729556 0.0014719250434047848 0.0010237819250121119 -0.00017913722770560625 0.0018454931992384061 7.4922244841858402e-05 0.00096114226379746814 0.0007110554352988453 0.0016164762164757474 0.00062008950994482984 0.00094664900966003041 0.0010562100191880946 0.001347459304017391 0.0013316244664617102 0.001629393552371027
leaf_weight=10.332266896963118 6.2547889053821555 56.239201456308365 54.364120602607727 17.235983759164814 90.671955227851868 14.106910496950151 6.8928198814392116 6.5790942013263694 15.981034636497496 6.260240674018859 14.093965172767637 7.8279881477355975 9.712735563516615 11.913798034191133 224.38487577438354 6.8885654211044303 17.553538233041763 33.208206474781036 7.8211501240730286 7.2101382911205283 9.3903858661651629 8.7725539207458478 9.3974304199218768 24.449892580509186 6.5777638256549826 14.410701066255568 7.5191938877105704 10.96881330013275 113.13353431224823 19.750995963811874
leaf_count=33 20 180 174 55 290 45 22 21 51 20 45 25 31 38 718 22 56 106 25 23 30 28 30 78 21 46 24 35 361 63
internal_value=3.27722e-10 0.000650539 0.000882522 -0.000951476 -0.000485514 0.00116969 0.00118668 0.00155008 0.00116598 0.00106615 0.000837288 0.000918331 0.000570764 0.00118125 -0.00118277 0.00122582 0.00110224 0.00117875 0.000203022 0.00124332 0.00109938 0.000502959 0.00130888 0.00147462 0.00110469 0.00131795 0.00147039 0.00105381 0.00128813 0.0014252
internal_weight=849.905 504.779 448.54 345.125 114.486 394.176 383.844 20.686 363.158 158.531 65.1491 58.8888 25.3619 33.527 230.64 93.3823 57.6503 50.7617 15.6491 204.626 69.8719 18.1629 51.709 31.3427 23.8137 134.754 19.433 20.3662 127.544 35.732
internal_count=2716 1612 1432 1104 366 1258 1225 66 1159 506 208 188 81 107 738 298 184 162 50 653 223 58 165 100 76 430 62 65 407 114
is_linear=0
shrinkage=0.001


Tree=14
num_leaves=31
num_cat=0
split_feature=6 1 5 7 5 7 5 6 5 7 7 6 6 6 6 6 5 5 5 7 5 7 5 6 5 7 5 6 7 5
split_gain=567.001 314.142 340.707 5.63377 6.80708 6.79738 4.0208 3.54297 5.67487 3.45983 2.56636 2.49738 7.04048 2.1234 4.84685 2.00886 2.84319 1.88338 3.93797 2.65202 2.23183 1.97073 1.72117 1.63209 2.11491 1.07325 1.17453 0.943526 0.609701 0.471838
threshold=200.18500000000003 1.0000000180025095e-35 0.60500000000000009 577.42500000000007 0.92500000000000016 538.74500000000012 0.74500000000000011 272.71000000000009 0.93500000000000016 150.35500000000002 88.820000000000007 276.65500000000003 247.28000000000003 213.47500000000002 234.38000000000002 231.31500000000003 0.7350000000000001 0.83500000000000008 0.71500000000000008 423.74000000000007 0.64500000000000013 440.74000000000007 0.93500000000000016 231.31500000000003 0.62500000000000011 694.29500000000019 0.82500000000000007 282.84500000000008 207.66000000000003 0.87500000000000011
decision_type=2 2 2 2 2 2 2 2 2 2 2 2 2 2 2 2 2 2 2 2 2 2 2 2 2 2 2 2 2 2
left_child=-1 2 -2 5 11 7 23 8 9 10 -4 12 15 -8 -15 16 -5 18 20 -19 -11 -20 27 24 -3 26 -16 -9 -29 -27
right_child=1 6 3 4 -6 -7 13 22 -10 17 -12 -13 -14 14 25 -17 -18 19 21 -21 -22 -23 -24 -25 -26 29 -28 28 -30 -31
leaf_value=-0.00088635059191506833 -0.00088979945454390483 -0.0008898417553566938 0.003047109691760272 0.0021965737761583987 0.0015831050336994337 0.0043253111349796499 -0.00089000115249265118 0.0030311884169506179 0.0021448599112383437 0.0030078018225989517 0.0020393404509080827 0.0034631722391243332 0.0018335933885725579 0.00055210260051229349 -0.00018414410233404168 0.0037320356851085813 0.0033573382079573658 0.0042520978609841033 0.0023828102938992339 0.003111483860761868 0.0039466624894915845 0.0033098129665394332 0.0041407374435325313 -0.00088990904015560414 2.0558851268199999e-05 -0.00032516714420509845 -0.0007721733408607549 0.0032488168979699253 0.0037448018347859603 0.00018489250201022582
leaf_weight=288.54198615252972 27.368629202246666 4.7684247046709078 6.6006173938512784 3.5620077252388089 4.4456018060445777 5.366258665919303 4.2419124841690055 5.3528509587049511 6.5868719369173041 4.1028726696968132 4.0944213420152664 6.4289401322603217 5.8716344684362403 7.6242999434471157 5.6643994748592403 4.108782783150672 5.1771961450576782 4.4707742184400541 6.4133152663707715 3.7467899471521378 6.6129796802997589 3.5698619335889816 3.5762938857078543 20.846660241484642 5.4889247268438339 3.5392844378948203 8.4849709868431074 4.1054354161024076 6.2539680749177933 3.7197570204734802
leaf_count=1634 155 27 37 20 25 30 24 30 37 23 23 36 33 43 32 23 29 25 36 21 37 20 20 118 31 20 48 23 35 21
internal_value=-1.88856e-09 0.00133067 0.00223801 0.00309024 0.0027238 0.0032433 -0.000470744 0.00315463 0.00300434 0.00314726 0.0026613 0.00292544 0.00274077 -0.000229122 -0.000132562 0.00315535 0.00288422 0.00332699 0.00316619 0.00373204 0.00358719 0.0027143 0.00351461 -0.000729228 -0.000402667 -0.000376396 -0.000536768 0.00337209 0.00354824 -6.37968e-05
internal_weight=480.737 192.195 127.816 100.447 29.5942 70.8533 64.3786 65.4871 46.1985 39.6116 10.695 25.1486 18.7196 33.2746 29.0327 12.848 8.7392 28.9166 20.699 8.21756 10.7159 9.98318 19.2885 31.104 10.2573 21.4084 14.1494 15.7123 10.3594 7.25904
internal_count=2716 1082 718 563 166 397 364 367 259 222 60 141 105 188 164 72 49 162 116 46 60 56 108 176 58 121 80 88 58 41
is_linear=0
shrinkage=0.001


Tree=15
num_leaves=31
num_cat=0
split_feature=1 6 5 5 6 5 6 6 5 7 7 6 7 6 5 6 6 7 6 7 7 6 5 6 7 6 5 5 5 7
split_gain=566.878 315.705 267.431 18.356 10.1 12.2794 9.58402 8.431 7.54078 7.23833 5.79838 4.49267 2.87459 3.12729e-08 1.56708e-08 1.87038e-09 1.8681e-09 3.08053e-09 2.21401e-09 1.49808e-09 2.01878e-09 1.47953e-09 1.79196e-09 1.60963e-09 1.32105e-09 1.18876e-09 1.28771e-09 9.02753e-10 7.44674e-10 7.15263e-10
threshold=1.0000000180025095e-35 199.61500000000004 0.6150000000000001 0.75500000000000012 243.52500000000001 0.89500000000000013 241.58000000000004 223.43000000000004 0.82500000000000007 436.50000000000006 457.88000000000005 223.43000000000004 498.14000000000004 199.17500000000004 0.60500000000000009 265.56000000000006 109.11000000000001 684.5200000000001 102.73500000000001 577.42500000000007 150.35500000000002 150.24000000000004 0.46500000000000002 142.56000000000003 538.74500000000012 152.28500000000005 0.36500000000000005 0.60500000000000009 0.92500000000000016 91.790000000000006
decision_type=2 2 2 2 2 2 2 2 2 2 2 2 2 2 2 2 2 2 2 2 2 2 2 2 2 2 2 2 2 2
left_child=13 -2 15 6 7 12 11 -5 -9 -7 -8 -4 -6 16 -15 -3 17 18 -1 20 29 22 23 -18 -22 -23 -27 -24 -21 -16
right_child=1 2 3 4 5 9 10 8 -10 -11 -12 -13 -14 14 19 -17 21 -19 -20 28 24 25 27 -25 -26 26 -28 -29 -30 -31
leaf_value=-0.00080119304910443781 -0.00080119076934810911 -0.00080119687612095476 0.0075229372150138699 0.0061281871779894099 0.0046212771512977686 0.0095424433010902667 0.007487926681044004 0.0053548958314916613 0.0023015003296497348 0.0067460441846217221 0.0095770826595913943 0.0053518255454328128 0.0062874061413536551 -0.00080119065326118041 -0.00080123280888296162 -0.00080123605200858406 -0.00080118619571755431 -0.00080120738171866564 -0.00080115033621660451 -0.00080123571051682644 -0.00080122410554406005 -0.00080117365060975007 -0.00080120978149628326 -0.00080121373220398229 -0.00080119934286000476 -0.00080120613403841486 -0.00080119094064170777 -0.00080119637261961724 -0.00080125661517001993 -0.00080125224983002019
leaf_weight=1.8342736810445774 13.238182984292505 4.4663514420390156 2.0419065579772018 3.1743317097425443 2.0282155647873878 1.6432394087314608 2.5329993441700935 1.62412466108799 1.6111935824155805 2.1196134760975838 2.7938168570399284 1.78741979598999 2.1157163828611374 12.998896904289721 5.267136946320532 1.6759990677237508 12.599197112023829 2.4728872403502464 3.5861871093511581 11.652119293808935 21.6239727139473 3.58761092275381 14.040192775428297 2.5529344454407683 2.3927889987826338 6.1422036588191977 60.768177337944508 7.8160509020090094 1.9959369972348202 2.9537657499313354
leaf_count=23 166 56 25 39 25 20 31 20 20 26 34 22 26 163 66 21 158 31 45 146 271 45 176 32 30 77 762 98 25 37
internal_value=-5.15024e-09 0.00325848 0.00507319 0.00661042 0.00590321 0.00665945 0.0077162 0.00497033 0.0038343 0.00796723 0.00858365 0.00650952 0.00547193 -0.000801203 -0.000801221 -0.000801208 -0.000801193 -0.000801178 -0.000801165 -0.00080123 -0.000801226 -0.000801194 -0.000801199 -0.000801191 -0.000801222 -0.000801191 -0.000801192 -0.000801205 -0.000801239 -0.00080124
internal_weight=217.137 42.8531 29.6149 23.4726 14.3164 7.90678 9.15614 6.40965 3.23532 3.76285 5.32682 3.82933 4.14393 174.284 58.8846 6.14235 115.4 7.89335 5.42046 45.8857 32.2377 107.506 37.0084 15.1521 24.0168 70.498 66.9104 21.8562 13.6481 8.2209
internal_count=2716 531 365 288 176 97 112 79 40 46 65 47 51 2185 738 77 1447 99 68 575 404 1348 464 190 301 884 839 274 171 103
is_linear=0
shrinkage=0.001


Tree=16
num_leaves=31
num_cat=0
split_feature=0 2 6 6 5 5 6 6 6 5 4 5 6 6 6 6 7 6 7 5 7 7 5 5 6 7 5 5 6 6
split_gain=127.852 161.674 128.242 101.923 94.6179 93.2989 4.31523 3.12127 4.01993 2.90047 2.63425 6.40647 4.86265 5.99645 2.53774 2.42033 2.53618 2.50954 2.25148 3.31792 2.6062 2.20444 3.62334 2.17558 2.0773 4.36541 3.03503 1.9745 1.91877 5.03769
threshold=1.0000000180025095e-35 1.0000000180025095e-35 200.18500000000003 200.18500000000003 0.60500000000000009 0.60500000000000009 102.73500000000001 271.78000000000003 244.94000000000003 0.94500000000000006 1.0000000180025095e-35 0.53500000000000014 170.59000000000003 184.20500000000001 255.35000000000005 192.65000000000003 331.16000000000003 145.29000000000005 440.74000000000007 0.39500000000000007 559.28500000000008 648.91000000000008 0.46500000000000002 0.39500000000000007 123.95500000000001 920.93500000000006 0.60500000000000009 0.39500000000000007 139.28000000000003 155.34500000000003
decision_type=2 2 2 2 2 2 2 2 2 2 2 2 2 2 2 2 2 2 2 2 2 2 2 2 2 2 2 2 2 2
left_child=1 6 -3 -2 -5 -4 -1 8 -7 -6 27 15 24 -14 -10 16 17 23 -18 -20 -21 -22 -23 -12 -13 26 -26 28 -8 -30
right_child=3 2 5 4 9 7 10 -9 14 -11 11 12 13 -15 -16 -17 18 -19 19 20 21 22 -24 -25 25 -27 -28 -29 29 -31
leaf_value=0.00016328683335950687 0.001852422246292841 0.0018356598679226785 0.0018523584713569833 0.0018523584713569833 -0.00034030493819232118 -0.00049753125775161308 -0.000614506437002816 -0.00071317334559451763 0.00034636040065446694 0.00025019808166902601 -0.00021253071090795742 2.5975823606019079e-05 0.00073517394232731946 -0.00030713280370738856 -0.000288020750311869 2.3242244221765924e-05 4.5696292996287833e-05 -0.0010741262205715338 -0.00089768545639966628 -0.00093924162444137854 0.00023814812655369703 5.4775203813986314e-05 -0.00075912507146359397 -0.00090394741340293742 -0.00026039026555697907 0.0003053273517289862 -0.00089091963899250431 -0.00056287879114427048 0.00040833115587091443 -0.00048588497245637851
leaf_weight=10.579138219356535 57.828308165073395 59.434003829956055 22.489034831523895 27.308113723993301 78.832928597927094 41.014480203390121 15.691249221563337 25.947910189628601 11.863916009664537 9.2993054389953596 9.6113044619560259 12.499875992536543 11.548787683248522 10.572482436895369 13.460301697254179 7.0495574474334708 7.6927925348281851 16.966398060321808 16.968639850616455 6.4039442539215079 7.3717342019081142 9.934751510620119 12.17028561234474 8.6435388028621656 14.098831534385683 6.4112081527709952 16.648668050765991 294.37007689476013 9.6190280914306658 18.259020686149597
leaf_count=33 180 185 70 85 246 128 49 81 37 29 30 39 36 33 42 22 24 53 53 20 23 31 38 27 44 20 52 919 30 57
internal_value=2.9434e-09 -0.000191022 0.000643359 0.000768785 0.000225951 2.59528e-05 -0.000468893 -0.000419118 -0.000304101 -0.000277998 -0.000481942 -0.0003822 -0.000152945 0.000237021 9.1748e-06 -0.000542257 -0.000583886 -0.000797248 -0.00045976 -0.000533334 -0.000361026 -0.000235407 -0.000393331 -0.000539912 -0.000326663 -0.000445287 -0.000601799 -0.000533472 -0.000334786 -0.000177345
internal_weight=870.59 697.321 174.21 173.269 115.44 114.776 523.111 92.2866 66.3387 88.1322 512.532 174.593 71.7799 22.1213 25.3242 102.813 95.7634 35.2212 60.5421 52.8494 35.8807 29.4768 22.105 18.2548 49.6586 37.1587 30.7475 337.939 43.5693 27.878
internal_count=2716 2176 543 540 360 358 1633 288 207 275 1600 545 224 69 79 321 299 110 189 165 112 92 69 57 155 116 96 1055 136 87
is_linear=0
shrinkage=0.001


Tree=17
num_leaves=31
num_cat=0
split_feature=6 2 0 1 5 6 6 7 4 5 6 6 6 5 6 7 7 5 6 6 6 5 5 7 6 6 7 5 5 5
split_gain=525.013 216.111 267.461 37.1384 75.8739 4.21052 2.88 3.77991 2.79418 5.77181 4.0158 5.36306 5.50997 3.85114 2.47561 2.29184 2.47858 2.29723 2.27773 2.19209 8.70553 3.55236 2.18025 2.23119 2.12909 2.11501 2.09632 2.0449 1.88861 1.83452
threshold=199.17500000000004 1.0000000180025095e-35 1.0000000180025095e-35 1.0000000180025095e-35 0.60500000000000009 102.73500000000001 109.11000000000001 684.5200000000001 1.0000000180025095e-35 0.53500000000000014 121.22500000000001 161.96000000000004 184.20500000000001 0.59500000000000008 200.18500000000003 331.16000000000003 440.74000000000007 0.39500000000000007 173.94000000000003 150.24000000000004 139.28000000000003 0.49500000000000005 0.54500000000000015 204.01500000000001 265.56000000000006 151.95000000000002 726.95000000000016 0.6150000000000001 0.37500000000000006 0.39500000000000007
decision_type=2 2 2 2 2 2 2 2 2 2 2 2 2 2 2 2 2 2 2 2 2 2 2 2 2 2 2 2 2 2
left_child=1 2 5 14 24 -1 7 -7 19 15 -11 13 18 -12 -2 29 -17 -18 -13 20 22 -22 23 -8 -5 -21 -15 -24 -27 -10
right_child=3 -3 -4 4 -6 6 8 -9 9 10 11 12 -14 26 -16 16 17 -19 -20 25 21 -23 27 -25 -26 28 -28 -29 -30 -31
leaf_value=0.00053797780118902488 -0.00056138758070349093 -0.0011987184522020673 -0.0011986989690548487 0.0012875394471625326 -0.00090256109616330461 0.0018394740202893479 0.00096981790623613549 0.0009218123735197783 0.0011709232202938736 7.4651369469486771e-05 0.00078148690800497109 0.00058410758501252393 0.0011615456422660018 0.0017287821741034457 -0.0011992837401374643 0.00053770941074543965 0.0014693946445617364 0.0010222393384480264 -0.00017889063932030418 0.0018426090036035251 7.4639730235584581e-05 0.00095953616889730801 0.00070977962996673298 0.0016138452411623672 0.00061892572107319355 0.00094517306491941479 0.0010545908350686741 0.0013452838990517784 0.0013294815199163393 0.0016265192017330958
leaf_weight=10.334146320819853 6.2535317242145529 56.20980441570282 54.335547924041748 17.244235128164295 90.646215587854385 14.115212172269823 6.8956032395362881 6.5816144645214072 15.98821648955345 6.2608033418655387 14.098017632961271 7.8295801281929034 9.7166989743709546 11.921232193708422 224.2854243516922 6.889946222305297 17.563305646181107 33.220743149518967 7.8204721212387085 7.2143616974353781 9.3912368416786212 8.7760553359985334 9.4006115198135394 24.463602244853973 6.5798460245132437 14.416008174419401 7.5221488773822776 10.974214375019072 113.18861931562424 19.7630495429039
leaf_count=33 20 180 174 55 290 45 22 21 51 20 45 25 31 38 718 22 56 106 25 23 30 28 30 78 21 46 24 35 361 63
internal_value=1.62109e-10 0.000649707 0.000881274 -0.00095079 -0.00048518 0.00116787 0.00118482 0.00154766 0.00116415 0.00106451 0.000836096 0.000917023 0.000570065 0.00117942 -0.00118198 0.00122384 0.00110053 0.00117688 0.00020283 0.00124134 0.00109763 0.000502106 0.00130676 0.00147223 0.00110288 0.00131585 0.00146795 0.00105207 0.00128606 0.00142277
internal_weight=849.9 504.891 448.681 345.009 114.47 394.346 384.011 20.6968 363.315 158.594 65.169 58.9081 25.3668 33.5414 230.539 93.4253 57.674 50.784 15.6501 204.72 69.9013 18.1673 51.734 31.3592 23.8241 134.819 19.4434 20.3748 127.605 35.7513
internal_count=2716 1612 1432 1104 366 1258 1225 66 1159 506 208 188 81 107 738 298 184 162 50 653 223 58 165 100 76 430 62 65 407 114
is_linear=0
shrinkage=0.001


Tree=18
num_leaves=31
num_cat=0
split_feature=6 1 5 7 5 7 5 6 5 7 7 6 6 6 6 6 5 5 5 7 5 7 5 6 5 7 5 6 7 5
split_gain=565.683 312.788 338.774 5.58755 6.75743 6.73409 4.0169 3.50858 5.62868 3.43141 2.54754 2.47513 6.98738 2.1217 4.83779 1.99234 2.8213 1.86694 3.90453 2.62723 2.21158 1.95544 1.70552 1.6319 2.11291 1.0722 1.17369 0.935489 0.604013 0.471179
threshold=200.18500000000003 1.0000000180025095e-35 0.60500000000000009 577.42500000000007 0.92500000000000016 538.74500000000012 0.74500000000000011 272.71000000000009 0.93500000000000016 150.35500000000002 88.820000000000007 276.65500000000003 247.28000000000003 213.47500000000002 234.38000000000002 231.31500000000003 0.7350000000000001 0.83500000000000008 0.71500000000000008 423.74000000000007 0.64500000000000013 440.74000000000007 0.93500000000000016 231.31500000000003 0.62500000000000011 694.29500000000019 0.82500000000000007 282.84500000000008 207.66000000000003 0.87500000000000011
decision_type=2 2 2 2 2 2 2 2 2 2 2 2 2 2 2 2 2 2 2 2 2 2 2 2 2 2 2 2 2 2
left_child=-1 2 -2 5 11 7 23 8 9 10 -4 12 15 -8 -15 16 -5 18 20 -19 -11 -20 27 24 -3 26 -16 -9 -29 -27
right_child=1 6 3 4 -6 -7 13 22 -10 17 -12 -13 -14 14 25 -17 -18 19 21 -21 -22 -23 -24 -25 -26 29 -28 28 -30 -31
leaf_value=-0.00088618785838482728 -0.00088963372476138722 -0.00088969029883995848 0.0030363838274252326 0.0021898348748420212 0.0015789927112239617 0.0043065201722866445 -0.0008899025277323585 0.0030202500476029584 0.0021386883649095558 0.0029972475498711258 0.0020333994329540966 0.0034498087214467578 0.0018285303610723 0.00055115477606816285 -0.00018416760244827421 0.0037173480009107655 0.0033447560069033667 0.0042339933332404579 0.0023753876479309394 0.0031004100433200282 0.0039305260767457046 0.0032976152565186326 0.004123162866884543 -0.00088977986721674302 2.0437024145685693e-05 -0.00032510079616073124 -0.00077203237337945276 0.0032367539918254726 0.0037297011482852762 0.00018458400235275252
leaf_weight=288.3154413998127 27.346366196870804 4.7648808062076586 6.6177294701337797 3.5693050026893705 4.4524295926094046 5.384899675846099 4.2398634254932395 5.3670581877231625 6.5994259417057028 4.1134392470121437 4.1021862179040909 6.4478158056735984 5.8817893117666236 7.6286861449480083 5.6645456701517132 4.1213050186634055 5.191847026348114 4.4859410226345044 6.4270129501819593 3.7566655576229095 6.6341825723648071 3.5797607749700546 3.5883210450410834 20.833458036184311 5.4895238429307938 3.5389794856309882 8.4812569171190244 4.1168515980243665 6.2735134214162827 3.7206532955169678
leaf_count=1634 155 27 37 20 25 30 24 30 37 23 23 36 33 43 32 23 29 25 36 21 37 20 20 118 31 20 48 23 35 21
internal_value=-2.58233e-09 0.00132783 0.00223171 0.00307925 0.00271473 0.00323145 -0.000470582 0.00314329 0.00299389 0.003136 0.00265257 0.0029153 0.00273163 -0.000229106 -0.000132609 0.00314396 0.00287424 0.00331471 0.00315481 0.00371735 0.00357333 0.0027053 0.00350096 -0.000729039 -0.000402469 -0.000376296 -0.000536628 0.00335927 0.00353439 -6.38809e-05
internal_weight=480.735 192.42 128.058 100.711 29.6645 71.047 64.3618 65.6621 46.3163 39.7169 10.7199 25.2121 18.7642 33.274 29.0341 12.8825 8.76115 28.997 20.7544 8.24261 10.7476 10.0068 19.3457 31.0879 10.2544 21.4054 14.1458 15.7574 10.3904 7.25963
internal_count=2716 1082 718 563 166 397 364 367 259 222 60 141 105 188 164 72 49 162 116 46 60 56 108 176 58 121 80 88 58 41
is_linear=0
shrinkage=0.001


Tree=19
num_leaves=31
num_cat=0
split_feature=1 6 5 5 6 5 6 6 5 7 7 6 6 6 5 6 6 7 6 7 7 6 5 6 7 6 5 5 5 7
split_gain=564.621 312.901 264.231 17.9914 9.92303 12.0409 9.36987 8.30279 7.45163 7.06858 5.65854 4.41523 2.84889 5.52902e-08 2.77822e-08 3.31385e-09 3.30814e-09 5.46809e-09 3.91038e-09 2.67229e-09 3.58651e-09 2.62058e-09 3.18776e-09 2.86403e-09 2.34929e-09 2.11784e-09 2.27878e-09 1.60444e-09 1.32837e-09 1.27396e-09
threshold=1.0000000180025095e-35 199.61500000000004 0.6150000000000001 0.75500000000000012 243.52500000000001 0.89500000000000013 241.58000000000004 223.43000000000004 0.82500000000000007 436.50000000000006 457.88000000000005 218.90500000000003 274.68500000000006 199.17500000000004 0.60500000000000009 265.56000000000006 109.11000000000001 684.5200000000001 102.73500000000001 577.42500000000007 150.35500000000002 150.24000000000004 0.46500000000000002 142.56000000000003 538.74500000000012 152.28500000000005 0.36500000000000005 0.60500000000000009 0.92500000000000016 91.790000000000006
decision_type=2 2 2 2 2 2 2 2 2 2 2 2 2 2 2 2 2 2 2 2 2 2 2 2 2 2 2 2 2 2
left_child=13 -2 15 6 7 12 11 -5 -9 -7 -8 -4 -6 16 -15 -3 17 18 -1 20 29 22 23 -18 -22 -23 -27 -24 -21 -16
right_child=1 2 3 4 5 9 10 8 -10 -11 -12 -13 -14 14 19 -17 21 -19 -20 28 24 25 27 -25 -26 26 -28 -29 -30 -31
leaf_value=-0.00080114488378655398 -0.00080114201144648376 -0.00080115004017795638 0.007703570652885048 0.0060871371849771641 0.0061295346469887151 0.0094500777614062118 0.0074284742216432637 0.0053230079453769983 0.0022935197585716694 0.0066974456678415206 0.0094840423002742653 0.0055395608941086133 0.00444903728979156 -0.0008011417131701821 -0.0008011978454393763 -0.00080120220271814489 -0.00080113579549945864 -0.00080116408243662257 -0.00080108809336493008 -0.00080120175225046881 -0.00080118625537244548 -0.00080111906184077901 -0.00080116726383435203 -0.00080117254004664071 -0.00080115322047745474 -0.00080116237559098714 -0.0008011421565288047 -0.00080114938096011233 -0.00080122967910773119 -0.00080122379777516537
leaf_weight=1.8327711671590794 13.227164998650549 4.4627872109413174 1.6457731127738973 3.1930802464485151 2.4523238018155098 1.6579541563987734 2.5511602014303207 1.6324971318244936 1.6152691543102262 2.1332377418875694 2.8189347833395004 2.2074235156178474 1.7137627974152563 12.988049186766146 5.2640043571591359 1.6750344783067701 12.588378466665743 2.4710622429847717 3.5823768526315689 11.645380429923533 21.610040292143825 3.5842729136347762 14.030020281672479 2.5511416271328917 2.3909103646874419 6.1376254111528388 60.717613987624645 7.8097911328077307 1.9950203076004971 2.9523347616195679
leaf_count=23 166 56 20 39 30 20 31 20 20 26 34 27 21 163 66 21 158 31 45 146 271 45 176 32 30 77 762 98 25 37
internal_value=-6.72242e-09 0.0032457 0.0050444 0.00656332 0.00586482 0.00661171 0.00765373 0.00494208 0.0038163 0.00790122 0.00850751 0.00646385 0.00543824 -0.000801158 -0.000801183 -0.000801164 -0.000801145 -0.000801125 -0.000801107 -0.000801194 -0.000801189 -0.000801146 -0.000801153 -0.000801142 -0.000801183 -0.000801143 -0.000801144 -0.000801161 -0.000801206 -0.000801207
internal_weight=217.137 42.9864 29.7592 23.6214 14.3981 7.95728 9.22329 6.44085 3.24777 3.79119 5.37009 3.8532 4.16609 174.151 58.8457 6.13782 115.305 7.88621 5.41515 45.8577 32.2173 107.419 36.9793 15.1395 24.001 70.4395 66.8552 21.8398 13.6404 8.21634
internal_count=2716 531 365 288 176 97 112 79 40 46 65 47 51 2185 738 77 1447 99 68 575 404 1348 464 190 301 884 839 274 171 103
is_linear=0
shrinkage=0.001


Tree=20
num_leaves=31
num_cat=0
split_feature=0 2 6 6 5 5 6 6 6 5 4 5 6 6 6 6 7 6 7 5 7 7 5 5 6 7 5 5 6 6
split_gain=127.503 161.248 127.865 101.611 94.3551 93.0515 4.30653 3.11634 4.01421 2.89463 2.6317 6.39357 4.85186 5.98095 2.53379 2.41742 2.53169 2.5072 2.24683 3.31246 2.60283 2.2017 3.61894 2.17219 2.07323 4.35862 3.02936 1.9727 1.9142 5.02814
threshold=1.0000000180025095e-35 1.0000000180025095e-35 200.18500000000003 200.18500000000003 0.60500000000000009 0.60500000000000009 102.73500000000001 271.78000000000003 244.94000000000003 0.94500000000000006 1.0000000180025095e-35 0.53500000000000014 170.59000000000003 184.20500000000001 255.35000000000005 192.65000000000003 331.16000000000003 145.29000000000005 440.74000000000007 0.39500000000000007 559.28500000000008 648.91000000000008 0.46500000000000002 0.39500000000000007 123.95500000000001 920.93500000000006 0.60500000000000009 0.39500000000000007 139.28000000000003 155.34500000000003
decision_type=2 2 2 2 2 2 2 2 2 2 2 2 2 2 2 2 2 2 2 2 2 2 2 2 2 2 2 2 2 2
left_child=1 6 -3 -2 -5 -4 -1 8 -7 -6 27 15 24 -14 -10 16 17 23 -18 -20 -21 -22 -23 -12 -13 26 -26 28 -8 -30
right_child=3 2 5 4 9 7 10 -9 14 -11 11 12 13 -15 -16 -17 18 -19 19 20 21 22 -24 -25 25 -27 -28 -29 29 -31
leaf_value=0.00016317576121082188 0.0018492158648107599 0.0018324781587110257 0.0018491362801996906 0.0018491362801996906 -0.00034007252932713244 -0.00049722312329621122 -0.00061372577576051558 -0.00071269014605337033 0.00034602975402589693 0.00024981320389417264 -0.00021206153466075332 2.6078343880909015e-05 0.00073426440554032755 -0.00030667990325958401 -0.00028785174099900672 2.3569709443817916e-05 4.5729749648842651e-05 -0.0010732312095147816 -0.00089682591513619075 -0.00093846962185668121 0.00023825532844379765 5.4981228588987265e-05 -0.00075847649666982268 -0.00090301874789364296 -0.00026006843619600848 0.00030527492180555346 -0.00089006644681621891 -0.00056230121711774964 0.00040803299781479559 -0.00048534011504108632
leaf_weight=10.579432278871534 57.860244691371918 59.466673284769058 22.501514256000519 27.323267310857773 78.827648013830185 41.010658890008926 15.68737545609474 25.943842142820358 11.864849716424944 9.3001776933670026 9.6100478172302264 12.499536931514738 11.551066875457765 10.571110010147093 13.459655702114103 7.0489531755447379 7.6927253603935233 16.960745304822922 16.963556975126266 6.4021989107131949 7.3715397119522121 9.9342233538627642 12.167676150798796 8.6407307088375074 14.097552031278612 6.4112892746925345 16.643728345632553 294.31736376881599 9.6196995973587054 18.256014257669449
leaf_count=33 180 185 70 85 246 128 49 81 37 29 30 39 36 33 42 22 24 53 53 20 23 31 38 27 44 20 52 919 30 57
internal_value=4.0012e-09 -0.000190791 0.000642361 0.000767617 0.000225556 2.57727e-05 -0.000468356 -0.00041884 -0.000303915 -0.000277822 -0.000481394 -0.000381695 -0.000152667 0.000236848 9.12972e-06 -0.000541612 -0.000583222 -0.000796429 -0.0004592 -0.000532711 -0.000360542 -0.000235005 -0.000392849 -0.000539191 -0.000326213 -0.000444738 -0.000601158 -0.000532904 -0.000334296 -0.000177044
internal_weight=870.585 697.274 174.247 173.311 115.451 114.781 523.027 92.279 66.3352 88.1278 512.447 174.567 71.7743 22.1222 25.3245 102.792 95.7434 35.2115 60.5319 52.8392 35.8756 29.4734 22.1019 18.2508 49.6521 37.1526 30.7413 337.88 43.5631 27.8757
internal_count=2716 2176 543 540 360 358 1633 288 207 275 1600 545 224 69 79 321 299 110 189 165 112 92 69 57 155 116 96 1055 136 87
is_linear=0
shrinkage=0.001


Tree=21
num_leaves=31
num_cat=0
split_feature=6 2 0 1 5 6 6 7 4 5 6 6 6 5 6 7 7 5 6 6 6 5 5 7 6 6 7 5 5 5
split_gain=523.961 215.565 266.728 37.081 75.7136 4.19566 2.87267 3.77038 2.78456 5.75072 4.00647 5.34479 5.4939 3.83782 2.47273 2.28291 2.47029 2.28827 2.27199 2.18609 8.68079 3.54265 2.17446 2.22526 2.12401 2.11002 2.08877 2.03997 1.8828 1.82772
threshold=199.17500000000004 1.0000000180025095e-35 1.0000000180025095e-35 1.0000000180025095e-35 0.60500000000000009 102.73500000000001 109.11000000000001 684.5200000000001 1.0000000180025095e-35 0.53500000000000014 121.22500000000001 161.96000000000004 184.20500000000001 0.59500000000000008 200.18500000000003 331.16000000000003 440.74000000000007 0.39500000000000007 173.94000000000003 150.24000000000004 139.28000000000003 0.49500000000000005 0.54500000000000015 204.01500000000001 265.56000000000006 151.95000000000002 726.95000000000016 0.6150000000000001 0.37500000000000006 0.39500000000000007
decision_type=2 2 2 2 2 2 2 2 2 2 2 2 2 2 2 2 2 2 2 2 2 2 2 2 2 2 2 2 2 2
left_child=1 2 5 14 24 -1 7 -7 19 15 -11 13 18 -12 -2 29 -17 -18 -13 20 22 -22 23 -8 -5 -21 -15 -24 -27 -10
right_child=3 -3 -4 4 -6 6 8 -9 9 10 11 12 -14 26 -16 16 17 -19 -20 25 21 -23 27 -25 -26 28 -28 -29 -30 -31
leaf_value=0.0005373268326462797 -0.00056089765696556927 -0.0011977846168888826 -0.0011977602181381997 0.0012854588419075946 -0.00090196408698521081 0.0018365889150988321 0.0009681925261761648 0.00092028928671520011 0.0011690226028036076 7.4372236151269911e-05 0.00078038594605446608 0.00058336919258795744 0.0011598250901556852 0.0017257902008937145 -0.0011984897204920055 0.00053699183600035662 0.0014668728498381848 0.0010207004274757554 -0.00017864417789975961 0.0018397354750702198 7.4357629341729263e-05 0.00095793391444870285 0.00070850655227429728 0.0016112232045326846 0.00061776411611884254 0.00094370058062376294 0.0010529757840431636 0.0013431148557036064 0.0013273451116015791 0.0016236554006031031
leaf_weight=10.336021810770033 6.2522725462913504 56.180321574211121 54.306897461414337 17.252448797225956 90.620436131954193 14.123468279838564 6.8983754515647915 6.5841246843338004 15.995366990566252 6.2613642215728751 14.102056413888929 7.8311676084995288 9.7206466794013959 11.928624391555788 224.18574824929237 6.891323745250701 17.573020279407501 33.233230978250504 7.8197948634624481 7.2185620963573447 9.3920853137969988 8.7795425653457624 9.4037809967994708 24.477239847183228 6.5819213390350333 14.421295613050459 7.5250912010669699 10.979590415954588 113.24343726038933 19.775036126375198
leaf_count=33 20 180 174 55 290 45 22 21 51 20 45 25 31 38 718 22 56 106 25 23 30 28 30 78 21 46 24 35 361 63
internal_value=-1.11264e-10 0.000648878 0.00088003 -0.000950104 -0.000484846 0.00116605 0.00118296 0.00154525 0.00116232 0.00106288 0.000834907 0.000915718 0.000569367 0.00117759 -0.00118119 0.00122187 0.00109882 0.00117502 0.000202639 0.00123936 0.00109588 0.000501254 0.00130464 0.00146984 0.00110107 0.00131375 0.00146553 0.00105034 0.00128401 0.00142036
internal_weight=849.894 505.001 448.821 344.893 114.455 394.514 384.178 20.7076 363.471 158.657 65.1887 58.9274 25.3716 33.5558 230.438 93.468 57.6976 50.8063 15.651 204.814 69.9306 18.1716 51.759 31.3756 23.8344 134.883 19.4537 20.3834 127.665 35.7704
internal_count=2716 1612 1432 1104 366 1258 1225 66 1159 506 208 188 81 107 738 298 184 162 50 653 223 58 165 100 76 430 62 65 407 114
is_linear=0
shrinkage=0.001


Tree=22
num_leaves=31
num_cat=0
split_feature=6 1 5 7 5 7 5 6 5 7 7 6 6 6 6 6 5 5 5 7 5 7 5 6 5 7 5 6 7 5
split_gain=564.37 311.442 336.857 5.5419 6.70833 6.67173 4.01302 3.47465 5.58306 3.40334 2.52894 2.45318 6.9349 2.12 4.82876 1.97605 2.79967 1.85072 3.87153 2.60282 2.19162 1.94034 1.69011 1.63169 2.11088 1.07104 1.17291 0.927564 0.598407 0.470587
threshold=200.18500000000003 1.0000000180025095e-35 0.60500000000000009 577.42500000000007 0.92500000000000016 538.74500000000012 0.74500000000000011 272.71000000000009 0.93500000000000016 150.35500000000002 88.820000000000007 276.65500000000003 247.28000000000003 213.47500000000002 234.38000000000002 231.31500000000003 0.7350000000000001 0.83500000000000008 0.71500000000000008 423.74000000000007 0.64500000000000013 440.74000000000007 0.93500000000000016 231.31500000000003 0.62500000000000011 694.29500000000019 0.82500000000000007 282.84500000000008 207.66000000000003 0.87500000000000011
decision_type=2 2 2 2 2 2 2 2 2 2 2 2 2 2 2 2 2 2 2 2 2 2 2 2 2 2 2 2 2 2
left_child=-1 2 -2 5 11 7 23 8 9 10 -4 12 15 -8 -15 16 -5 18 20 -19 -11 -20 27 24 -3 26 -16 -9 -29 -27
right_child=1 6 3 4 -6 -7 13 22 -10 17 -12 -13 -14 14 25 -17 -18 19 21 -21 -22 -23 -24 -25 -26 29 -28 28 -30 -31
leaf_value=-0.00088602529946554419 -0.0008894680350004378 -0.00088953894248945187 0.0030257295476515227 0.0021831315536995632 0.0015748974966241335 0.0042878953972287125 -0.00088980362221090063 0.0030093849748335779 0.0021325480137631679 0.0029867630368022222 0.0020274878309631183 0.003436545040094675 0.0018234906623847244 0.00055021031056727663 -0.00018416976918849608 0.0037027750381762484 0.0033322646122811864 0.0042160457481688054 0.0023680060986437114 0.0030894112332515667 0.0039145215227033431 0.0032855042857529559 0.0041057385950542214 -0.00088965055528242353 2.0308936149961657e-05 -0.00032506525144842695 -0.0007718906643457001 0.0032247762555524698 0.0037147199707723033 0.00018427541377339534
leaf_weight=288.08892291784286 27.324096262454987 4.7613358348608035 6.6348085701465589 3.5765904188156217 4.4592473208904257 5.4034965485334387 4.2378080487251273 5.3812389373779324 6.6119596958160392 4.1239857822656685 4.1099387854337692 6.4666528254747382 5.8919285833835593 7.6330604404211071 5.664558723568919 4.1338001787662497 5.206468477845192 4.5010721534490568 6.4406879246234876 3.7665219455957413 6.6553381681442261 3.5896397083997726 3.6003205776214591 20.820233777165413 5.4901541620492935 3.5388159155845633 8.4775238633155805 4.1282452195882779 6.2930172383785248 3.7215504050254822
leaf_count=1634 155 27 37 20 25 30 24 30 37 23 23 36 33 43 32 23 29 25 36 21 37 20 20 118 31 20 48 23 35 21
internal_value=-3.31805e-09 0.001325 0.00222544 0.00306834 0.00270572 0.00321969 -0.00047042 0.00313202 0.00298352 0.00312481 0.0026439 0.00290523 0.00272255 -0.000229089 -0.000132656 0.00313265 0.00286432 0.00330252 0.0031435 0.00370278 0.00355958 0.00269636 0.00348741 -0.00072885 -0.000402273 -0.000376196 -0.000536481 0.00334654 0.00352064 -6.39852e-05
internal_weight=480.733 192.644 128.299 100.975 29.7347 71.2403 64.345 65.8368 46.434 39.822 10.7447 25.2754 18.8088 33.2733 29.0355 12.9169 8.78306 29.0772 20.8097 8.26759 10.7793 10.0303 19.4028 31.0717 10.2515 21.4024 14.1421 15.8025 10.4213 7.26037
internal_count=2716 1082 718 563 166 397 364 367 259 222 60 141 105 188 164 72 49 162 116 46 60 56 108 176 58 121 80 88 58 41
is_linear=0
shrinkage=0.001


Tree=23
num_leaves=31
num_cat=0
split_feature=1 6 5 5 6 5 6 6 5 7 7 6 7 6 5 6 6 7 6 7 7 6 5 6 7 6 5 5 5 7
split_gain=562.38 310.136 261.089 17.6368 9.75039 11.809 9.1623 8.17728 7.36399 6.90435 5.52345 4.34014 2.81185 8.61318e-08 4.33934e-08 5.18059e-09 5.13975e-09 8.52009e-09 6.10701e-09 4.1565e-09 5.59917e-09 4.12575e-09 4.96246e-09 4.45788e-09 3.66418e-09 3.2844e-09 3.57804e-09 2.50847e-09 2.07683e-09 1.9822e-09
threshold=1.0000000180025095e-35 199.61500000000004 0.6150000000000001 0.75500000000000012 243.52500000000001 0.89500000000000013 241.58000000000004 223.43000000000004 0.82500000000000007 436.50000000000006 457.88000000000005 223.43000000000004 498.14000000000004 199.17500000000004 0.60500000000000009 265.56000000000006 109.11000000000001 684.5200000000001 102.73500000000001 577.42500000000007 150.35500000000002 150.24000000000004 0.46500000000000002 142.56000000000003 538.74500000000012 152.28500000000005 0.36500000000000005 0.60500000000000009 0.92500000000000016 91.790000000000006
decision_type=2 2 2 2 2 2 2 2 2 2 2 2 2 2 2 2 2 2 2 2 2 2 2 2 2 2 2 2 2 2
left_child=13 -2 15 6 7 12 11 -5 -9 -7 -8 -4 -6 16 -15 -3 17 18 -1 20 29 22 23 -18 -22 -23 -27 -24 -21 -16
right_child=1 2 3 4 5 9 10 8 -10 -11 -12 -13 -14 14 19 -17 21 -19 -20 28 24 25 27 -25 -26 26 -28 -29 -30 -31
leaf_value=-0.00080109684468363364 -0.00080109315729928927 -0.00080110320415437955 0.0074070863649944177 0.0060466115249027961 0.0045674572708935615 0.0093594769800709535 0.0073699341547880954 0.0052914798314805805 0.0022855850220922713 0.0066495218466527273 0.009392785289259898 0.0052860841998754113 0.0062065946947543818 -0.00080109273162395824 -0.00080116293939152768 -0.000801168445048791 -0.00080108546331675355 -0.00080112076698828799 -0.00080102584183294756 -0.00080116776122556162 -0.00080114843258669076 -0.00080106455789937013 -0.00080112475858906283 -0.00080113132251674742 -0.00080110716005701117 -0.00080111866243405745 -0.00080109331718326003 -0.00080110238949025194 -0.00080120268874946511 -0.00080119532011440882
leaf_weight=1.8312696814537037 13.216151900589464 4.4592245817184475 2.0705064311623596 3.2118055298924437 2.0483169406652433 1.6726443171501162 2.5692963600158691 1.6408594548702242 1.6193413883447645 2.146843709051609 2.8440106511116028 1.8065290227532385 2.1398992389440536 12.977198034524916 5.2608696669340116 1.6740702018141744 12.577563799917696 2.4692382141947746 3.5785688236355782 11.638637378811834 21.596100486814979 3.5809357166290274 14.019851326942446 2.5493491888046256 2.3890308737754813 6.133048102259635 60.667054660618305 7.8035329803824416 1.9941030219197262 2.9509026035666466
leaf_count=23 166 56 25 39 25 20 31 20 20 26 34 22 26 163 66 21 158 31 45 146 271 45 176 32 30 77 762 98 25 37
internal_value=-8.22764e-09 0.00323301 0.00501593 0.00651688 0.00582691 0.00656463 0.00759225 0.00491413 0.00379845 0.00783628 0.00843269 0.00641879 0.00540495 -0.000801113 -0.000801144 -0.000801121 -0.000801097 -0.000801072 -0.00080105 -0.000801158 -0.000801152 -0.000801099 -0.000801107 -0.000801093 -0.000801144 -0.000801094 -0.000801096 -0.000801117 -0.000801173 -0.000801175
internal_weight=217.137 43.1195 29.9033 23.7701 14.4797 8.0077 9.29034 6.47201 3.2602 3.81949 5.41331 3.87704 4.18822 174.017 58.8068 6.13329 115.21 7.87908 5.40984 45.8296 32.1969 107.331 36.9503 15.1269 23.9851 70.381 66.8001 21.8234 13.6327 8.21177
internal_count=2716 531 365 288 176 97 112 79 40 46 65 47 51 2185 738 77 1447 99 68 575 404 1348 464 190 301 884 839 274 171 103
is_linear=0
shrinkage=0.001


Tree=24
num_leaves=31
num_cat=0
split_feature=0 2 6 6 5 5 6 6 6 5 4 5 6 6 6 6 7 6 7 5 7 7 5 5 6 7 5 5 6 6
split_gain=127.155 160.823 127.49 101.301 94.0933 92.8051 4.29785 3.11141 4.0085 2.8888 2.62914 6.38069 4.84108 5.96548 2.52985 2.41452 2.52721 2.50486 2.24218 3.30701 2.59946 2.19897 3.61456 2.1688 2.06917 4.35185 3.0237 1.9709 1.90965 5.01861
threshold=1.0000000180025095e-35 1.0000000180025095e-35 200.18500000000003 200.18500000000003 0.60500000000000009 0.60500000000000009 102.73500000000001 271.78000000000003 244.94000000000003 0.94500000000000006 1.0000000180025095e-35 0.53500000000000014 170.59000000000003 184.20500000000001 255.35000000000005 192.65000000000003 331.16000000000003 145.29000000000005 440.74000000000007 0.39500000000000007 559.28500000000008 648.91000000000008 0.46500000000000002 0.39500000000000007 123.95500000000001 920.93500000000006 0.60500000000000009 0.39500000000000007 139.28000000000003 155.34500000000003
decision_type=2 2 2 2 2 2 2 2 2 2 2 2 2 2 2 2 2 2 2 2 2 2 2 2 2 2 2 2 2 2
left_child=1 6 -3 -2 -5 -4 -1 8 -7 -6 27 15 24 -14 -10 16 17 23 -18 -20 -21 -22 -23 -12 -13 26 -26 28 -8 -30
right_child=3 2 5 4 9 7 10 -9 14 -11 11 12 13 -15 -16 -17 18 -19 19 20 21 22 -24 -25 25 -27 -28 -29 29 -31
leaf_value=0.00016306484560735674 0.0018460230017577116 0.0018293098710574194 0.0018459277102360523 0.0018459277102360523 -0.00033983956151285117 -0.0004969144738267903 -0.0006129460219177511 -0.00071220676628816406 0.00034570029667624471 0.00024942941861831819 -0.00021159276308743192 2.6180756817954623e-05 0.00073335632444785715 -0.00030622729967780748 -0.00028768211996901268 2.3896805578116902e-05 4.5763154066285238e-05 -0.0010723380708564283 -0.00089596779312177725 -0.00093769885484603634 0.00023836237025068197 5.5187035096395373e-05 -0.00075782859151044977 -0.00090209164176614483 -0.0002597468037621702 0.00030522247823705544 -0.00088921466224296949 -0.00056172415728209023 0.00040773505918388847 -0.0004847958553604281
leaf_weight=10.579725354909895 57.891920328140259 59.499074220657349 22.513891458511353 27.3382967710495 78.82235050201416 41.006826758384705 15.683493256568907 25.939762502908707 11.865779906511309 9.3010463118553144 9.6087900400161761 12.499195992946623 11.553338378667833 10.569737583398817 13.45900648832321 7.048348367214202 7.6926579475402823 16.955074518918991 16.958460003137589 6.4004491567611685 7.3713445961475399 9.9336952269077319 12.165062248706816 8.6379143893718702 14.096272438764574 6.4113705158233634 16.638775110244751 294.2645517885685 9.6203688085079211 18.25300395488739
leaf_count=33 180 185 70 85 246 128 49 81 37 29 30 39 36 33 42 22 24 53 53 20 23 31 38 27 44 20 52 919 30 57
internal_value=5.1789e-09 -0.000190559 0.000641366 0.000766453 0.000225161 2.55934e-05 -0.000467821 -0.000418562 -0.000303728 -0.000277645 -0.000480848 -0.000381189 -0.00015239 0.000236675 9.08549e-06 -0.000540967 -0.000582559 -0.000795611 -0.00045864 -0.000532088 -0.000360058 -0.000234603 -0.000392367 -0.000538472 -0.000325764 -0.000444188 -0.000600517 -0.000532338 -0.000333806 -0.000176743
internal_weight=870.58 697.226 174.284 173.354 115.462 114.785 522.942 92.2714 66.3316 88.1234 512.362 174.54 71.7687 22.1231 25.3248 102.772 95.7234 35.2018 60.5217 52.829 35.8706 29.4701 22.0988 18.2467 49.6456 37.1464 30.735 337.821 43.5569 27.8734
internal_count=2716 2176 543 540 360 358 1633 288 207 275 1600 545 224 69 79 321 299 110 189 165 112 92 69 57 155 116 96 1055 136 87
is_linear=0
shrinkage=0.001


Tree=25
num_leaves=31
num_cat=0
split_feature=6 2 0 1 5 6 6 7 4 5 6 6 6 5 6 7 7 5 6 6 6 5 5 7 6 6 7 5 5 5
split_gain=522.912 215.021 265.998 37.0238 75.5537 4.18087 2.86537 3.7609 2.77498 5.72974 3.99718 5.3266 5.47789 3.82457 2.46987 2.27404 2.46203 2.27936 2.26626 2.18013 8.65616 3.53297 2.16871 2.21936 2.11895 2.10507 2.08127 2.03506 1.87703 1.82096
threshold=199.17500000000004 1.0000000180025095e-35 1.0000000180025095e-35 1.0000000180025095e-35 0.60500000000000009 102.73500000000001 109.11000000000001 684.5200000000001 1.0000000180025095e-35 0.53500000000000014 121.22500000000001 161.96000000000004 184.20500000000001 0.59500000000000008 200.18500000000003 331.16000000000003 440.74000000000007 0.39500000000000007 173.94000000000003 150.24000000000004 139.28000000000003 0.49500000000000005 0.54500000000000015 204.01500000000001 265.56000000000006 151.95000000000002 726.95000000000016 0.6150000000000001 0.37500000000000006 0.39500000000000007
decision_type=2 2 2 2 2 2 2 2 2 2 2 2 2 2 2 2 2 2 2 2 2 2 2 2 2 2 2 2 2 2
left_child=1 2 5 14 24 -1 7 -7 19 15 -11 13 18 -12 -2 29 -17 -18 -13 20 22 -22 23 -8 -5 -21 -15 -24 -27 -10
right_child=3 -3 -4 4 -6 6 8 -9 9 10 11 12 -14 26 -16 16 17 -19 -20 25 21 -23 27 -25 -26 28 -28 -29 -30 -31
leaf_value=0.00053667697166732227 -0.00056040825475263466 -0.0011968532357082941 -0.0011968241020639267 0.0012833842424984968 -0.00090136769430875093 0.0018337144663579882 0.00096657104230564971 0.00091876977935167201 0.0011671272573977132 7.4093623834152017e-05 0.00077928709546078525 0.00058263203378133269 0.0011581089209083317 0.0017228097904568348 -0.0011976976391594773 0.00053627531333523288 0.0014643593222369285 0.0010191652930801346 -0.00017839788516824917 0.0018368726405806348 7.4076049699380123e-05 0.00095633555597706343 0.00070723615672809597 0.0016086102207782717 0.00061660473011119305 0.00094223129904997811 0.001051364772811448 0.001340952168794526 0.0013252149235735637 0.0016208020995318192
leaf_weight=10.33789139986038 6.2510112524032584 56.150758266448975 54.278169214725494 17.260624021291736 90.594617068767548 14.131678968667986 6.9011368155479458 6.5866251885890952 16.002484709024429 6.261923909187316 14.106083035469053 7.8327505588531512 9.7245786786079389 11.935972690582277 224.08583718538284 6.8926979899406424 17.582685470581055 33.245667099952698 7.8191168606281281 7.2227392494678488 9.392931282520296 8.7830156087875348 9.406938850879671 24.490805625915527 6.5839897692203513 14.426563382148741 7.5280216038227072 10.984941422939299 113.29799842834473 19.786954551935196
leaf_count=33 20 180 174 55 290 45 22 21 51 20 45 25 31 38 718 22 56 106 25 23 30 28 30 78 21 46 24 35 361 63
internal_value=-5.17472e-10 0.00064805 0.000878789 -0.000949421 -0.000484513 0.00116423 0.00118111 0.00154284 0.0011605 0.00106125 0.00083372 0.000914415 0.00056867 0.00117577 -0.0011804 0.00121991 0.00109711 0.00117317 0.000202449 0.00123739 0.00109413 0.000500403 0.00130253 0.00146747 0.00109927 0.00131166 0.00146312 0.00104861 0.00128196 0.00141795
internal_weight=849.887 505.111 448.96 344.776 114.439 394.682 384.344 20.7183 363.626 158.719 65.2084 58.9465 25.3764 33.5701 230.337 93.5105 57.7211 50.8284 15.6519 204.907 69.9598 18.1759 51.7838 31.3919 23.8446 134.947 19.464 20.3919 127.725 35.7894
internal_count=2716 1612 1432 1104 366 1258 1225 66 1159 506 208 188 81 107 738 298 184 162 50 653 223 58 165 100 76 430 62 65 407 114
is_linear=0
shrinkage=0.001


Tree=26
num_leaves=31
num_cat=0
split_feature=6 1 5 7 5 7 5 6 5 7 7 5 6 6 5 5 7 5 7 5 6 5 6 7 6 6 7 5 6 7
split_gain=563.061 310.105 334.957 5.49684 6.65976 6.61028 4.00914 3.44119 5.53798 3.37564 2.51055 2.43832 2.11831 4.81975 1.83473 3.83897 2.57876 2.17195 1.92542 1.67492 1.6315 2.10889 1.4964 3.88559 5.75486 3.73276 1.06999 1.17207 0.919747 0.592882
threshold=200.18500000000003 1.0000000180025095e-35 0.60500000000000009 577.42500000000007 0.92500000000000016 538.74500000000012 0.74500000000000011 272.71000000000009 0.93500000000000016 150.35500000000002 88.820000000000007 0.65500000000000014 213.47500000000002 234.38000000000002 0.83500000000000008 0.71500000000000008 423.74000000000007 0.64500000000000013 440.74000000000007 0.93500000000000016 231.31500000000003 0.62500000000000011 244.94000000000003 643.11000000000013 277.35500000000008 214.14500000000004 694.29500000000019 0.82500000000000007 282.84500000000008 207.66000000000003
decision_type=2 2 2 2 2 2 2 2 2 2 2 2 2 2 2 2 2 2 2 2 2 2 2 2 2 2 2 2 2 2
left_child=-1 2 -2 5 11 7 20 8 9 10 -4 -5 -8 -14 15 17 -16 -11 -17 28 21 -3 25 -24 -25 -13 27 -15 -9 -30
right_child=1 6 3 4 -6 -7 12 19 -10 14 -12 22 13 26 16 18 -18 -19 -20 -21 -22 -23 23 24 -26 -27 -28 -29 29 -31
leaf_value=-0.00088586288478790197 -0.00088930253569931489 -0.00088938772044224671 0.0030151459111756027 0.002226541198675117 0.0015708192272033191 0.0042694343330501126 -0.00088970491243452372 0.0029985929164407358 0.0021264387139825021 0.0029763472922677346 0.0020216054246014925 0.0025485914832264088 0.00054926740799182477 -0.00018419234250039088 0.0041982530838410616 0.0023606654501211045 0.0030784862495853538 0.003898647601269152 0.0032734788443816182 0.0040884624071654361 -0.0008895215079669337 2.0188490501402618e-05 0.0036142931989639644 0.0015007337100893486 0.003269258886775454 0.0038201278478526683 -6.4068092030879835e-05 -0.00077174950893261032 0.0032128830097202018 0.0036998569089603285
leaf_weight=287.86244082450867 27.301814779639244 4.7577939480543154 6.65185499191284 4.4875315278768602 4.4660553038120261 5.4220490902662268 4.2357560396194449 5.395393222570422 6.6244725137948981 4.134512543678289 4.1176792681217194 3.7766519486904162 7.6374318450689342 5.664699241518977 4.5161675959825498 6.4543394446372968 3.7763594686985016 6.6764459758996964 3.5994990170001984 3.6122925430536261 20.807027459144592 5.4907466769218445 3.7713973075151426 3.7602929770946503 3.6029707342386246 5.9398529678583145 7.2609492391347876 8.4738041162490827 4.1396164894103986 6.312479242682457
leaf_count=1634 155 27 37 25 25 30 24 30 37 23 23 21 43 32 25 36 21 37 20 20 118 31 21 21 20 33 41 48 23 35
internal_value=-4.08893e-09 0.00132217 0.0022192 0.0030575 0.00269676 0.00320802 -0.000470257 0.00312083 0.00297321 0.0031137 0.00263527 0.00289522 -0.000229072 -0.000132702 0.00329042 0.00313227 0.00368832 0.00354593 0.00268747 0.00347397 -0.000728661 -0.000402074 0.00303913 0.00278888 0.0023661 0.0033259 -0.000376096 -0.00053634 0.0033339 0.00350699
internal_weight=480.73 192.868 128.54 101.238 29.8048 71.4332 64.3282 66.0111 46.5513 39.9269 10.7695 25.3387 33.2726 29.0369 29.1573 20.8648 8.29253 10.811 10.0538 19.4598 31.0556 10.2485 20.8512 11.1347 7.36326 9.7165 21.3995 14.1385 15.8475 10.4521
internal_count=2716 1082 718 563 166 397 364 367 259 222 60 141 188 164 162 116 46 60 56 108 176 58 116 62 41 54 121 80 88 58
is_linear=0
shrinkage=0.001


Tree=27
num_leaves=31
num_cat=0
split_feature=1 6 5 5 6 5 6 6 5 7 7 6 6 6 5 6 6 7 6 7 7 6 5 6 7 6 5 5 5 7
split_gain=560.156 307.408 258.004 17.292 9.58193 11.5834 8.96107 8.0544 7.27783 6.74541 5.39291 4.26262 2.78801 1.23455e-07 6.23726e-08 7.43767e-09 7.34714e-09 1.22343e-08 8.79919e-09 5.98115e-09 8.04934e-09 5.96199e-09 7.14953e-09 6.41118e-09 5.26858e-09 4.72316e-09 5.15745e-09 3.60812e-09 2.98795e-09 2.84619e-09
threshold=1.0000000180025095e-35 199.61500000000004 0.6150000000000001 0.75500000000000012 243.52500000000001 0.89500000000000013 241.58000000000004 223.43000000000004 0.82500000000000007 436.50000000000006 457.88000000000005 218.90500000000003 274.68500000000006 199.17500000000004 0.60500000000000009 265.56000000000006 109.11000000000001 684.5200000000001 102.73500000000001 577.42500000000007 150.35500000000002 150.24000000000004 0.46500000000000002 142.56000000000003 538.74500000000012 152.28500000000005 0.36500000000000005 0.60500000000000009 0.92500000000000016 91.790000000000006
decision_type=2 2 2 2 2 2 2 2 2 2 2 2 2 2 2 2 2 2 2 2 2 2 2 2 2 2 2 2 2 2
left_child=13 -2 15 6 7 12 11 -5 -9 -7 -8 -4 -6 16 -15 -3 17 18 -1 20 29 22 23 -18 -22 -23 -27 -24 -21 -16
right_child=1 2 3 4 5 9 10 8 -10 -11 -12 -13 -14 14 19 -17 21 -19 -20 28 24 25 27 -25 -26 26 -28 -29 -30 -31
leaf_value=-0.00080104895081973052 -0.00080104437698064646 -0.00080105647057627388 0.0075829952837685784 0.0060066003387036857 0.0060517850017557263 0.0092705905075391084 0.0073122866248362031 0.0052603055084198989 0.0022776957462307605 0.006602260074238352 0.0093032619250101277 0.0054702410209540517 0.004397876306921001 -0.00080104377867479509 -0.00080112798729011002 -0.00080113466706479512 -0.00080103514362225186 -0.00080107753508407435 -0.00080096368430096249 -0.00080113377270861551 -0.00080111058110365354 -0.00080101004073354013 -0.00080108231286274108 -0.00080109015970679994 -0.00080106107173766143 -0.00080107498204165951 -0.00080104454130222244 -0.00080105547473305414 -0.00080117567687310737 -0.00080116679857703856
leaf_weight=1.8297693952918042 13.205142520368097 4.4556629657745388 1.6692620664834996 3.2305075600743285 2.4798932597041112 1.6873097419738772 2.5874074473977089 1.6492116525769236 1.6234101951122282 2.1604312509298325 2.8690444901585579 2.2315803989768028 1.7304264008998869 12.966342292726038 5.2577331736683828 1.6731060817837713 12.566753596067427 2.4674150422215462 3.5747628435492516 11.631890110671518 21.582153953611854 3.5775994360446921 14.009685516357424 2.5475571453571311 2.3871506825089446 6.1284717544913283 60.616496913135052 7.7972760722041121 1.99318516999483 2.949469305574894
leaf_count=23 166 56 20 39 30 20 31 20 20 26 34 27 21 163 66 21 158 31 45 146 271 45 176 32 30 77 762 98 25 37
internal_value=-9.67069e-09 0.00322041 0.00498776 0.00647106 0.00578946 0.0065182 0.00753173 0.00488647 0.00378076 0.00777238 0.00835916 0.00637434 0.00537203 -0.000801068 -0.000801105 -0.000801078 -0.000801049 -0.000801019 -0.000800993 -0.000801122 -0.000801115 -0.000801051 -0.000801061 -0.000801044 -0.000801106 -0.000801045 -0.000801047 -0.000801073 -0.00080114 -0.000801142
