tree
version=v4
num_class=4
num_tree_per_iteration=4
label_index=0
max_feature_idx=8
objective=multiclass num_class:4
feature_names=Column_0 Column_1 Column_2 Column_3 Column_4 Column_5 Column_6 Column_7 Column_8
feature_infos=[0:1] [0:1] [0:1] [0:1] [0:1] [0.29999999999999999:1] [100.08:299.82999999999998] [0.59999999999999998:999.87] [6311433600:6374419200]
tree_sizes=3280 3268 3239 1851 3487 3401 3422 3524 3486 3408 3423 3518 3497 3407 3421 3514 3493 3400 3418 3523 3490 3401 3424 3527 3492 3405 3421 3519 3498 3400 3424 3526 3493 3406 3428 3523 3489 3401 3420 3520 3466 3384 3427 3516 3463 3403 3425 3514 3475 3406 3427 3527 3488 3405 3427 3522 3470 3404 3419 3521 3474 3410 3436 3530 3472 3399 3417 3527 3474 3411 3425 3523 3478 3414 3426 3521 3473 3413 3431 3516 3471 3405 3424 3516 3474 3399 3427 3500 3462 3410 3427 3513 3479 3400 3432 3512 3477 3392 3428 3493 3474 3406 3429 3520 3479 3409 3429 3518 3469 3410 3426 3517 3474 3386 3428 3516 3475 3407 3432 3524 3468 3408 3427 3515 3488 3405 3418 3523 3472 3405 3425 3514 3474 3407 3423 3519 3476 3390 3428 3524 3481 3407 3430 3522 3472 3413 3432 3529 3476 3404 3420 3523 3477 3395 3428 3524 3477 3413 3420 3523 3467 3406 3425 3518 3467 3401 3424 3528 3476 3406 3438 3526 3465 3414 3432 3526 3472 3408 3424 3528 3479 3407 3433 3524 3473 3418 3424 3516 3468 3412 3426 3521 3480 3396 3431 3532 3472 3417 3433 3522 3470 3406 3436 3520 3479 3419 3427 3529 3461 3404 3436 3525 3476 3400 3434 3521 3476 3417 3440 3527 3485 3402 3437 3521 3477 3415 3442 3529 3484 3400 3437 3509 3476 3409 3438 3535 3476 3412 3441 3515 3478 3417 3439 3518 3480 3404 3454 3530 3474 3422 3443 3527 3488 3411 3443 3533 3489 3404 3447 3521 3481 3413 3441 3529 3488 3405 3440 3523 3483 3417 3453 3519 3488 3398 3445 3540 3485 3417 3437 3533 3478 3404 3442 3525 3476 3415 3434 3537 3484 3404 3446 3510 3489 3412 3444 3515 3489 3406 3432 3511 3486 3420 3444 3500 3485 3414 3435 3521 3487 3429 3436 3511 3487 3423 3437 3514 3477 3425 3428 3525 3479 3418 3437 3511 3495 3418 3430 3517 3483 3417 3439 3523 3486 3417 3433 3512 3492 3420 3440 3507 3482 3421 3432 3517 3489 3422 3430 3534 3480 3413 3429 3513 3492 3413 3441 3506 3485 3418 3436 3516 3481 3417 3445 3527 3490 3413 3434 3521 3479 3430 3446 3512 3489 3418 3434 3516 3482 3419 3445 3521 3482 3422 3424 3515 3491 3427 3429 3525 3484 3418 3442 3513 3488 3421 3432 3516 3484 3423 3439 3511 3484 3417 3435 3519 3488 3422 3425 3515 3480 3419 3447 3521 3470 3422 3426 3511 3486 3411 3430 3525 3485 3425 3429 3514 3484 3414 3425 3523 3470 3424 3439 3521 3491 3427 3433 3513 3476 3425 3431 3522 3486 3410 3443 3524 3470 3427 3430 3515 3483 3418 3440 3511 3466 3419 3451 3530 3476 3420 3429 3523 3479 3423 3433 3530 3463 3420 3451 3520 3484 3423 3435 3521 3468 3425 3435 3539 3472 3420 3443 3518 3453 3397 3431 3528 3472 3405 3444 3531 3472 3394 3438 3509 3483 3401 3436 3526 3459 3405 3446 3532 3476 3402 3450 3524 3479 3414 3431 3533 3455 3402 3439 3533 3479 3400 3436 3528 3479 3413 3445 3518 3478 3399 3434 3526 3471 3419 3445 3528 3481 3396 3448 3524 3475 3405 3432 3517 3474 3417 3433 3523 3455 3407 3425 3518 3482 3419 3447 3516 3466 3408 3428 3533 3472 3407 3443 3517 3473 3418 3424 3512 3473 3415 3451 3517 3476 3398 3437 3525 3462 3411 3437 3527 3476 3410 3440 3516 3480 3415 3436 3523 3460 3422 3443 3522 3476 3417 3425 3503 3470 3415 3445 3518 3470 3412 3430 3520 3474 3402 3443 3525 3462 3416 3439 3512 3474 3398 3438 3510 3472 3415 3425 3520 3475 3403 3442 3519 3484 3419 3437 3523 3479 3419 3439 3511 3464 3410 3435 3505 3459 3422 3430 3515 3476 3409 3444 3526 3475 3413 3434 3521 3480 3418 3444 3503 3476 3408 3442 3532 3478 3413 3442 3507 3477 3411 3435 3520 3481 3417 3439 3516 3464 3415 3441 3519 3466 3399 3446 3517 3482 3414 3433 3515 3466 3414 3431 3500 3473 3414 3423 3513 3474 3413 3437 3515 3477 3404 3437 3515 3480 3414 3449 3515 3459 3421 3435 3526 3478 3405 3433 3524 3468 3415 3447 3508 3463 3408 3441 3505 3468 3413 3442 3512 3474 3413 3435 3507 3470 3396 3427 3512 3478 3416 3433 3504 3474 3410 3426 3512 3476 3421 3436 3517 3463 3411 3435 3511 3475 3421 3431 3505 3474 3419 3432 3514 3479 3421 3436 3514 3469 3408 3426 3512 3476 3410 3428 3507 3446 3421 3437 3511 3477 3417 3442 3512 3477 3420 3424 3514 3478 3416 3428 3511 3471 3420 3427 3511 3481 3408 3445 3507 3488 3425 3430 3495 3472 3422 3430 3513 3487 3419 3434 3511 3487 3415 3440 3517 3485 3425 3438 3519 3462 3427 3438 3516 3485 3429 3438 3523 3479 3428 3433 3512 3473 3427 3445 3511 3488 3422 3425 3516 3487 3416 3436 3519 3485 3424 3432 3513 3464 3418 3424 3512 3483 3425 3433 3517 3464 3427 3431 3518 3479 3420 3426 3512 3492 3428 3431 3510 3484 3422 3432 3512 3483 3419 3432 3517 3464 3416 3435 3508 3481 3429 3429 3517 3482 3426 3420 3508 3472 3427 3444 3504 3483 3420 3440 3504 3480 3429 3423 3508 3471 3416 3437 3493 3489 3433 3444 3504 3474 3415 3421 3502 3484 3427 3442 3499 3482 3428 3438 3495 3472 3414 3442 3500 3486 3422 3438 3507 3484 3413 3434 3507 3469 3426 3447 3509 3484 3436 3436 3504 3478 3425 3425 3504 3468 3415 3445 3504 3485 3432 3424 3500 3486 3423 3439 3501 3461 3420 3448 3496 3486 3427 3432 3498 3474 3420 3448 3498 3473 3422 3444 3518 3487 3431 3427 3504 3489 3425 3442 3521 3467 3421 3434 3507 3481 3432 3441 3519 3485 3429 3438 3508 3472 3429 3436 3513 3481 3428 3440 3501 3470 3423 3436 3520 3491 3424 3440 3513 3474 3420 3443 3500 3470 3419 3435 3507 3478 3426 3438 3505

Tree=0
num_leaves=31
num_cat=0
split_feature=6 5 0 2 1 1 6 6 7 4 5 6 6 6 7 8 7 7 7 5 8 7 5 8 7 7 7 7 8 5
split_gain=167.614 229.827 177.072 224.248 71.0962 11.6562 3.28561 2.24009 2.87553 2.58939 4.88995 3.21141 4.95928 4.85565 3.29783 4.35143 1.98296 1.86524 1.83544 2.88215 2.01292 3.09272 2.35483 2.76365 1.79068 2.52502 2.46708 5.85896 2.05885 1.96716
threshold=200.18500000000003 0.60500000000000009 1.0000000180025095e-35 1.0000000180025095e-35 1.0000000180025095e-35 1.0000000180025095e-35 102.73500000000001 109.11000000000001 684.5200000000001 1.0000000180025095e-35 0.53500000000000014 170.59000000000003 184.20500000000001 121.22500000000001 920.93500000000006 6322104000.000001 331.16000000000003 440.74000000000007 577.42500000000007 0.92500000000000016 6343963200.000001 110.38500000000001 0.93500000000000016 6349579200.000001 911.1450000000001 816.96500000000003 684.5200000000001 651.47500000000014 6335496000.000001 0.37500000000000006
decision_type=2 2 2 2 2 2 2 2 2 2 2 2 2 2 2 2 2 2 2 2 2 2 2 2 2 2 2 2 2 2
left_child=2 4 3 6 -2 18 -1 8 -8 24 16 13 -13 -12 15 -15 -11 -18 20 -20 -3 -22 23 -23 25 26 27 29 -27 -9
right_child=1 5 -4 -5 -6 -7 7 9 -10 10 11 12 -14 14 -16 -17 17 -19 19 -21 21 22 -24 -25 -26 28 -28 -29 -30 -31
leaf_value=-1.3855416590144283 -1.3832943601184622 -1.3869288604442378 -1.3832943601184622 -1.3833490667928807 -1.3862412946414857 -1.3870950660449954 -1.3871275028886574 -1.386019250909543 -1.386019250909543 -1.3866359609571972 -1.3849583601084416 -1.3848004871071342 -1.3861374662562576 -1.385455569165204 -1.3853605852651989 -1.3867273697598799 -1.3855416590144283 -1.3863135539268188 -1.3866735303082065 -1.3859631002967074 -1.3861680442257422 -1.3862884845740611 -1.3862316660360199 -1.3869509926171677 -1.3868834556452623 -1.385429396594231 -1.3868171649793537 -1.3850738277867765 -1.3862787078963117 -1.386492747662716
leaf_weight=5.3214569538831702 24.094551578164101 66.347544983029366 27.980769574642181 28.99917659163475 12.399697482585905 193.43927028775215 7.4530210345983487 10.240450814366339 3.4134836047887802 18.888084664940834 3.1941518187522915 5.7345672249793989 5.3746928423643112 3.3815420717001023 3.215446174144744 13.159905672073362 3.5476379692554501 26.626449838280678 45.069957599043846 6.5390155911445609 9.9370954334735853 7.4179545640945426 7.0213424265384665 41.650085762143135 7.5661747455596915 4.6677205413579923 14.333224132657049 3.3602477163076392 7.3465492576360703 61.278738647699356
leaf_count=33 155 191 180 185 76 288 45 63 21 115 20 36 33 21 20 80 22 163 141 25 36 26 25 119 41 29 87 21 45 374
internal_value=-1.38629 -1.38669 -1.38567 -1.38595 -1.3843 -1.38692 -1.38632 -1.38634 -1.38678 -1.38631 -1.38618 -1.38589 -1.38545 -1.3861 -1.38629 -1.38647 -1.38638 -1.38622 -1.38674 -1.38658 -1.38681 -1.38668 -1.38677 -1.38685 -1.38641 -1.38638 -1.38644 -1.38636 -1.38595 -1.38642
internal_weight=679 413.917 265.083 237.103 36.4942 377.422 208.104 202.782 10.8665 191.916 83.1225 34.0603 11.1093 22.951 19.7569 16.5414 49.0622 30.1741 183.983 51.609 132.374 66.0265 56.0894 49.068 108.793 101.227 89.2127 74.8794 12.0143 71.5192
internal_count=2716 1082 1634 1454 231 851 1269 1236 66 1170 510 210 69 141 121 101 300 185 563 166 397 206 170 145 660 619 545 458 74 437
is_linear=0
shrinkage=1


Tree=1
num_leaves=31
num_cat=0
split_feature=6 2 0 5 1 6 6 7 8 6 5 6 6 7 7 7 7 6 6 8 8 5 4 8 6 5 6 8 8 6
split_gain=813.027 178.57 218.837 32.4215 68.5266 3.31086 2.20952 2.87553 2.29034 3.74239 2.51204 2.10654 3.71287 1.96599 1.94836 3.29349 2.61356 2.14451 1.92646 1.79718 3.03554 2.53092 1.74186 1.87484 1.98993 1.72429 1.66237 1.57358 2.99746 2.31569
threshold=199.17500000000004 1.0000000180025095e-35 1.0000000180025095e-35 0.60500000000000009 1.0000000180025095e-35 102.73500000000001 109.11000000000001 684.5200000000001 6327547200.000001 150.49000000000004 0.36500000000000005 137.05000000000004 129.15000000000001 63.995000000000012 113.91000000000001 515.78000000000009 658.41500000000008 171.23500000000004 184.20500000000001 6347764800.000001 6350356800.000001 0.7350000000000001 1.0000000180025095e-35 6339124800.000001 169.48500000000004 0.66500000000000015 265.56000000000006 6354849600.000001 6356318400.000001 175.40000000000001
decision_type=2 2 2 2 2 2 2 2 2 2 2 2 2 2 2 2 2 2 2 2 2 2 2 2 2 2 2 2 2 2
left_child=1 2 5 4 -2 -1 7 -7 9 10 -8 12 -12 -10 -11 17 -17 -16 -18 21 -21 22 -15 -24 -25 27 -6 29 -29 -22
right_child=3 -3 -4 -5 26 6 8 -9 13 14 11 -13 -14 19 15 16 18 -19 -20 20 25 -23 23 24 -26 -27 -28 28 -30 -31
leaf_value=-1.3850470303991418 -1.3872157662628712 -1.3872943292985602 -1.3872943292985602 -1.3872454623383959 -1.3841226981438415 -1.3834611865224766 -1.3840162082167011 -1.3845694385032934 -1.3837380983631602 -1.3848969637904365 -1.3851794164683742 -1.3854640594616303 -1.3839959151308334 -1.3838412389477446 -1.3832943293882745 -1.3850353855370741 -1.3845009409055709 -1.384162730834898 -1.3836079706183313 -1.3849320186095451 -1.3837295007525896 -1.3848030188511657 -1.383952728454692 -1.3841248860337014 -1.3850221399702549 -1.3839062554397836 -1.3849440468356164 -1.3853233880612585 -1.3843461139692055 -1.3846881240785156
leaf_weight=5.3214569538831702 25.370082870125771 27.980769574642181 27.048077255487442 380.68113251030445 9.007508233189581 7.4530210345983487 3.445425137877467 3.4134836047887802 8.4070077091455442 3.8798297643661526 6.5969882458448428 5.4449641406536093 4.4313533455133438 25.012338519096375 5.6472605168819445 4.9999123364686957 6.1838779747486097 5.7281789928674698 3.9650071859359741 7.5935636311769477 8.5731036067008954 4.533566176891326 11.332850798964502 5.2405384778976423 4.6783677190542221 11.177402079105375 3.3921892493963233 3.3708948940038672 45.520922735333443 3.5689323246479026
leaf_count=33 163 180 174 865 55 45 21 21 51 24 41 34 27 152 34 31 38 35 24 47 52 28 69 32 29 68 21 21 279 22
internal_value=-1.38629 -1.38491 -1.38462 -1.38716 -1.38627 -1.38427 -1.38425 -1.38381 -1.38427 -1.38446 -1.38479 -1.38496 -1.3847 -1.38421 -1.38424 -1.38414 -1.38444 -1.38373 -1.38415 -1.38424 -1.38433 -1.38409 -1.38402 -1.38423 -1.38455 -1.38427 -1.38435 -1.38433 -1.38441 -1.38401
internal_weight=679 260.549 232.568 418.451 37.7698 205.52 200.199 10.8665 189.332 50.3228 19.9187 16.4733 11.0283 139.009 30.4041 26.5242 15.1488 11.3754 10.1489 130.602 79.8048 50.7977 46.2641 21.2518 9.91891 72.2113 12.3997 61.0339 48.8918 12.142
internal_count=2716 1612 1432 1104 239 1258 1225 66 1159 309 123 102 68 850 186 162 93 69 62 799 489 310 282 130 61 442 76 374 300 74
is_linear=0
shrinkage=1


Tree=2
num_leaves=31
num_cat=0
split_feature=6 1 5 6 6 7 5 7 5 8 7 5 8 8 8 8 8 8 6 5 7 6 6 5 6 8 5 8 8 7
split_gain=429.661 835.555 253.447 2.50047 3.18603 2.50494 1.93528 1.83544 2.88215 2.01292 3.09272 2.35483 2.76365 1.78118 1.13435 1.59566 1.19416 1.5487 1.00877 0.974759 1.61131 0.91357 1.81921 1.00426 0.872252 0.860677 2.54659 3.69038 0.745581 0.669967
threshold=200.18500000000003 1.0000000180025095e-35 0.60500000000000009 234.38000000000002 223.43000000000004 375.12500000000006 0.75500000000000012 577.42500000000007 0.92500000000000016 6343963200.000001 110.38500000000001 0.93500000000000016 6349579200.000001 6311649600.000001 6345604800.000001 6322104000.000001 6352689600.000001 6362971200.000001 241.58000000000004 0.88500000000000012 716.3900000000001 268.9500000000001 260.77500000000003 0.85500000000000009 248.02000000000001 6359601600.000001 0.83500000000000008 6365131200.000001 6315451200.000001 283.47500000000008
decision_type=2 2 2 2 2 2 2 2 2 2 2 2 2 2 2 2 2 2 2 2 2 2 2 2 2 2 2 2 2 2
left_child=-1 2 -2 4 19 -6 -5 9 13 18 -11 12 -12 -9 15 -15 -16 -18 28 20 29 22 -8 -23 -17 -14 27 -27 -4 -3
right_child=1 3 7 6 5 -7 21 8 -10 10 11 -13 25 14 16 24 17 -19 -20 -21 -22 23 -24 -25 -26 26 -28 -29 -30 -31
leaf_value=-1.387288417796718 -1.387294402509567 -1.3869314675175268 -1.3842792162194704 -1.3872944024592109 -1.3862881638211533 -1.3869337555363204 -1.3870978759500785 -1.387294402509567 -1.3846256623175 -1.3844207183874038 -1.3843002780384612 -1.3843570965767964 -1.3834528917568714 -1.3837078492696637 -1.3833900450449796 -1.3840559684328981 -1.3841768768241576 -1.3835851634602681 -1.3835690766429751 -1.3872944024548666 -1.3866527027849171 -1.386954340418513 -1.386618043965169 -1.3872944024522624 -1.3845739242717867 -1.3846672975451035 -1.3833561452289482 -1.3836513667285972 -1.3837566056171533 -1.3872944024605582
leaf_weight=265.08349189162254 24.094551578164101 8.7423299700021797 3.1569164246320751 62.733802378177643 11.036288097500803 13.196689754724501 24.217321187257767 0.15544871985912223 6.5390155911445609 9.9370954334735853 7.4179545640945426 7.0213424265384665 15.693056106567381 7.5196499377489117 6.5012429207563427 7.348220542073248 9.1598518341779727 8.5540376305580121 43.011351570487022 15.255122154951094 9.8890403956174833 13.995521411299704 11.727867126464842 22.882976934313774 5.8315060138702393 5.4348938763141659 10.070752158761023 10.451383620500563 20.179276987910271 12.162008360028265
leaf_count=1634 155 16 11 121 23 22 40 1 25 36 26 25 42 22 17 24 31 24 120 24 20 22 20 31 22 21 26 30 60 25
internal_value=-1.38629 -1.38566 -1.38424 -1.38709 -1.38693 -1.38664 -1.38717 -1.38385 -1.38401 -1.38378 -1.38391 -1.38382 -1.38374 -1.38392 -1.3839 -1.38408 -1.38376 -1.38389 -1.38366 -1.38709 -1.38699 -1.38705 -1.38694 -1.38717 -1.38429 -1.38364 -1.38375 -1.384 -1.38383 -1.38714
internal_weight=679 413.917 208.078 205.839 70.2815 24.233 135.557 183.983 51.609 132.374 66.0265 56.0894 49.068 45.07 44.9145 20.6994 24.2151 17.7139 66.3475 46.0485 30.7934 72.8237 35.9452 36.8785 13.1797 41.6501 25.957 15.8863 23.3362 20.9043
internal_count=2716 1082 718 364 130 45 234 563 166 397 206 170 145 141 140 68 72 55 191 85 61 113 60 53 46 119 77 51 71 41
is_linear=0
shrinkage=1


Tree=3
num_leaves=17
num_cat=0
split_feature=1 6 5 8 6 6 5 5 5 8 7 6 8 7 5 5
split_gain=1291.23 259.014 144.078 6.76392 5.20732 3.70889 8.35867 2.27261 2.83745 2.58996 1.89166 1.02485 0.476106 0.349768 5.68434e-14 7.10543e-15
threshold=1.0000000180025095e-35 199.61500000000004 0.6150000000000001 6311649600.000001 243.52500000000001 223.43000000000004 0.80500000000000016 0.75500000000000012 0.89500000000000013 6335236800.000001 681.47500000000002 270.70000000000005 6320116800.000001 457.88000000000005 0.88500000000000012 0.9850000000000001
decision_type=2 2 2 2 2 2 2 2 2 2 2 2 2 2 2 2
left_child=14 -2 -3 -4 5 10 -7 12 9 -9 -5 -10 -6 -14 -1 -16
right_child=1 2 3 4 7 6 -8 8 11 -11 -12 -13 13 -15 15 -17
leaf_value=-1.3872943526488328 -1.3872943526488328 -1.3872943526488328 -1.3872943526488328 -1.3836242440313085 -1.3837670804109539 -1.383861166293767 -1.3848695895308201 -1.3836793286464564 -1.3837956766447224 -1.3842618925658674 -1.3840525131852079 -1.3834424875025029 -1.3835538970109618 -1.3833742149554615 -1.3872943526488328 -1.3872943526488328
leaf_weight=383.14423647522926 27.1886205971241 12.555146202445028 0.55206085741519828 26.581631049513817 5.5316100716590872 22.732811585068703 12.874821126461027 14.033070325851442 13.384373709559439 16.728954270482063 16.852217882871628 21.274960145354271 19.82209837436676 23.890786901116371 53.743124559521675 8.1094834655523282
leaf_count=1950 166 77 2 36 9 36 28 20 18 31 28 26 27 27 203 32
internal_value=-1.38629 -1.38439 -1.38401 -1.3838 -1.38379 -1.38399 -1.38423 -1.38365 -1.38378 -1.384 -1.38379 -1.38358 -1.38349 -1.38346 -1.38729 -1.38729
internal_weight=679 234.003 206.815 194.259 193.707 79.0415 35.6076 114.666 65.4214 30.762 43.4338 34.6593 49.2445 43.7129 444.997 61.8526
internal_count=2716 531 365 288 286 128 64 158 95 51 64 44 63 54 2185 235
is_linear=0
shrinkage=1


Tree=4
num_leaves=31
num_cat=0
split_feature=6 5 0 2 1 1 6 6 7 4 5 6 6 6 7 8 7 7 7 5 8 7 5 8 7 7 7 7 8 5
split_gain=167.252 229.225 176.253 223.31 70.7157 11.6484 3.27759 2.23638 2.87178 2.58481 4.88177 3.20347 4.94564 4.84456 3.29155 4.34324 1.98012 1.86141 1.83332 2.87706 2.01097 3.08808 2.35166 2.76037 1.78854 2.52101 2.46414 5.84674 2.054 1.96436
threshold=200.18500000000003 0.60500000000000009 1.0000000180025095e-35 1.0000000180025095e-35 1.0000000180025095e-35 1.0000000180025095e-35 102.73500000000001 109.11000000000001 684.5200000000001 1.0000000180025095e-35 0.53500000000000014 170.59000000000003 184.20500000000001 121.22500000000001 920.93500000000006 6322104000.000001 331.16000000000003 440.74000000000007 577.42500000000007 0.92500000000000016 6343963200.000001 110.38500000000001 0.93500000000000016 6349579200.000001 911.1450000000001 816.96500000000003 684.5200000000001 651.47500000000014 6335496000.000001 0.37500000000000006
decision_type=2 2 2 2 2 2 2 2 2 2 2 2 2 2 2 2 2 2 2 2 2 2 2 2 2 2 2 2 2 2
left_child=2 4 3 6 -2 18 -1 8 -8 24 16 13 -13 -12 15 -15 -11 -18 20 -20 -3 -22 23 -23 25 26 27 29 -27 -9
right_child=1 5 -4 -5 -6 -7 7 9 -10 10 11 12 -14 14 -16 -17 17 -19 19 -21 21 22 -24 -25 -26 28 -28 -29 -30 -31
leaf_value=0.00075157390245305256 0.0029910767587028198 -0.00063412663761468224 0.0029910239887755443 0.0029365473323163375 5.3043411534125022e-05 -0.00080033754728640568 -0.00083277137178368538 0.00027488968565633499 0.00027478609089290936 -0.00034140964547581064 0.0013341058322182495 0.0014915509433345679 0.00015670156731805883 0.00083764014864646846 0.0009326390469940563 -0.00043274645232864971 0.000751753626788074 -1.9205068888243227e-05 -0.00037887709193598819 0.00033087098416968296 0.000126192836259275 5.8825472990647215e-06 6.2642186352097423e-05 -0.00065625593242343318 -0.00058879819515051139 0.00086387140543408571 -0.00052252920339152344 0.0012188207421412536 1.5677343472381602e-05 -0.00019824780203458729
leaf_weight=5.3241200745105735 24.142401218414307 66.31888821721077 28.036665737628937 29.056315347552299 12.399873211979864 193.33731137216091 7.4488674253225309 10.241716891527174 3.4141049683094025 18.884965986013412 3.1962860077619579 5.7390170246362668 5.3753163814544678 3.383206292986876 3.2169470638036719 13.156658247113226 3.5491302907466915 26.626650929450989 45.058168321847916 6.5404037833213797 9.9378467202186567 7.4179195165634146 7.0215755403041831 41.631480574607849 7.5637039244174948 4.6698764115571958 14.329179182648657 3.3623624145984641 7.3464270830154419 61.272156029939651
leaf_count=33 155 191 180 185 76 288 45 63 21 115 20 36 33 21 20 80 22 163 141 25 36 26 25 119 41 29 87 21 45 374
internal_value=3.39655e-10 -0.000397314 0.000619967 0.000339661 0.00199412 -0.000628951 -2.29329e-05 -4.32685e-05 -0.000484679 -1.82831e-05 0.000114479 0.00040529 0.000845967 0.000191906 7.11971e-06 -0.000172891 -8.7459e-05 7.14714e-05 -0.000448796 -0.000288913 -0.000511139 -0.000387575 -0.000478633 -0.000556118 -0.000119733 -8.46822e-05 -0.000142604 -6.98968e-05 0.00034531 -0.000130488
internal_weight=679 413.806 265.194 237.157 36.5423 377.264 208.101 202.777 10.863 191.914 83.1282 34.0674 11.1143 22.9531 19.7568 16.5399 49.0607 30.1758 183.926 51.5986 132.328 66.0088 56.071 49.0494 108.785 101.222 89.2054 74.8762 12.0163 71.5139
internal_count=2716 1082 1634 1454 231 851 1269 1236 66 1170 510 210 69 141 121 101 300 185 563 166 397 206 170 145 660 619 545 458 74 437
is_linear=0
shrinkage=0.001


Tree=5
num_leaves=31
num_cat=0
split_feature=6 2 0 5 1 6 6 7 8 6 5 6 6 7 7 7 7 6 6 8 8 5 4 8 6 5 6 8 8 6
split_gain=811.12 177.971 218.008 32.3959 68.3446 3.29258 2.19547 2.85635 2.27825 3.72495 2.50087 2.09814 3.6971 1.95531 1.93893 3.27632 2.60127 2.13159 1.91548 1.78861 3.02221 2.51946 1.73126 1.86609 1.98042 1.71512 1.65523 1.56592 2.98427 2.30314
threshold=199.17500000000004 1.0000000180025095e-35 1.0000000180025095e-35 0.60500000000000009 1.0000000180025095e-35 102.73500000000001 109.11000000000001 684.5200000000001 6327547200.000001 150.49000000000004 0.36500000000000005 137.05000000000004 129.15000000000001 63.995000000000012 113.91000000000001 515.78000000000009 658.41500000000008 171.23500000000004 184.20500000000001 6347764800.000001 6350356800.000001 0.7350000000000001 1.0000000180025095e-35 6339124800.000001 169.48500000000004 0.66500000000000015 265.56000000000006 6354849600.000001 6356318400.000001 175.40000000000001
decision_type=2 2 2 2 2 2 2 2 2 2 2 2 2 2 2 2 2 2 2 2 2 2 2 2 2 2 2 2 2 2
left_child=1 2 5 4 -2 -1 7 -7 9 10 -8 12 -12 -10 -11 17 -17 -16 -18 21 -21 22 -15 -24 -25 27 -6 29 -29 -22
right_child=3 -3 -4 -5 26 6 8 -9 13 14 11 -13 -14 19 15 16 18 -19 -20 20 25 -23 23 24 -26 -27 -28 28 -30 -31
leaf_value=0.0012450192510679607 -0.00092108262511254944 -0.00099967050697896903 -0.00099966589966515146 -0.00095078538583267928 0.0021665647346672729 0.0028249781540396327 0.0022726017640958425 0.0017211898047364146 0.0025496151139166997 0.0013944601698179175 0.0011125897764029842 0.00082864326264857108 0.0022928463521632589 0.0024468556991842478 0.0029916625488605811 0.0012563771853255985 0.0017894153721475588 0.0021265818655644983 0.0026791594927920931 0.0013593572837270623 0.0025581998251172247 0.0014879932977892073 0.0023359606481868061 0.0021642166466711919 0.0012696273129292495 0.0023820611213621378 0.0013474358795447265 0.00096897628015224588 0.0019436931192111919 0.0016027802981428167
leaf_weight=5.3258749544620505 25.354536235332489 27.96231597661972 27.029992461204529 380.43986743688583 9.0199497640132886 7.4670839160680753 3.4504636079072979 3.4174040257930756 8.4207361787557584 3.8837226182222393 6.6028519719839114 5.4487662911415091 4.4378557056188583 25.051832050085068 5.6577382087707537 5.0045662224292746 6.1913439631462079 5.7360993325710297 3.9718343764543533 7.6014038771390906 8.5871009379625303 4.5385970920324317 11.349507093429567 5.2480103075504285 4.68269382417202 11.194706693291662 3.3955791592597953 3.3735767006874076 45.580675393342972 3.5728702545166007
leaf_count=33 163 180 174 865 55 45 21 21 51 24 41 34 27 152 34 31 38 35 24 47 52 28 69 32 29 68 21 21 279 22
internal_value=4.00291e-11 0.00138408 0.00167036 -0.00086309 2.02279e-05 0.00202105 0.00204167 0.00247842 0.00201659 0.00183438 0.00149841 0.00133641 0.001587 0.00208254 0.00205443 0.00215093 0.00184653 0.00255615 0.00213713 0.00205247 0.00195916 0.00219904 0.0022687 0.00205896 0.00174238 0.00202222 0.00194254 0.0019563 0.00187652 0.00227748
internal_weight=679 260.79 232.827 418.21 37.7701 205.797 200.471 10.8845 189.587 50.3852 19.9399 16.4895 11.0407 139.202 30.4453 26.5616 15.1677 11.3938 10.1632 130.781 79.9103 50.8706 46.332 21.2802 9.9307 72.3089 12.4155 61.1142 48.9543 12.16
internal_count=2716 1612 1432 1104 239 1258 1225 66 1159 309 123 102 68 850 186 162 93 69 62 799 489 310 282 130 61 442 76 374 300 74
is_linear=0
shrinkage=0.001


Tree=6
num_leaves=31
num_cat=0
split_feature=6 1 5 6 6 7 5 7 5 8 7 5 8 8 8 8 8 8 6 5 7 6 6 5 6 8 5 8 8 7
split_gain=428.907 832.852 252.352 2.49941 3.18348 2.50235 1.93464 1.82296 2.86429 1.99886 3.07273 2.33925 2.74494 1.77448 1.12817 1.58724 1.18724 1.54021 1.0029 0.974692 1.61029 0.912985 1.81842 1.00385 0.868015 0.855569 2.53182 3.67119 0.741539 0.669912
threshold=200.18500000000003 1.0000000180025095e-35 0.60500000000000009 234.38000000000002 223.43000000000004 375.12500000000006 0.75500000000000012 577.42500000000007 0.92500000000000016 6343963200.000001 110.38500000000001 0.93500000000000016 6349579200.000001 6311649600.000001 6345604800.000001 6322104000.000001 6352689600.000001 6362971200.000001 241.58000000000004 0.88500000000000012 716.3900000000001 268.9500000000001 260.77500000000003 0.85500000000000009 248.02000000000001 6359601600.000001 0.83500000000000008 6365131200.000001 6315451200.000001 283.47500000000008
decision_type=2 2 2 2 2 2 2 2 2 2 2 2 2 2 2 2 2 2 2 2 2 2 2 2 2 2 2 2 2 2
left_child=-1 2 -2 4 19 -6 -5 9 13 18 -11 12 -12 -9 15 -15 -16 -18 28 20 29 22 -8 -23 -17 -14 27 -27 -4 -3
right_child=1 3 7 6 5 -7 21 8 -10 10 11 -13 25 14 16 24 17 -19 -20 -21 -22 23 -24 -25 -26 26 -28 -29 -30 -31
leaf_value=-0.00099368114339084255 -0.00099965994828719938 -0.00063665419212566147 0.0020101364325263472 -0.00099966677182016178 6.30470316679905e-06 -0.00063901822384261576 -0.00080314205458936435 -0.00099994420382209571 0.0016652448107446524 0.0018695026081750497 0.0019895136377020284 0.0019329001356866507 0.0028334703862348738 0.0025796924793299834 0.0028962662650672904 0.0022328062841923332 0.0021122978694143577 0.0027019150801859521 0.0027177608208475705 -0.00099968930444605756 -0.00035798777143689233 -0.00065958273003042188 -0.00032333412358049771 -0.00099966428796913133 0.0017164617293146242 0.0016232061759617006 0.0029298242203318601 0.0026357728286634094 0.0025309448615469048 -0.00099967394186046264
leaf_weight=264.90828341245651 24.078148230910301 8.7381673306226784 3.1614560484886196 62.691959753632545 11.035804316401483 13.19155493378639 24.205793038010597 0.1554313600063314 6.5462341010570517 9.9494225978851301 7.4277519583702079 7.0303500890731803 15.722159028053282 7.5322899222373989 6.5132028162479427 7.3592941761016828 9.1731022298336047 8.5689402818679792 43.088459923863411 15.245635986328123 9.8863335698842985 13.989602684974669 11.724803045392035 22.867602378129959 5.8387848138809204 5.4416753053665188 10.089915052056311 10.469729214906691 20.213562548160553 12.15407173335552
leaf_count=1634 155 16 11 121 23 22 40 1 25 36 26 25 42 22 17 24 31 24 120 24 20 22 20 31 22 21 26 30 60 25
internal_value=-1.2158e-10 0.000635692 0.00204491 -0.000791535 -0.000638469 -0.000345067 -0.000870905 0.00244271 0.00228341 0.00250481 0.00238172 0.00247244 0.00254961 0.00237306 0.00238471 0.00221342 0.00253112 0.00239707 0.00262728 -0.000792917 -0.000690496 -0.000760003 -0.000646572 -0.000870582 0.00200438 0.00264932 0.00253797 0.00228948 0.00246051 -0.000847841
internal_weight=679 414.091 208.36 205.731 70.2516 24.2274 135.48 184.282 51.6873 132.594 66.131 56.1816 49.1512 45.141 44.9856 20.7304 24.2552 17.742 66.4635 46.0242 30.7786 72.7878 35.9306 36.8572 13.1981 41.7235 26.0013 15.9114 23.375 20.8922
internal_count=2716 1082 718 364 130 45 234 563 166 397 206 170 145 141 140 68 72 55 191 85 61 113 60 53 46 119 77 51 71 41
is_linear=0
shrinkage=0.001


Tree=7
num_leaves=31
num_cat=0
split_feature=1 6 5 8 6 6 5 5 5 8 7 6 8 7 6 5 4 6 6 7 6 5 8 8 3 8 7 8 6 8
split_gain=1287.86 257.948 143.424 6.73756 5.17427 3.68634 8.3172 2.25652 2.81946 2.57591 1.87965 1.01725 0.47324 0.347605 1.45931e-08 7.58803e-09 2.29459e-08 1.07798e-08 3.69754e-08 1.64033e-08 1.64513e-08 8.93095e-09 8.11357e-09 7.26786e-09 7.09622e-09 7.63399e-09 6.46028e-09 5.99519e-09 5.95833e-09 4.78457e-09
threshold=1.0000000180025095e-35 199.61500000000004 0.6150000000000001 6311649600.000001 243.52500000000001 223.43000000000004 0.80500000000000016 0.75500000000000012 0.89500000000000013 6335236800.000001 681.47500000000002 270.70000000000005 6320116800.000001 457.88000000000005 265.56000000000006 0.53500000000000014 1.0000000180025095e-35 170.59000000000003 184.20500000000001 920.93500000000006 121.22500000000001 0.35500000000000004 6321844800.000001 6325646400.000001 1.0000000180025095e-35 6311649600.000001 833.25000000000011 6339124800.000001 150.49000000000004 6347764800.000001
decision_type=2 2 2 2 2 2 2 2 2 2 2 2 2 2 2 2 2 2 2 2 2 2 2 2 2 2 2 2 2 2
left_child=15 26 14 -4 5 10 -7 12 9 -9 -5 -10 -6 -14 -3 21 24 19 -19 20 -18 -1 -22 28 25 -17 -2 -25 -23 -26
right_child=1 2 3 4 7 6 -8 8 11 -11 -12 -13 13 -15 -16 16 17 18 -20 -21 22 23 -24 27 29 -27 -28 -29 -30 -31
leaf_value=-0.00099965461600878065 -0.00099967829544201931 -0.00099963961253308835 -0.00099996755365402805 0.0026627183678340958 0.0025203477615800608 0.0024268843856560204 0.0014216035552650351 0.0026080005259877452 0.0024921076393607309 0.0020274760129323651 0.0022361562343493789 0.0028436790383405092 0.0027327144751479278 0.0029116729238904261 -0.00099971641211950182 -0.00099974653911660567 -0.00099961664764205895 -0.00099955718750625497 -0.00099967267594532126 -0.00099958852161227728 -0.00099963175530610082 -0.00099970897632192324 -0.00099968767093723218 -0.00099965379025499759 -0.00099966854760815001 -0.00099966318431410762 -0.00099963589571259439 -0.00099967624744381578 -0.00099967499836295793 -0.00099969112252206414
leaf_weight=23.871481016278267 22.908601135015491 9.1563460081815702 0.55202504992484946 26.628800213336945 5.5411328971385947 22.769277110695839 12.888738870620726 14.057051777839662 13.406385228037832 16.752580285072327 16.877840682864189 21.31503538787365 19.858333587646484 23.936603993177414 3.3902641385793677 1.1035615950822819 6.2812662869691911 5.7294828891754133 5.3711711019277573 3.7106745541095725 3.2237149029970196 10.855918377637865 13.307030215859411 15.025517180562018 22.09950564801693 251.03721433877945 4.2621484696865073 56.921203881502151 9.837972164154051 16.322664946317673
leaf_count=146 140 56 2 36 9 36 28 20 18 31 28 26 27 27 21 4 39 36 33 23 20 67 81 92 135 997 26 351 61 100
internal_value=-2.46385e-10 0.00189734 0.00227736 0.00248866 0.00249859 0.00230188 0.00206352 0.00263416 0.00251254 0.00229234 0.00249724 0.00270793 0.00279569 0.00283053 -0.00099966 -0.000999665 -0.000999662 -0.000999639 -0.000999613 -0.00099965 -0.00099966 -0.000999672 -0.000999677 -0.000999676 -0.000999665 -0.000999664 -0.000999672 -0.000999672 -0.000999693 -0.000999678
internal_weight=679 234.301 207.13 194.584 194.032 79.1647 35.658 114.867 65.5311 30.8096 43.5066 34.7214 49.3361 43.7949 12.5466 444.698 328.186 37.6233 11.1007 26.5227 22.812 116.512 16.5307 92.6406 290.563 252.141 27.1707 71.9467 20.6939 38.4222
internal_count=2716 531 365 288 286 128 64 158 95 51 64 44 63 54 77 2185 1468 232 69 163 140 717 101 571 1236 1001 166 443 128 235
is_linear=0
shrinkage=0.001


Tree=8
num_leaves=31
num_cat=0
split_feature=6 5 0 2 1 1 6 6 7 4 5 6 6 6 7 8 7 7 7 5 8 7 5 8 7 7 7 7 8 5
split_gain=166.891 228.626 175.441 222.379 70.3382 11.6407 3.26958 2.23268 2.86804 2.58024 4.87362 3.19556 4.93206 4.8335 3.28528 4.33507 1.97728 1.85759 1.83119 2.87198 2.00902 3.08346 2.34851 2.7571 1.7864 2.517 2.4612 5.83455 2.04917 1.96156
threshold=200.18500000000003 0.60500000000000009 1.0000000180025095e-35 1.0000000180025095e-35 1.0000000180025095e-35 1.0000000180025095e-35 102.73500000000001 109.11000000000001 684.5200000000001 1.0000000180025095e-35 0.53500000000000014 170.59000000000003 184.20500000000001 121.22500000000001 920.93500000000006 6322104000.000001 331.16000000000003 440.74000000000007 577.42500000000007 0.92500000000000016 6343963200.000001 110.38500000000001 0.93500000000000016 6349579200.000001 911.1450000000001 816.96500000000003 684.5200000000001 651.47500000000014 6335496000.000001 0.37500000000000006
decision_type=2 2 2 2 2 2 2 2 2 2 2 2 2 2 2 2 2 2 2 2 2 2 2 2 2 2 2 2 2 2
left_child=2 4 3 6 -2 18 -1 8 -8 24 16 13 -13 -12 15 -15 -11 -18 20 -20 -3 -22 23 -23 25 26 27 29 -27 -9
right_child=1 5 -4 -5 -6 -7 7 9 -10 10 11 12 -14 14 -16 -17 17 -19 19 -21 21 22 -24 -25 -26 28 -28 -29 -30 -31
leaf_value=0.00075044962148074852 0.0029822093251520624 -0.00063375272899789115 0.0029821044848375648 0.0029278557331363039 5.3021917124397943e-05 -0.00079996915386263692 -0.00083239985528759796 0.00027467111053040632 0.0002744640116141211 -0.00034121811372878676 0.001332217596520255 0.0014892365219760881 0.00015651000078672721 0.00083649229148077744 0.00093150632188403074 -0.00043248292403991006 0.0007508084850768855 -1.921580587387059e-05 -0.00037858365233651515 0.00033048332627399725 0.0001260704816366164 5.8901863787642104e-06 6.2590844523087254e-05 -0.00065587914257356651 -0.0005885005692656761 0.00086278215672733096 -0.00052225322049283133 0.0012171142437185014 1.5703057713097473e-05 -0.00019810765834574645
leaf_weight=5.3267780542373648 24.190091490745544 66.290213361382484 28.092374205589294 29.113265052437782 12.400044754147528 193.23530706763268 7.4447111487388593 10.242977946996687 3.4147244244813919 18.881842344999313 3.1984152942895916 5.7434565424919111 5.3759376257658005 3.3848671168088975 3.2184446901082984 13.153407722711561 3.5506196767091778 26.626843437552452 45.04636824131012 6.5417887568473807 9.9385942518711072 7.4178820848464957 7.0218061804771414 41.612864255905151 7.5612312555313101 4.6720278114080411 14.325130522251127 3.3644725084304801 7.346302404999733 61.265556409955025
leaf_count=33 155 191 180 185 76 288 45 63 21 115 20 36 33 21 20 80 22 163 141 25 36 26 25 119 41 29 87 21 45 374
internal_value=8.99734e-10 -0.00039702 0.000619087 0.00033924 0.00198954 -0.000628585 -2.29123e-05 -4.32285e-05 -0.000484349 -1.82674e-05 0.000114368 0.000404893 0.000844898 0.000191756 7.12631e-06 -0.000172763 -8.74176e-05 7.13837e-05 -0.000448472 -0.000288668 -0.000510793 -0.000387277 -0.000478298 -0.00055576 -0.000119635 -8.4609e-05 -0.000142493 -6.98353e-05 0.000344998 -0.000130386
internal_weight=678.998 413.695 265.303 237.211 36.5901 377.105 208.098 202.771 10.8594 191.912 83.1338 34.0745 11.1194 22.9551 19.7567 16.5383 49.0593 30.1775 183.87 51.5882 132.281 65.9911 56.0526 49.0307 108.778 101.216 89.1981 74.873 12.0183 71.5085
internal_count=2716 1082 1634 1454 231 851 1269 1236 66 1170 510 210 69 141 121 101 300 185 563 166 397 206 170 145 660 619 545 458 74 437
is_linear=0
shrinkage=0.001


Tree=9
num_leaves=31
num_cat=0
split_feature=6 2 0 5 1 6 6 7 8 6 5 6 6 7 7 7 7 6 6 8 8 5 4 8 6 5 6 8 8 6
split_gain=809.22 177.375 217.183 32.3702 68.1632 3.27445 2.18155 2.83736 2.26625 3.70763 2.48979 2.08978 3.68144 1.94473 1.92957 3.25931 2.58908 2.1188 1.90459 1.78012 3.00899 2.50809 1.72076 1.85742 1.97099 1.70603 1.64813 1.55832 2.97118 2.29069
threshold=199.17500000000004 1.0000000180025095e-35 1.0000000180025095e-35 0.60500000000000009 1.0000000180025095e-35 102.73500000000001 109.11000000000001 684.5200000000001 6327547200.000001 150.49000000000004 0.36500000000000005 137.05000000000004 129.15000000000001 63.995000000000012 113.91000000000001 515.78000000000009 658.41500000000008 171.23500000000004 184.20500000000001 6347764800.000001 6350356800.000001 0.7350000000000001 1.0000000180025095e-35 6339124800.000001 169.48500000000004 0.66500000000000015 265.56000000000006 6354849600.000001 6356318400.000001 175.40000000000001
decision_type=2 2 2 2 2 2 2 2 2 2 2 2 2 2 2 2 2 2 2 2 2 2 2 2 2 2 2 2 2 2
left_child=1 2 5 4 -2 -1 7 -7 9 10 -8 12 -12 -10 -11 17 -17 -16 -18 21 -21 22 -15 -24 -25 27 -6 29 -29 -22
right_child=3 -3 -4 -5 26 6 8 -9 13 14 11 -13 -14 19 15 16 18 -19 -20 20 25 -23 23 24 -26 -27 -28 28 -30 -31
leaf_value=0.0012427465869907868 -0.00092072847113893028 -0.0009993413464081159 -0.00099933221552784635 -0.00095043809154282872 0.0021615214388007475 0.0028168622416295118 0.0022671089908328258 0.0017175030234137007 0.0025430344921021897 0.0013915647727107243 0.0011102737052895214 0.00082702088558024242 0.0022873054938606879 0.0024406529887684479 0.0029833755149608911 0.0012538188646785905 0.0017854582972231259 0.002121588295225651 0.0026720003874427306 0.001356413940095994 0.0025516064847042079 0.0014846881554510085 0.0023303480049459233 0.0021590144483392901 0.0012670735485153413 0.0023760786274077193 0.0013445987596334031 0.00096701684269844023 0.0019391904050611636 0.0015993681894047487
leaf_weight=5.3302833437919608 25.338980078697205 27.9438516497612 27.011894702911377 380.19850486516953 9.0323575735092145 7.4811018109321576 3.4554880708456066 3.4213150590658188 8.4344232231378538 3.8876069635152843 6.6087038666009921 5.4525611847639075 4.4443398118019104 25.091210335493088 5.6681811213493365 5.0092102438211432 6.1987916976213437 5.743998259305954 3.9786404520273209 7.6092270612716666 8.6010557860136014 4.54361668229103 11.366115793585779 5.2554618865251523 4.6870106309652328 11.211961627006529 3.398961827158927 3.3762532472610465 45.640273749828339 3.576798900961875
leaf_count=33 163 180 174 865 55 45 21 21 51 24 41 34 27 152 34 31 38 35 24 47 52 28 69 32 29 68 21 21 279 22
internal_value=8.64884e-11 0.00138142 0.00166684 -0.000862724 2.02157e-05 0.00201632 0.00203686 0.00247187 0.00201188 0.00183026 0.00149523 0.00133363 0.00158355 0.00207761 0.00204963 0.00214581 0.00184236 0.00254962 0.00213203 0.00204763 0.00195461 0.00219375 0.00226319 0.00205421 0.00173854 0.00201747 0.00193816 0.00195177 0.00187223 0.00227192
internal_weight=678.998 261.029 233.086 417.969 37.7703 206.074 200.743 10.9024 189.841 50.4475 19.9611 16.5056 11.053 139.393 30.4864 26.5988 15.1866 11.4122 10.1774 130.959 80.0156 50.9434 46.3998 21.3086 9.94247 72.4063 12.4313 61.1944 49.0165 12.1779
internal_count=2716 1612 1432 1104 239 1258 1225 66 1159 309 123 102 68 850 186 162 93 69 62 799 489 310 282 130 61 442 76 374 300 74
is_linear=0
shrinkage=0.001


Tree=10
num_leaves=31
num_cat=0
split_feature=6 1 5 6 6 7 5 7 5 8 7 5 8 8 8 8 8 8 6 5 7 6 6 5 6 8 5 8 8 7
split_gain=428.155 830.162 251.265 2.49835 3.18092 2.49976 1.93402 1.81061 2.8466 1.98494 3.05294 2.32382 2.72642 1.76782 1.12206 1.5789 1.1804 1.5318 0.997089 0.974626 1.60927 0.912402 1.81764 1.00345 0.863814 0.850518 2.5172 3.65218 0.737536 0.669858
threshold=200.18500000000003 1.0000000180025095e-35 0.60500000000000009 234.38000000000002 223.43000000000004 375.12500000000006 0.75500000000000012 577.42500000000007 0.92500000000000016 6343963200.000001 110.38500000000001 0.93500000000000016 6349579200.000001 6311649600.000001 6345604800.000001 6322104000.000001 6352689600.000001 6362971200.000001 241.58000000000004 0.88500000000000012 716.3900000000001 268.9500000000001 260.77500000000003 0.85500000000000009 248.02000000000001 6359601600.000001 0.83500000000000008 6365131200.000001 6315451200.000001 283.47500000000008
decision_type=2 2 2 2 2 2 2 2 2 2 2 2 2 2 2 2 2 2 2 2 2 2 2 2 2 2 2 2 2 2
left_child=-1 2 -2 4 19 -6 -5 9 13 18 -11 12 -12 -9 15 -15 -16 -18 28 20 29 22 -8 -23 -17 -14 27 -27 -4 -3
right_child=1 3 7 6 5 -7 21 8 -10 10 11 -13 25 14 16 24 17 -19 -20 -21 -22 23 -24 -25 -26 26 -28 -29 -30 -31
leaf_value=-0.00099334747592609292 -0.00099932020059170009 -0.00063624339492287651 0.0020051094723682701 -0.0009993339650632275 6.3709868820038855e-06 -0.00063868339225587928 -0.00080281067800834027 -0.00099988829928810688 0.0016617623346498918 0.001865338211419021 0.0019849229543821775 0.0019285127599898077 0.0028254778380967386 0.0025728689685846468 0.002888222500118178 0.0022272057862220166 0.0021070944190347265 0.0026946323791133837 0.0027102390133865919 -0.00099937900031510634 -0.00035767515791555271 -0.00065922753140296414 -0.0003230266294307262 -0.00099932906882486267 0.0017124612558848287 0.0016193226227708291 0.0029214421863774077 0.0026285502101648138 0.0025241297278226463 -0.00099934837383572057
leaf_weight=264.73302920162678 24.061735644936562 8.7340032756328636 3.165983825922015 62.650100082159042 11.035318434238436 13.186418354511259 24.194261103868484 0.15541398525237937 6.5534358322620383 9.9617186486721021 7.437523901462554 7.0393351912498465 15.751167654991148 7.5448915809392956 6.5251246094703701 7.3703373223543149 9.1863173246383685 8.5837972164154035 43.165329113602638 15.236145108938215 9.8836254179477674 13.983681932091711 11.721737310290335 22.852219805121422 5.8460461497306824 5.448440998792651 10.109015136957167 10.488018929958342 20.247747749090195 12.14613117277622
leaf_count=1634 155 16 11 121 23 22 40 1 25 36 26 25 42 22 17 24 31 24 120 24 20 22 20 31 22 21 26 30 60 25
internal_value=-3.0193e-10 0.000634791 0.00204012 -0.000791165 -0.000638103 -0.000344799 -0.000870545 0.00243634 0.0022777 0.00249818 0.00237561 0.00246594 0.00254278 0.00236698 0.00237859 0.00220788 0.00252447 0.0023909 0.00262011 -0.000792545 -0.000690107 -0.000759639 -0.000646226 -0.000870219 0.00199952 0.00264204 0.00253111 0.00228351 0.00245395 -0.000847464
internal_weight=678.998 414.265 208.641 205.624 70.2216 24.2217 135.402 184.58 51.7654 132.814 66.2352 56.2735 49.2342 45.2119 45.0565 20.7613 24.2952 17.7701 66.5791 45.9999 30.7638 72.7519 35.916 36.8359 13.2164 41.7966 26.0455 15.9365 23.4137 20.8801
internal_count=2716 1082 718 364 130 45 234 563 166 397 206 170 145 141 140 68 72 55 191 85 61 113 60 53 46 119 77 51 71 41
is_linear=0
shrinkage=0.001


Tree=11
num_leaves=31
num_cat=0
split_feature=1 6 5 8 6 6 5 5 5 8 7 6 8 7 6 5 4 6 6 7 6 5 8 8 3 8 7 8 6 8
split_gain=1284.5 256.889 142.775 6.71138 5.14157 3.66401 8.2761 2.2406 2.80167 2.56199 1.86777 1.00973 0.470406 0.345467 5.81969e-08 3.03689e-08 9.09595e-08 4.2852e-08 1.47125e-07 6.52215e-08 6.54655e-08 3.55843e-08 3.22809e-08 2.90161e-08 2.84414e-08 3.0468e-08 2.57322e-08 2.38939e-08 2.37486e-08 1.90366e-08
threshold=1.0000000180025095e-35 199.61500000000004 0.6150000000000001 6311649600.000001 243.52500000000001 223.43000000000004 0.80500000000000016 0.75500000000000012 0.89500000000000013 6335236800.000001 681.47500000000002 270.70000000000005 6320116800.000001 457.88000000000005 265.56000000000006 0.53500000000000014 1.0000000180025095e-35 170.59000000000003 184.20500000000001 920.93500000000006 121.22500000000001 0.35500000000000004 6321844800.000001 6325646400.000001 1.0000000180025095e-35 6311649600.000001 833.25000000000011 6339124800.000001 150.49000000000004 6347764800.000001
decision_type=2 2 2 2 2 2 2 2 2 2 2 2 2 2 2 2 2 2 2 2 2 2 2 2 2 2 2 2 2 2
left_child=15 26 14 -4 5 10 -7 12 9 -9 -5 -10 -6 -14 -3 21 24 19 -19 20 -18 -1 -22 28 25 -17 -2 -25 -23 -26
right_child=1 2 3 4 7 6 -8 8 11 -11 -12 -13 13 -15 -16 16 17 18 -20 -21 22 23 -24 27 29 -27 -28 -29 -30 -31
leaf_value=-0.00099930975500392579 -0.0009993570617624454 -0.00099927986542066205 -0.00099993504909192624 0.0026553698118166416 0.0025134608815370902 0.0024206149887550112 0.0014184550342318972 0.002601015434285355 0.0024855741491417987 0.0020225145582740641 0.0022305007089792493 0.0028355419617557293 0.0027250180847154439 0.0029032597390885374 -0.00099943328032559464 -0.00099949336112178195 -0.00099923401876065264 -0.00099911540280702305 -0.00099934586064026653 -0.00099917794766748568 -0.00099926417417732743 -0.00099941833556811796 -0.00099937574628763655 -0.00099930809125675711 -0.00099933760402674777 -0.00099932679495230736 -0.0009992724108566324 -0.00099935293958450418 -0.00099935047951182259 -0.00099938264813007245
leaf_weight=23.854962095618248 22.893835619091991 9.1497344374656659 0.5519891083240499 26.67582368850708 5.5506273359060279 22.80563673377037 12.902626141905783 14.080960452556612 13.428331702947615 16.776144430041313 16.90339258313179 21.354981899261475 19.894454956054688 23.982272177934647 3.3883385807275763 1.1030013114213932 6.2764411121606889 5.7243987917900068 5.3676488995552063 3.7076151818037024 3.2213365435600307 10.849589958786966 13.298703014850615 15.01509380340576 22.084829419851303 250.86777812242508 4.2590390592813483 56.88428159058094 9.8315654993057233 16.312564447522163
leaf_count=146 140 56 2 36 9 36 28 20 18 31 28 26 27 27 21 4 39 36 33 23 20 67 81 92 135 997 26 351 61 100
internal_value=-6.74592e-10 0.00189303 0.00227162 0.00248203 0.00249192 0.00229598 0.0020585 0.00262694 0.00250585 0.0022865 0.00249057 0.00270043 0.00278774 0.00282244 -0.000999321 -0.00099933 -0.000999325 -0.000999279 -0.000999227 -0.000999301 -0.000999321 -0.000999344 -0.000999354 -0.000999353 -0.000999331 -0.000999328 -0.000999344 -0.000999344 -0.000999386 -0.000999357
internal_weight=678.998 234.598 207.445 194.907 194.355 79.2875 35.7083 115.068 65.6404 30.8571 43.5792 34.7833 49.4274 43.8767 12.5381 444.4 327.964 37.5961 11.092 26.5041 22.7965 116.435 16.52 92.5805 290.368 251.971 27.1529 71.8994 20.6812 38.3974
internal_count=2716 531 365 288 286 128 64 158 95 51 64 44 63 54 77 2185 1468 232 69 163 140 717 101 571 1236 1001 166 443 128 235
is_linear=0
shrinkage=0.001


Tree=12
num_leaves=31
num_cat=0
split_feature=6 5 0 2 1 1 6 6 7 4 5 6 6 6 7 8 7 7 7 5 8 7 5 8 7 7 7 7 8 5
split_gain=166.531 228.029 174.634 221.453 69.9637 11.6329 3.26159 2.22899 2.8643 2.57568 4.86548 3.18767 4.91854 4.82247 3.27902 4.32691 1.97445 1.85378 1.82907 2.8669 2.00708 3.07884 2.34535 2.75383 1.78426 2.51299 2.45827 5.8224 2.04435 1.95876
threshold=200.18500000000003 0.60500000000000009 1.0000000180025095e-35 1.0000000180025095e-35 1.0000000180025095e-35 1.0000000180025095e-35 102.73500000000001 109.11000000000001 684.5200000000001 1.0000000180025095e-35 0.53500000000000014 170.59000000000003 184.20500000000001 121.22500000000001 920.93500000000006 6322104000.000001 331.16000000000003 440.74000000000007 577.42500000000007 0.92500000000000016 6343963200.000001 110.38500000000001 0.93500000000000016 6349579200.000001 911.1450000000001 816.96500000000003 684.5200000000001 651.47500000000014 6335496000.000001 0.37500000000000006
decision_type=2 2 2 2 2 2 2 2 2 2 2 2 2 2 2 2 2 2 2 2 2 2 2 2 2 2 2 2 2 2
left_child=2 4 3 6 -2 18 -1 8 -8 24 16 13 -13 -12 15 -15 -11 -18 20 -20 -3 -22 23 -23 25 26 27 29 -27 -9
right_child=1 5 -4 -5 -6 -7 7 9 -10 10 11 12 -14 14 -16 -17 17 -19 19 -21 21 22 -24 -25 -26 28 -28 -29 -30 -31
leaf_value=0.00074932802147418957 0.0029733977642313228 -0.00063337868402463932 0.0029732409861863243 0.0029192179403054533 5.3000902908405046e-05 -0.0007996008595779091 -0.00083202849002729192 0.00027445329771938378 0.00027414284989590274 -0.00034102628926383253 0.0013303349897649999 0.0014869297469745468 0.00015631916675565971 0.00083534731050204352 0.00093037665679813173 -0.00043221914000185382 0.00074986573518165639 -1.9226038727724324e-05 -0.00037828997514691203 0.00033009659586662144 0.00012594878329031214 5.8982611956240201e-06 6.2540123865692288e-05 -0.00065550224920195169 -0.00058820278656980844 0.00086169569364367266 -0.00052197705256417802 0.0012154126963817733 1.5729248557751212e-05 -0.00019796716433115964
leaf_weight=5.3294309079647055 24.237620085477829 66.261523902416229 28.147897511720657 29.170025795698166 12.400212049484251 193.13325543701649 7.4405521899461728 10.24423438310623 3.4153421670198441 18.878713965415955 3.2005398273468044 5.7478856742382032 5.3765564560890198 3.3865245729684892 3.2199390083551398 13.1501537412405 3.5521057993173626 26.627026304602623 45.034557655453682 6.543170064687728 9.9393382966518384 7.4178424477577201 7.0220341682434073 41.594237923622131 7.5587566047906867 4.6741746068000776 14.321078374981878 3.3665778785943976 7.3461753278970718 61.258940234780312
leaf_count=33 155 191 180 185 76 288 45 63 21 115 20 36 33 21 20 80 22 163 141 25 36 26 25 119 41 29 87 21 45 374
internal_value=1.68252e-09 -0.000396726 0.000618209 0.00033882 0.00198498 -0.000628219 -2.28913e-05 -4.31881e-05 -0.000484019 -1.82513e-05 0.000114259 0.000404496 0.000843832 0.000191606 7.13341e-06 -0.000172636 -8.73758e-05 7.12966e-05 -0.000448148 -0.000288424 -0.000510447 -0.000386979 -0.000477962 -0.000555401 -0.000119537 -8.45353e-05 -0.000142382 -6.97733e-05 0.000344688 -0.000130284
internal_weight=678.996 413.584 265.413 237.265 36.6378 376.946 208.095 202.765 10.8559 191.909 83.1394 34.0816 11.1244 22.9572 19.7566 16.5367 49.0578 30.1791 183.813 51.5777 132.235 65.9735 56.0341 49.0121 108.77 101.211 89.1908 74.8698 12.0203 71.5032
internal_count=2716 1082 1634 1454 231 851 1269 1236 66 1170 510 210 69 141 121 101 300 185 563 166 397 206 170 145 660 619 545 458 74 437
is_linear=0
shrinkage=0.001


Tree=13
num_leaves=31
num_cat=0
split_feature=6 2 0 5 1 6 6 7 8 6 5 6 6 7 7 7 7 6 6 8 8 5 4 8 6 5 6 8 8 6
split_gain=807.326 176.782 216.363 32.3446 67.9826 3.25646 2.16777 2.81857 2.25436 3.69046 2.47879 2.08148 3.66591 1.93425 1.9203 3.24246 2.57699 2.10614 1.89381 1.7717 2.99587 2.49683 1.71036 1.84882 1.96163 1.69702 1.6411 1.55079 2.95818 2.27836
threshold=199.17500000000004 1.0000000180025095e-35 1.0000000180025095e-35 0.60500000000000009 1.0000000180025095e-35 102.73500000000001 109.11000000000001 684.5200000000001 6327547200.000001 150.49000000000004 0.36500000000000005 137.05000000000004 129.15000000000001 63.995000000000012 113.91000000000001 515.78000000000009 658.41500000000008 171.23500000000004 184.20500000000001 6347764800.000001 6350356800.000001 0.7350000000000001 1.0000000180025095e-35 6339124800.000001 169.48500000000004 0.66500000000000015 265.56000000000006 6354849600.000001 6356318400.000001 175.40000000000001
decision_type=2 2 2 2 2 2 2 2 2 2 2 2 2 2 2 2 2 2 2 2 2 2 2 2 2 2 2 2 2 2
left_child=1 2 5 4 -2 -1 7 -7 9 10 -8 12 -12 -10 -11 17 -17 -16 -18 21 -21 22 -15 -24 -25 27 -6 29 -29 -22
right_child=3 -3 -4 -5 26 6 8 -9 13 14 11 -13 -14 19 15 16 18 -19 -20 20 25 -23 23 24 -26 -27 -28 28 -30 -31
leaf_value=0.0012404809057003727 -0.00092037449928223389 -0.00099901251847265681 -0.00099899885189260991 -0.00095009114736642117 0.0021565014874189211 0.0028087947125007098 0.0022616426162484914 0.0017138306364562225 0.0025364887120339938 0.0013886791474151301 0.0011079645788831861 0.0008254027171103091 0.002281791309829354 0.0024344821010125633 0.0029751385898972617 0.0012512686247931123 0.0017815172033884719 0.002116617463189697 0.0026648811659218804 0.0013534805547398079 0.0025450480424055173 0.0014813949673466329 0.0023247626778541198 0.0021538364812564888 0.0012645279395589678 0.0023701262481298719 0.0013417711097557156 0.00096506288503234541 0.0019347070782562484 0.0015959687444510292
leaf_weight=5.3346826136112204 25.323412120342255 27.925373911857605 26.993783980607986 379.95705063641071 9.0447314977645856 7.4950740039348585 3.4604985564947155 3.4252167940139771 8.448069676756857 3.891482666134837 6.614543944597246 5.4563489705324164 4.4508057683706284 25.130474671721458 5.6785895526409167 5.0138444006443015 6.2062207758426648 5.7518758475780487 3.9854253828525543 7.6170333474874488 8.6149693280458433 4.5486249327659598 11.382677614688875 5.2628930956125242 4.6913182586431503 11.229166805744169 3.4023371189832678 3.378924533724784 45.699719309806824 3.5807183235883704
leaf_count=33 163 180 174 865 55 45 21 21 51 24 41 34 27 152 34 31 38 35 24 47 52 28 69 32 29 68 21 21 279 22
internal_value=1.67732e-10 0.00137878 0.00166334 -0.000862358 2.02039e-05 0.00201162 0.00203208 0.00246535 0.00200719 0.00182616 0.00149206 0.00133087 0.00158011 0.0020727 0.00204485 0.00214071 0.00183821 0.00254313 0.00212696 0.00204282 0.00195007 0.00218849 0.0022577 0.00204949 0.00173471 0.00201275 0.0019338 0.00194725 0.00186795 0.00226639
internal_weight=678.996 261.268 233.343 417.728 37.7705 206.349 201.015 10.9203 190.094 50.5096 19.9822 16.5217 11.0653 139.585 30.5274 26.636 15.2055 11.4305 10.1916 131.137 80.1205 51.016 46.4674 21.3369 9.95421 72.5035 12.4471 61.2743 49.0786 12.1957
internal_count=2716 1612 1432 1104 239 1258 1225 66 1159 309 123 102 68 850 186 162 93 69 62 799 489 310 282 130 61 442 76 374 300 74
is_linear=0
shrinkage=0.001


Tree=14
num_leaves=31
num_cat=0
split_feature=6 1 5 6 6 7 5 7 5 8 7 5 8 8 8 8 8 8 6 5 7 6 6 5 6 8 5 8 8 7
split_gain=427.404 827.485 250.184 2.4973 3.17837 2.49718 1.93339 1.79839 2.82907 1.97117 3.03334 2.30856 2.7081 1.7612 1.116 1.57064 1.17363 1.52348 0.991339 0.974561 1.60825 0.91182 1.81686 1.00305 0.859649 0.84552 2.50273 3.63335 0.733573 0.669804
threshold=200.18500000000003 1.0000000180025095e-35 0.60500000000000009 234.38000000000002 223.43000000000004 375.12500000000006 0.75500000000000012 577.42500000000007 0.92500000000000016 6343963200.000001 110.38500000000001 0.93500000000000016 6349579200.000001 6311649600.000001 6345604800.000001 6322104000.000001 6352689600.000001 6362971200.000001 241.58000000000004 0.88500000000000012 716.3900000000001 268.9500000000001 260.77500000000003 0.85500000000000009 248.02000000000001 6359601600.000001 0.83500000000000008 6365131200.000001 6315451200.000001 283.47500000000008
decision_type=2 2 2 2 2 2 2 2 2 2 2 2 2 2 2 2 2 2 2 2 2 2 2 2 2 2 2 2 2 2
left_child=-1 2 -2 4 19 -6 -5 9 13 18 -11 12 -12 -9 15 -15 -16 -18 28 20 29 22 -8 -23 -17 -14 27 -27 -4 -3
right_child=1 3 7 6 5 -7 21 8 -10 10 11 -13 25 14 16 24 17 -19 -20 -21 -22 23 -24 -25 -26 26 -28 -29 -30 -31
leaf_value=-0.00099301425280905057 -0.00099898078751029656 -0.0006358325118979572 0.0020001054243722937 -0.00099900160305121423 6.4375152652317156e-06 -0.00063834848153294379 -0.00080247938797779143 -0.00099983228632952344 0.0016582928092257157 0.0018611909483828854 0.0019803520723905561 0.0019241441163683956 0.002817532304430707 0.0025660822905089449 0.0028802267841587436 0.0022216321042144347 0.0021019149933672104 0.00268739021525072 0.0027027601065118183 -0.00099906899216975552 -0.00035736241947532856 -0.00065887228332292839 -0.00032271895053849361 -0.00099899423228025841 0.0017084768386800109 0.0016154543066320905 0.0029131110211550034 0.0026213677249209907 0.0025173514493957499 -0.00099902310268404544
leaf_weight=264.55772513151169 24.045313820242882 8.7298377603292519 3.1704997569322613 62.608217090368271 11.034830555319788 13.181279584765432 24.182723388075829 0.15539658069610496 6.5606204569339743 9.9739843904972059 7.4472710490226737 7.0482969880104056 15.780084252357481 7.5574553459882763 6.537007316946986 7.381350249052046 9.1994967758655566 8.5986078977584821 43.241958856582642 15.226649910211561 9.8809165656566602 13.977759033441542 11.718670040369032 22.836829125881195 5.853290319442749 5.4551908671855953 10.128052428364752 10.506252229213713 20.281828567385674 12.138187646865843
leaf_count=1634 155 16 11 121 23 22 40 1 25 36 26 25 42 22 17 24 31 24 120 24 20 22 20 31 22 21 26 30 60 25
internal_value=-5.60542e-10 0.000633893 0.00203535 -0.000790795 -0.000637736 -0.000344532 -0.000870185 0.00243 0.00227201 0.00249157 0.00236952 0.00245947 0.00253598 0.00236093 0.0023725 0.00220237 0.00251786 0.00238477 0.00261297 -0.000792172 -0.000689718 -0.000759275 -0.000645879 -0.000869857 0.00199468 0.00263481 0.00252429 0.00227757 0.00244743 -0.000847088
internal_weight=678.996 414.438 208.922 205.516 70.1917 24.2161 135.324 184.877 51.8432 133.033 66.3391 56.3651 49.3169 45.2826 45.1272 20.7921 24.3351 17.7981 66.6943 45.9756 30.7489 72.716 35.9014 36.8146 13.2346 41.8696 26.0895 15.9614 23.4523 20.868
internal_count=2716 1082 718 364 130 45 234 563 166 397 206 170 145 141 140 68 72 55 191 85 61 113 60 53 46 119 77 51 71 41
is_linear=0
shrinkage=0.001


Tree=15
num_leaves=31
num_cat=0
split_feature=1 6 5 8 6 6 5 5 5 8 7 6 8 7 6 5 4 6 6 7 6 5 8 8 3 8 7 8 6 8
split_gain=1281.16 255.837 142.13 6.6854 5.1092 3.6419 8.23535 2.22487 2.78406 2.54821 1.85601 1.0023 0.467603 0.343354 1.3036e-07 6.84023e-08 2.02951e-07 9.57432e-08 3.29449e-07 1.45932e-07 1.46523e-07 7.95498e-08 7.21151e-08 6.51412e-08 6.41118e-08 6.84149e-08 5.7612e-08 5.3526e-08 5.33599e-08 4.27154e-08
threshold=1.0000000180025095e-35 199.61500000000004 0.6150000000000001 6311649600.000001 243.52500000000001 223.43000000000004 0.80500000000000016 0.75500000000000012 0.89500000000000013 6335236800.000001 681.47500000000002 270.70000000000005 6320116800.000001 457.88000000000005 265.56000000000006 0.53500000000000014 1.0000000180025095e-35 170.59000000000003 184.20500000000001 920.93500000000006 121.22500000000001 0.35500000000000004 6321844800.000001 6325646400.000001 1.0000000180025095e-35 6311649600.000001 833.25000000000011 6339124800.000001 150.49000000000004 6347764800.000001
decision_type=2 2 2 2 2 2 2 2 2 2 2 2 2 2 2 2 2 2 2 2 2 2 2 2 2 2 2 2 2 2
left_child=15 26 14 -4 5 10 -7 12 9 -9 -5 -10 -6 -14 -3 21 24 19 -19 20 -18 -1 -22 28 25 -17 -2 -25 -23 -26
right_child=1 2 3 4 7 6 -8 8 11 -11 -12 -13 13 -15 -16 16 17 18 -20 -21 22 23 -24 27 29 -27 -28 -29 -30 -31
leaf_value=-0.00099896548668699896 -0.00099903627238210582 -0.00099892071430406548 -0.00099990245929200785 0.002648062654832408 0.0025066115221471126 0.0024143777745708576 0.0014153175156684391 0.0025940688135546405 0.0024790749002132993 0.0020175753692025875 0.0022248726828908629 0.0028274534205459233 0.0027173660912540474 0.0028948977955939935 -0.00099915039421655553 -0.00099924049334641296 -0.00099885208640219264 -0.00099867460961042135 -0.00099901960222191629 -0.00099876819998341408 -0.00099889734140479604 -0.0009991281099049525 -0.00099906416270365483 -0.00099896291280058527 -0.00099900712959960242 -0.00099899083249791886 -0.0009989095641472507 -0.00099903006087352837 -0.00099902636533118227 -0.0009990746249427967
leaf_weight=23.83843982219696 22.879066869616512 9.1431218981742841 0.55195309221744437 26.722701638936996 5.5600933581590644 22.841891080141068 12.916482970118521 14.104796305298807 13.450213536620138 16.799646928906441 16.928873598575592 21.394798472523689 19.93046247959137 24.02778859436512 3.3864131569862357 1.102440834045409 6.2716153264045778 5.719314903020857 5.3641262054443359 3.7045558840036383 3.2189581692218807 10.843260154128076 13.290372982621191 15.004667431116102 22.07014961540699 250.69827207922935 4.2559290677309027 56.847349733114243 9.8251568675041181 16.302461117506027
leaf_count=146 140 56 2 36 9 36 28 20 18 31 28 26 27 27 21 4 39 36 33 23 20 67 81 92 135 997 26 351 61 100
internal_value=-1.29619e-09 0.00188874 0.00226591 0.00247544 0.00248529 0.00229011 0.0020535 0.00261976 0.00249919 0.00228069 0.00248394 0.00269298 0.00277985 0.00281441 -0.000998983 -0.000998996 -0.000998989 -0.00099892 -0.000998842 -0.000998952 -0.000998982 -0.000999017 -0.000999032 -0.00099903 -0.000998998 -0.000998992 -0.000999016 -0.000999016 -0.00099908 -0.000999036
internal_weight=678.995 234.894 207.759 195.23 194.678 79.4099 35.7584 115.268 65.7495 30.9044 43.6516 34.845 49.5183 43.9583 12.5295 444.101 327.742 37.5689 11.0834 26.4855 22.7809 116.359 16.5093 92.5204 290.173 251.801 27.135 71.852 20.6684 38.3726
internal_count=2716 531 365 288 286 128 64 158 95 51 64 44 63 54 77 2185 1468 232 69 163 140 717 101 571 1236 1001 166 443 128 235
is_linear=0
shrinkage=0.001


Tree=16
num_leaves=31
num_cat=0
split_feature=6 5 0 2 1 1 6 6 7 4 5 6 6 6 7 8 7 7 7 5 8 7 5 8 7 7 7 7 8 5
split_gain=166.171 227.434 173.832 220.534 69.5923 11.6252 3.25363 2.2253 2.86057 2.57113 4.85736 3.1798 4.90507 4.81148 3.27278 4.31878 1.97162 1.84998 1.82696 2.86183 2.00513 3.07423 2.3422 2.75056 1.78212 2.509 2.45535 5.81028 2.03954 1.95597
threshold=200.18500000000003 0.60500000000000009 1.0000000180025095e-35 1.0000000180025095e-35 1.0000000180025095e-35 1.0000000180025095e-35 102.73500000000001 109.11000000000001 684.5200000000001 1.0000000180025095e-35 0.53500000000000014 170.59000000000003 184.20500000000001 121.22500000000001 920.93500000000006 6322104000.000001 331.16000000000003 440.74000000000007 577.42500000000007 0.92500000000000016 6343963200.000001 110.38500000000001 0.93500000000000016 6349579200.000001 911.1450000000001 816.96500000000003 684.5200000000001 651.47500000000014 6335496000.000001 0.37500000000000006
decision_type=2 2 2 2 2 2 2 2 2 2 2 2 2 2 2 2 2 2 2 2 2 2 2 2 2 2 2 2 2 2
left_child=2 4 3 6 -2 18 -1 8 -8 24 16 13 -13 -12 15 -15 -11 -18 20 -20 -3 -22 23 -23 25 26 27 29 -27 -9
right_child=1 5 -4 -5 -6 -7 7 9 -10 10 11 12 -14 14 -16 -17 17 -19 19 -21 21 22 -24 -25 -26 28 -28 -29 -30 -31
leaf_value=0.00074820919152154722 0.0029646410079852089 -0.00063300451779235657 0.0029644330741024358 0.0029106333881105209 5.2980337657397645e-05 -0.00079923264820304981 -0.00083165714868286666 0.00027423637360506444 0.0002738225416602136 -0.00034083420476722172 0.0013284582759130166 0.001484630462654131 0.00015612898851261652 0.00083420521566707803 0.00092925002418629235 -0.00043195509152024807 0.00074892531601108666 -1.923582174356151e-05 -0.0003779960392518925 0.00032971092687140947 0.00012582769376797155 5.9067720960723548e-06 6.2489859543058776e-05 -0.00065512526288034445 -0.00058790483067090846 0.00086061200905996769 -0.0005217006804219274 0.0012137160786599623 1.5755942618480725e-05 -0.00019782632703044693
leaf_weight=5.3320783674716941 24.28499162197113 66.232814967632294 28.203233122825623 29.226600229740143 12.400375366210936 193.03116109967232 7.4363908618688566 10.245486021041868 3.4159583300352097 18.875580638647079 3.2026594281196621 5.7523044645786268 5.3771731108427048 3.3881786614656511 3.2214299589395514 13.146896451711653 3.5535888820886639 26.627201095223427 45.022735878825188 6.5445478260517111 9.9400783181190473 7.4178001880645743 7.0222598910331717 41.575598105788231 7.5562800765037528 4.6763169020414335 14.317022800445555 3.3686786741018286 7.3460457623004913 61.252305254340172
leaf_count=33 155 191 180 185 76 288 45 63 21 115 20 36 33 21 20 80 22 163 141 25 36 26 25 119 41 29 87 21 45 374
internal_value=2.69382e-09 -0.000396432 0.000617334 0.000338402 0.00198044 -0.000627853 -2.28698e-05 -4.31473e-05 -0.000483689 -1.82346e-05 0.00011415 0.000404101 0.000842769 0.000191456 7.14101e-06 -0.000172508 -8.73335e-05 7.12101e-05 -0.000447823 -0.000288179 -0.000510101 -0.000386681 -0.000477627 -0.000555042 -0.000119438 -8.44613e-05 -0.000142271 -6.9711e-05 0.000344378 -0.000130181
internal_weight=678.994 413.472 265.521 237.318 36.6854 376.787 208.092 202.759 10.8523 191.907 83.145 34.0886 11.1295 22.9592 19.7565 16.5351 49.0564 30.1808 183.756 51.5673 132.189 65.9557 56.0157 48.9934 108.762 101.206 89.1835 74.8665 12.0224 71.4978
internal_count=2716 1082 1634 1454 231 851 1269 1236 66 1170 510 210 69 141 121 101 300 185 563 166 397 206 170 145 660 619 545 458 74 437
is_linear=0
shrinkage=0.001


Tree=17
num_leaves=31
num_cat=0
split_feature=6 2 0 5 1 6 6 7 8 6 5 6 6 7 7 7 7 6 6 8 8 5 4 8 6 5 6 8 8 6
split_gain=805.438 176.192 215.547 32.319 67.8027 3.23861 2.15412 2.79998 2.24257 3.67342 2.46788 2.07323 3.65049 1.92387 1.9111 3.22575 2.56498 2.09362 1.88313 1.76336 2.98286 2.48565 1.70006 1.8403 1.95235 1.68809 1.63411 1.54333 2.94527 2.26614
threshold=199.17500000000004 1.0000000180025095e-35 1.0000000180025095e-35 0.60500000000000009 1.0000000180025095e-35 102.73500000000001 109.11000000000001 684.5200000000001 6327547200.000001 150.49000000000004 0.36500000000000005 137.05000000000004 129.15000000000001 63.995000000000012 113.91000000000001 515.78000000000009 658.41500000000008 171.23500000000004 184.20500000000001 6347764800.000001 6350356800.000001 0.7350000000000001 1.0000000180025095e-35 6339124800.000001 169.48500000000004 0.66500000000000015 265.56000000000006 6354849600.000001 6356318400.000001 175.40000000000001
decision_type=2 2 2 2 2 2 2 2 2 2 2 2 2 2 2 2 2 2 2 2 2 2 2 2 2 2 2 2 2 2
left_child=1 2 5 4 -2 -1 7 -7 9 10 -8 12 -12 -10 -11 17 -17 -16 -18 21 -21 22 -15 -24 -25 27 -6 29 -29 -22
right_child=3 -3 -4 -5 26 6 8 -9 13 14 11 -13 -14 19 15 16 18 -19 -20 20 25 -23 23 24 -26 -27 -28 28 -30 -31
leaf_value=0.0012382222322895409 -0.00092002071526947951 -0.00099868402869885894 -0.0009986658090525831 -0.00094974453443015419 0.0021515043095575821 0.0028007751205926202 0.002256202535211734 0.0017101724125126818 0.0025299777100912919 0.0013858034974288018 0.0011056623887110428 0.0008237887089306492 0.0022763038307149412 0.0024283429328107323 0.0029669512634846675 0.0012487265938000843 0.0017775919298851262 0.0021116692605463896 0.002657801350472369 0.0013505571124661912 0.0025385244006109783 0.0014781135163445783 0.0023192047243670204 0.0021486825601501358 0.0012619904496703003 0.0023642037768971877 0.0013389530277695418 0.00096311437672397607 0.0019302429440038529 0.0015925819578545006
leaf_weight=5.3390725553035727 25.307834595441818 27.906882762908936 26.975662887096405 379.7155075520277 9.05707238614559 7.5090014338493329 3.4654949158430126 3.4291090220212936 8.461674749851225 3.8953497707843807 6.6203722208738345 5.4601296335458747 4.4572534114122391 25.169622868299484 5.6889632344245928 5.0184687674045554 6.2136315107345563 5.7597324550151825 3.9921893775463104 7.624822571873664 8.6288408786058408 4.553621992468833 11.399191588163378 5.2703040391206724 4.6956166326999664 11.24632255733013 3.4057050347328177 3.3815906047821036 45.7590122371912 3.5846285223960868
leaf_count=33 163 180 174 865 55 45 21 21 51 24 41 34 27 152 34 31 38 35 24 47 52 28 69 32 29 68 21 21 279 22
internal_value=2.80075e-10 0.00137614 0.00165985 -0.000861993 2.01923e-05 0.00200693 0.00202732 0.00245887 0.00200252 0.00182207 0.0014889 0.00132811 0.00157669 0.00206781 0.00204009 0.00213564 0.00183407 0.00253667 0.0021219 0.00203803 0.00194555 0.00218324 0.00225224 0.00204479 0.0017309 0.00200804 0.00192946 0.00194276 0.00186369 0.00226089
internal_weight=678.993 261.507 233.6 417.486 37.7706 206.624 201.285 10.9381 190.347 50.5716 20.0033 16.5378 11.0776 139.775 30.5683 26.673 15.2243 11.4487 10.2058 131.314 80.2252 51.0884 46.5347 21.3651 9.96592 72.6004 12.4628 61.3541 49.1406 12.2135
internal_count=2716 1612 1432 1104 239 1258 1225 66 1159 309 123 102 68 850 186 162 93 69 62 799 489 310 282 130 61 442 76 374 300 74
is_linear=0
shrinkage=0.001


Tree=18
num_leaves=31
num_cat=0
split_feature=6 1 5 6 6 7 5 7 5 8 7 5 8 8 8 8 8 8 6 5 7 6 6 5 6 8 5 8 8 7
split_gain=426.655 824.821 249.11 2.49625 3.17583 2.4946 1.93277 1.78629 2.81171 1.95755 3.01394 2.29344 2.68996 1.75464 1.11001 1.56245 1.16694 1.51523 0.985651 0.974497 1.60723 0.91124 1.81608 1.00265 0.855521 0.840575 2.48842 3.61469 0.729648 0.669752
threshold=200.18500000000003 1.0000000180025095e-35 0.60500000000000009 234.38000000000002 223.43000000000004 375.12500000000006 0.75500000000000012 577.42500000000007 0.92500000000000016 6343963200.000001 110.38500000000001 0.93500000000000016 6349579200.000001 6311649600.000001 6345604800.000001 6322104000.000001 6352689600.000001 6362971200.000001 241.58000000000004 0.88500000000000012 716.3900000000001 268.9500000000001 260.77500000000003 0.85500000000000009 248.02000000000001 6359601600.000001 0.83500000000000008 6365131200.000001 6315451200.000001 283.47500000000008
decision_type=2 2 2 2 2 2 2 2 2 2 2 2 2 2 2 2 2 2 2 2 2 2 2 2 2 2 2 2 2 2
left_child=-1 2 -2 4 19 -6 -5 9 13 18 -11 12 -12 -9 15 -15 -16 -18 28 20 29 22 -8 -23 -17 -14 27 -27 -4 -3
right_child=1 3 7 6 5 -7 21 8 -10 10 11 -13 25 14 16 24 17 -19 -20 -21 -22 23 -24 -25 -26 26 -28 -29 -30 -31
leaf_value=-0.00099268149633841311 -0.00099864181028906087 -0.00063542157717891604 0.0019951238344812941 -0.00099866958549218597 6.5043857832728273e-06 -0.00063801357611546251 -0.00080214817379112237 -0.00099977635668155513 0.0016548364290108577 0.0018570606913113975 0.0019758010901625802 0.0019197941810743322 0.0028096335859886519 0.0025593321401088981 0.0028722784990774888 0.002216085469993159 0.0020967595400099384 0.0026801888302582367 0.00269532362264007 -0.00099875930378215882 -0.00035704949140193836 -0.00065851693944287803 -0.0003224111017339587 -0.00099865978005672651 0.0017045082969261768 0.0016116011574547784 0.0029048302966216961 0.0026142254540620635 0.0025106094921575135 -0.00099869827360740053
leaf_weight=264.38236773014069 24.028880447149277 8.7256707102060371 3.1750039011240032 62.566318720579147 11.034340396523477 13.1761387437582 24.171181157231331 0.15537914633750816 6.5677885115146628 9.9862198233604413 7.4569927453994742 7.0572360455989829 15.80890768766403 7.569981217384341 6.5488514304161098 7.3923322409391385 9.212641119956972 8.613372325897215 43.318346709012985 15.217150151729582 9.8782066702842695 13.971833541989325 11.715601056814192 22.821430310606956 5.8605170249938965 5.4619247317314175 10.147026896476744 10.524429738521574 20.315809026360512 12.130240246653555
leaf_count=1634 155 16 11 121 23 22 40 1 25 36 26 25 42 22 17 24 31 24 120 24 20 22 20 31 22 21 26 30 60 25
internal_value=-8.89669e-10 0.000632997 0.00203061 -0.000790425 -0.00063737 -0.000344263 -0.000869825 0.0024237 0.00226635 0.00248501 0.00236347 0.00245304 0.00252922 0.00235491 0.00236644 0.00219689 0.00251129 0.00237867 0.00260588 -0.0007918 -0.00068933 -0.00075891 -0.000645533 -0.000869494 0.00198986 0.00262762 0.00251751 0.00227167 0.00244094 -0.000846711
internal_weight=678.992 414.61 209.202 205.408 70.1617 24.2105 135.246 185.173 51.9209 133.252 66.4427 56.4565 49.3993 45.3531 45.1977 20.8228 24.3749 17.826 66.8092 45.9513 30.7341 72.68 35.8868 36.7933 13.2528 41.9423 26.1334 15.9864 23.4908 20.8559
internal_count=2716 1082 718 364 130 45 234 563 166 397 206 170 145 141 140 68 72 55 191 85 61 113 60 53 46 119 77 51 71 41
is_linear=0
shrinkage=0.001


Tree=19
num_leaves=31
num_cat=0
split_feature=1 6 5 8 6 6 5 5 5 8 7 6 8 7 6 5 4 6 6 7 6 5 8 8 3 8 7 8 6 8
split_gain=1277.83 254.791 141.49 6.6596 5.07718 3.62001 8.19495 2.20931 2.76664 2.53456 1.84437 0.994959 0.464832 0.341265 2.31035e-07 1.21717e-07 3.57739e-07 1.69079e-07 5.82833e-07 2.58008e-07 2.59224e-07 1.407e-07 1.27371e-07 1.15392e-07 1.14136e-07 1.21382e-07 1.0198e-07 9.48808e-08 9.47154e-08 7.56786e-08
threshold=1.0000000180025095e-35 199.61500000000004 0.6150000000000001 6311649600.000001 243.52500000000001 223.43000000000004 0.80500000000000016 0.75500000000000012 0.89500000000000013 6335236800.000001 681.47500000000002 270.70000000000005 6320116800.000001 457.88000000000005 265.56000000000006 0.53500000000000014 1.0000000180025095e-35 170.59000000000003 184.20500000000001 920.93500000000006 121.22500000000001 0.35500000000000004 6321844800.000001 6325646400.000001 1.0000000180025095e-35 6311649600.000001 833.25000000000011 6339124800.000001 150.49000000000004 6347764800.000001
decision_type=2 2 2 2 2 2 2 2 2 2 2 2 2 2 2 2 2 2 2 2 2 2 2 2 2 2 2 2 2 2
left_child=15 26 14 -4 5 10 -7 12 9 -9 -5 -10 -6 -14 -3 21 24 19 -19 20 -18 -1 -22 28 25 -17 -2 -25 -23 -26
right_child=1 2 3 4 7 6 -8 8 11 -11 -12 -13 13 -15 -16 16 17 18 -20 -21 22 23 -24 27 29 -27 -28 -29 -30 -31
leaf_value=-0.00099862174650040391 -0.00099871595535717234 -0.00099856215879315477 -0.00099986975723250328 0.0026407964943792389 0.0024997990902719332 0.0024081727189406493 0.0014121909375636825 0.0025871599538291115 0.0024726098720109966 0.0020126584218960681 0.0022192718584805511 0.0028194128390648878 0.0027097583535392739 0.0028865865374449583 -0.00099886801821785082 -0.00099898793610314466 -0.00099847084499248028 -0.00099823482370499242 -0.00099869386834855749 -0.00099835931685833329 -0.00099853120772554747 -0.00099883825599842921 -0.00099875299130064389 -0.00099861822895921568 -0.00099867714602379148 -0.00099865530523217437 -0.00099854731488132394 -0.00099870766021369463 -0.00099870265936330698 -0.00099876701436832404
leaf_weight=23.821914792060852 22.864294156432155 9.1365087777376157 0.55191703140735526 26.769434094429016 5.5695306956768027 22.878039419651031 12.930309459567068 14.128559455275537 13.472030639648436 16.823088064789772 16.954283744096756 21.43448631465435 19.966356158256531 24.073156118392944 3.3844872862100592 1.1018801331520069 6.266789183020598 5.7142314016818982 5.3606030493974686 3.701496645808219 3.2165798693895367 10.836929440498354 13.282040044665335 14.994238346815107 22.055465847253799 250.52868938446045 4.2528187632560721 56.8104068338871 9.8187455832958204 16.292355716228485
leaf_count=146 140 56 2 36 9 36 28 20 18 31 28 26 27 27 21 4 39 36 33 23 20 67 81 92 135 997 26 351 61 100
internal_value=-2.09446e-09 0.00188447 0.00226022 0.00246888 0.0024787 0.00228428 0.00204853 0.00261262 0.00249256 0.0022749 0.00247735 0.00268557 0.00277199 0.00280642 -0.000998645 -0.000998662 -0.000998653 -0.000998561 -0.000998457 -0.000998604 -0.000998644 -0.00099869 -0.00099871 -0.000998708 -0.000998665 -0.000998657 -0.00099869 -0.000998689 -0.000998774 -0.000998715
internal_weight=678.992 235.189 208.072 195.551 194.999 79.5321 35.8083 115.467 65.8582 30.9516 43.7237 34.9065 49.609 44.0395 12.521 443.802 327.52 37.5417 11.0748 26.4669 22.7654 116.282 16.4986 92.4603 289.978 251.631 27.1171 71.8046 20.6557 38.3478
internal_count=2716 531 365 288 286 128 64 158 95 51 64 44 63 54 77 2185 1468 232 69 163 140 717 101 571 1236 1001 166 443 128 235
is_linear=0
shrinkage=0.001


Tree=20
num_leaves=31
num_cat=0
split_feature=6 5 0 2 1 1 6 6 7 4 5 6 6 6 7 8 7 7 7 5 8 7 5 8 7 7 7 7 8 5
split_gain=165.813 226.842 173.036 219.62 69.2239 11.6175 3.24568 2.22161 2.85684 2.56659 4.84926 3.17196 4.89166 4.80053 3.26656 4.31066 1.9688 1.84619 1.82484 2.85677 2.00319 3.06962 2.33906 2.7473 1.77999 2.50501 2.45242 5.79819 2.03475 1.95318
threshold=200.18500000000003 0.60500000000000009 1.0000000180025095e-35 1.0000000180025095e-35 1.0000000180025095e-35 1.0000000180025095e-35 102.73500000000001 109.11000000000001 684.5200000000001 1.0000000180025095e-35 0.53500000000000014 170.59000000000003 184.20500000000001 121.22500000000001 920.93500000000006 6322104000.000001 331.16000000000003 440.74000000000007 577.42500000000007 0.92500000000000016 6343963200.000001 110.38500000000001 0.93500000000000016 6349579200.000001 911.1450000000001 816.96500000000003 684.5200000000001 651.47500000000014 6335496000.000001 0.37500000000000006
decision_type=2 2 2 2 2 2 2 2 2 2 2 2 2 2 2 2 2 2 2 2 2 2 2 2 2 2 2 2 2 2
left_child=2 4 3 6 -2 18 -1 8 -8 24 16 13 -13 -12 15 -15 -11 -18 20 -20 -3 -22 23 -23 25 26 27 29 -27 -9
right_child=1 5 -4 -5 -6 -7 7 9 -10 10 11 12 -14 14 -16 -17 17 -19 19 -21 21 22 -24 -25 -26 28 -28 -29 -30 -31
leaf_value=0.00074709312009358481 0.0029559389380799782 -0.00063263024274477233 0.0029556803962027456 0.0029021019533850118 5.2960270976021564e-05 -0.00079886450639103537 -0.00083128583820870012 0.000274020228070228 0.00027350317997691263 -0.00034064185854432519 0.0013265872721504239 0.0014823387081975999 0.00015593948082722722 0.00083306596344649784 0.00092812639751076664 -0.00043169078371281403 0.00074798720758238128 -1.9245107404317797e-05 -0.00037770182313942948 0.00032932626368599975 0.0001257072093947978 5.9158228913097035e-06 6.2440159413546266e-05 -0.00065474814816974213 -0.00058760670906712659 0.00085953111922241283 -0.00052142409378124323 0.0012120244163549964 1.5783147998995794e-05 -0.0001976851418224325
leaf_weight=5.3347207605838767 24.332201480865479 66.204089820384979 28.258381322026253 29.282982930541039 12.400534898042677 192.9290247708559 7.4322268664836866 10.246733039617537 3.4165728837251663 18.872442618012428 3.2047742307186153 5.7567129880189878 5.3777873516082764 3.3898293673992219 3.2229177355766288 13.143635824322699 3.555068954825404 26.627366989850998 45.010904714465141 6.5459225773811331 9.9408145844936353 7.4177561402320853 7.0224831402301779 41.556947976350784 7.5538016706705085 4.6784547269344312 14.312963813543318 3.3707747906446448 7.3459137380123138 61.245654031634331
leaf_count=33 155 191 180 185 76 288 45 63 21 115 20 36 33 21 20 80 22 163 141 25 36 26 25 119 41 29 87 21 45 374
internal_value=3.92867e-09 -0.000396138 0.000616462 0.000337985 0.00197593 -0.000627487 -2.28478e-05 -4.3106e-05 -0.000483359 -1.82175e-05 0.000114042 0.000403707 0.000841709 0.000191308 7.14908e-06 -0.00017238 -8.72909e-05 7.11241e-05 -0.000447499 -0.000287934 -0.000509755 -0.000386383 -0.000477291 -0.000554683 -0.000119339 -8.43868e-05 -0.000142159 -6.96482e-05 0.00034407 -0.000130077
internal_weight=678.99 413.361 265.63 237.371 36.7327 376.628 208.088 202.754 10.8488 191.905 83.1505 34.0957 11.1345 22.9612 19.7564 16.5335 49.0549 30.1824 183.699 51.5568 132.142 65.938 55.9972 48.9747 108.754 101.2 89.1761 74.8632 12.0244 71.4924
internal_count=2716 1082 1634 1454 231 851 1269 1236 66 1170 510 210 69 141 121 101 300 185 563 166 397 206 170 145 660 619 545 458 74 437
is_linear=0
shrinkage=0.001


Tree=21
num_leaves=31
num_cat=0
split_feature=6 2 0 5 1 6 6 7 8 6 5 6 6 7 7 7 7 6 6 8 8 5 4 8 6 8 8 8 6 8
split_gain=803.556 175.604 214.736 32.2933 67.6234 3.22091 2.1406 2.78157 2.23087 3.65652 2.45705 2.06503 3.63518 1.91358 1.90197 3.2092 2.55308 2.08123 1.87255 1.75509 2.96994 2.47457 1.68985 1.83184 1.94313 1.67944 2.4584 2.30196 2.05346 3.07264
threshold=199.17500000000004 1.0000000180025095e-35 1.0000000180025095e-35 0.60500000000000009 1.0000000180025095e-35 102.73500000000001 109.11000000000001 684.5200000000001 6327547200.000001 150.49000000000004 0.36500000000000005 137.05000000000004 129.15000000000001 63.995000000000012 113.91000000000001 515.78000000000009 658.41500000000008 171.23500000000004 184.20500000000001 6347764800.000001 6350356800.000001 0.7350000000000001 1.0000000180025095e-35 6339124800.000001 169.48500000000004 6354849600.000001 6356318400.000001 6357528000.000001 157.46500000000003 6352430400.000001
decision_type=2 2 2 2 2 2 2 2 2 2 2 2 2 2 2 2 2 2 2 2 2 2 2 2 2 2 2 2 2 2
left_child=1 2 5 4 -2 -1 7 -7 9 10 -8 12 -12 -10 -11 17 -17 -16 -18 21 -21 22 -15 -24 -25 28 -27 -28 -22 -30
right_child=3 -3 -4 -5 -6 6 8 -9 13 14 11 -13 -14 19 15 16 18 -19 -20 20 25 -23 23 24 -26 26 27 -29 29 -31
leaf_value=0.0012359704625194716 -0.00091966722087289722 -0.00099835586142295383 -0.00099833309540144186 -0.00094939825808161354 0.001925135446692624 0.0027928030571658302 0.0022507884013119959 0.0017065282727348303 0.0025235010035011556 0.0013829375276783161 0.0011033671009903837 0.00082217883324462533 0.0022708425902603184 0.0024222350853109237 0.0029588130192242266 0.001246192639235076 0.0017736823812932185 0.0021067435255627408 0.0026507606273336159 0.0013476435696886666 0.0026975193514035701 0.0014748439203584396 0.0023136736572452713 0.0021435525090063856 0.0012594611102738284 0.0011416169772780684 0.0026818156323335685 0.0019217583611545314 0.0013075443552990507 0.0026122248674901021
leaf_weight=5.3434532284736624 25.292245432734489 27.888381034135818 26.957528829574585 379.47387745976448 12.478445768356321 7.5228835493326169 3.4704773128032711 3.4329918920993805 8.4752391278743726 3.8992082178592709 6.6261887550354022 5.4639031141996375 4.4636831134557724 25.208656802773476 5.6993026435375231 5.0230833441019049 6.2210240513086301 5.7675676494836807 3.9989324063062668 7.6325951069593421 6.9999653697013837 4.5586077272891989 11.415658935904505 5.2776948660612089 4.6999058872461319 3.7189585566520682 4.3267267346382132 50.42255200445652 3.7376684546470642 3.4911628216505051
leaf_count=33 163 180 174 865 76 45 21 21 51 24 41 34 27 152 34 31 38 35 24 47 42 28 69 32 29 23 26 307 23 21
internal_value=4.16054e-10 0.00137352 0.00165637 -0.000861628 2.0181e-05 0.00200227 0.00202258 0.00245242 0.00199787 0.001818 0.00148575 0.00132536 0.00157328 0.00206294 0.00203535 0.0021306 0.00182995 0.00253024 0.00211687 0.00203326 0.00194106 0.00217803 0.00224681 0.0020401 0.00172711 0.00200336 0.00192838 0.00198182 0.00231147 0.00193764
internal_weight=678.989 261.744 233.856 417.245 37.7707 206.898 201.555 10.9559 190.599 50.6334 20.0243 16.5538 11.0899 139.965 30.6091 26.7099 15.243 11.4669 10.22 131.49 80.3296 51.1605 46.6019 21.3933 9.9776 72.697 58.4682 54.7493 14.2288 7.22883
internal_count=2716 1612 1432 1104 239 1258 1225 66 1159 309 123 102 68 850 186 162 93 69 62 799 489 310 282 130 61 442 356 333 86 44
is_linear=0
shrinkage=0.001


Tree=22
num_leaves=31
num_cat=0
split_feature=6 1 5 6 6 7 5 7 5 8 7 5 8 8 8 8 8 8 6 5 7 6 6 5 6 8 5 8 8 7
split_gain=425.908 822.17 248.044 2.4952 3.17329 2.49202 1.93216 1.77432 2.7945 1.94407 2.99473 2.27849 2.67202 1.74811 1.10407 1.55434 1.16031 1.50707 0.980026 0.974434 1.60622 0.910662 1.8153 1.00226 0.851427 0.835684 2.47426 3.59621 0.725762 0.669702
threshold=200.18500000000003 1.0000000180025095e-35 0.60500000000000009 234.38000000000002 223.43000000000004 375.12500000000006 0.75500000000000012 577.42500000000007 0.92500000000000016 6343963200.000001 110.38500000000001 0.93500000000000016 6349579200.000001 6311649600.000001 6345604800.000001 6322104000.000001 6352689600.000001 6362971200.000001 241.58000000000004 0.88500000000000012 716.3900000000001 268.9500000000001 260.77500000000003 0.85500000000000009 248.02000000000001 6359601600.000001 0.83500000000000008 6365131200.000001 6315451200.000001 283.47500000000008
decision_type=2 2 2 2 2 2 2 2 2 2 2 2 2 2 2 2 2 2 2 2 2 2 2 2 2 2 2 2 2 2
left_child=-1 2 -2 4 19 -6 -5 9 13 18 -11 12 -12 -9 15 -15 -16 -18 28 20 29 22 -8 -23 -17 -14 27 -27 -4 -3
right_child=1 3 7 6 5 -7 21 8 -10 10 11 -13 25 14 16 24 17 -19 -20 -21 -22 23 -24 -25 -26 26 -28 -29 -30 -31
leaf_value=-0.00099234919626604856 -0.00099830319006529171 -0.00063501060601395417 0.0019901648889185603 -0.00099833796370417871 6.5715420153631316e-06 -0.00063767856978244012 -0.00080181701888536357 -0.00099972022260190886 0.0016513931443019754 0.0018529475658684031 0.0019712698204868389 0.0019154623287017647 0.0028017814881250848 0.0025526182449823885 0.002864377165180715 0.0022105655782939946 0.0020916277299758224 0.0026730276157415351 0.0026879298209070289 -0.00099844999816190555 -0.00035673653304022233 -0.00065816163523083971 -0.00032210306644764412 -0.00099832565386733874 0.0017005555578806198 0.0016077630328118007 0.0028965998628006063 0.0026071225385779751 0.0025039038168249163 -0.00099837388959830181
leaf_weight=264.20695970952511 24.012437835335732 8.721502169966703 3.1794961392879513 62.524400040507317 11.033847600221636 13.170996129512785 24.159633830189705 0.15536168217658897 6.574939250946044 9.9984238743782026 7.4666892290115348 7.0661525428295127 15.837636828422545 7.5824691951274898 6.5606564730405834 7.4032837450504285 9.2257501631975192 8.6280905008316022 43.394491821527481 15.207645624876021 9.8754952400922758 13.96590533852577 11.712530165910719 22.806024685502052 5.8677260875701904 5.4686427712440553 10.165938556194304 10.542551368474959 20.349685102701187 12.122288793325422
leaf_count=1634 155 16 11 121 23 22 40 1 25 36 26 25 42 22 17 24 31 24 120 24 20 22 20 31 22 21 26 30 60 25
internal_value=-1.28082e-09 0.000632104 0.00202589 -0.000790055 -0.000637004 -0.000343995 -0.000869466 0.00241743 0.00226072 0.00247848 0.00235745 0.00244665 0.0025225 0.00234892 0.00236041 0.00219143 0.00250475 0.0023726 0.00259882 -0.000791428 -0.000688941 -0.000758546 -0.000645187 -0.000869132 0.00198507 0.00262047 0.00251077 0.00226579 0.00243448 -0.000846335
internal_weight=678.988 414.781 209.48 205.3 70.1318 24.2048 135.168 185.468 51.9983 133.47 66.546 56.5476 49.4815 45.4233 45.268 20.8535 24.4145 17.8538 66.9237 45.9269 30.7193 72.6441 35.8722 36.7719 13.271 42.0148 26.1771 16.0112 23.5292 20.8438
internal_count=2716 1082 718 364 130 45 234 563 166 397 206 170 145 141 140 68 72 55 191 85 61 113 60 53 46 119 77 51 71 41
is_linear=0
shrinkage=0.001


Tree=23
num_leaves=31
num_cat=0
split_feature=1 6 5 8 6 6 5 5 5 8 7 6 8 7 6 5 4 6 6 7 6 5 8 8 3 8 7 6 8 8
split_gain=1274.51 253.752 140.854 6.63398 5.04548 3.59833 8.15489 2.19392 2.7494 2.52104 1.83285 0.987701 0.462092 0.339201 3.59429e-07 1.9045e-07 5.5386e-07 2.62411e-07 9.06146e-07 4.00914e-07 4.03018e-07 2.18709e-07 1.9769e-07 1.79791e-07 1.78788e-07 1.89298e-07 1.58641e-07 1.47752e-07 1.47736e-07 1.1783e-07
threshold=1.0000000180025095e-35 199.61500000000004 0.6150000000000001 6311649600.000001 243.52500000000001 223.43000000000004 0.80500000000000016 0.75500000000000012 0.89500000000000013 6335236800.000001 681.47500000000002 270.70000000000005 6320116800.000001 457.88000000000005 265.56000000000006 0.53500000000000014 1.0000000180025095e-35 170.59000000000003 184.20500000000001 920.93500000000006 121.22500000000001 0.35500000000000004 6321844800.000001 6325646400.000001 1.0000000180025095e-35 6311649600.000001 833.25000000000011 150.49000000000004 6339124800.000001 6347764800.000001
decision_type=2 2 2 2 2 2 2 2 2 2 2 2 2 2 2 2 2 2 2 2 2 2 2 2 2 2 2 2 2 2
left_child=15 26 14 -4 5 10 -7 12 9 -9 -5 -10 -6 -14 -3 21 24 19 -19 20 -18 -1 -22 27 25 -17 -2 -23 -25 -26
right_child=1 2 3 4 7 6 -8 8 11 -11 -12 -13 13 -15 -16 16 17 18 -20 -21 22 23 -24 28 29 -27 -28 -29 -30 -31
leaf_value=-0.0009982785473112907 -0.00099839611737439051 -0.00099820426370224704 -0.00099983699686281738 0.0026335711404193241 0.002493023442433755 0.0024019993318029715 0.001409075281230182 0.0025802886626417731 0.0024661786760813808 0.0020077636117161687 0.0022136981882519913 0.0028114204283520164 0.0027021941048681192 0.0028783255246172313 -0.00099858587579852416 -0.00099873567625063963 -0.00099809032929224807 -0.00099779607389095045 -0.00099836867115163331 -0.00099795130445345004 -0.00099816580715215313 -0.00099854880740967334 -0.00099844221018263236 -0.00099827405644883492 -0.00099834766155810291 -0.00099832017737268492 -0.00099818570631011495 -0.00099837939712570187 -0.00099838568955708078 -0.0009984598343838818
leaf_weight=23.805386915802956 22.849518448114399 9.1298947483301145 0.5518808513879766 26.816021159291267 5.5789399594068518 22.914082646369934 12.944105744361876 14.152250647544863 13.49378292262554 16.846467047929764 16.979623511433601 21.474044218659401 20.002137243747711 24.118374735116959 3.3825615495443335 1.1013192683458317 6.2619623988866868 5.7091480791568738 5.3570796102285385 3.6984374076127997 3.2142016142606762 10.830597534775736 13.273704066872595 14.983806192874907 22.040778368711472 250.35904005169868 4.2497080117464057 9.8123319596052152 56.773453801870346 16.282247588038445
leaf_count=146 140 56 2 36 9 36 28 20 18 31 28 26 27 27 21 4 39 36 33 23 20 67 81 92 135 997 26 61 351 100
internal_value=-3.05129e-09 0.00188022 0.00225456 0.00246236 0.00247214 0.00227847 0.00204357 0.00260552 0.00248598 0.00226915 0.00247079 0.00267819 0.00276419 0.00279848 -0.000998307 -0.000998329 -0.000998317 -0.000998203 -0.000998073 -0.000998257 -0.000998306 -0.000998364 -0.000998388 -0.000998386 -0.000998332 -0.000998322 -0.000998363 -0.000998468 -0.000998362 -0.000998395
internal_weight=678.987 235.483 208.384 195.872 195.32 79.6538 35.8582 115.666 65.9665 30.9987 43.7956 34.9678 49.6995 44.1205 12.5125 443.503 327.298 37.5145 11.0662 26.4483 22.7499 116.206 16.4879 92.4002 289.783 251.46 27.0992 20.6429 71.7573 38.323
internal_count=2716 531 365 288 286 128 64 158 95 51 64 44 63 54 77 2185 1468 232 69 163 140 717 101 571 1236 1001 166 128 443 235
is_linear=0
shrinkage=0.001


Tree=24
num_leaves=31
num_cat=0
split_feature=6 5 0 2 1 1 6 6 7 4 5 6 6 6 7 8 7 7 7 5 8 7 5 8 7 7 7 7 8 5
split_gain=165.455 226.252 172.246 218.712 68.8585 11.6098 3.23775 2.21794 2.85313 2.5622 4.84101 3.16435 4.87792 4.78966 3.26038 4.30261 1.96597 1.84234 1.82273 2.85172 2.00125 3.06502 2.33591 2.74404 1.77786 2.50092 2.44949 5.78595 2.03008 1.95049
threshold=200.18500000000003 0.60500000000000009 1.0000000180025095e-35 1.0000000180025095e-35 1.0000000180025095e-35 1.0000000180025095e-35 102.73500000000001 109.11000000000001 684.5200000000001 1.0000000180025095e-35 0.53500000000000014 170.59000000000003 184.20500000000001 121.22500000000001 920.93500000000006 6322104000.000001 331.16000000000003 440.74000000000007 577.42500000000007 0.92500000000000016 6343963200.000001 110.38500000000001 0.93500000000000016 6349579200.000001 911.1450000000001 816.96500000000003 684.5200000000001 651.47500000000014 6335496000.000001 0.37500000000000006
decision_type=2 2 2 2 2 2 2 2 2 2 2 2 2 2 2 2 2 2 2 2 2 2 2 2 2 2 2 2 2 2
left_child=2 4 3 6 -2 18 -1 8 -8 24 16 13 -13 -12 15 -15 -11 -18 20 -20 -3 -22 23 -23 25 26 27 29 -27 -9
right_child=1 5 -4 -5 -6 -7 7 9 -10 10 11 12 -14 14 -16 -17 17 -19 19 -21 21 22 -24 -25 -26 28 -28 -29 -30 -31
leaf_value=0.00074597975032583469 0.0029472909812774096 -0.00063225585778511016 0.0029469820736972153 0.0028936226536360769 5.294074961993161e-05 -0.00079849645320935361 -0.00083091461281784951 0.00027381470866641233 0.00027318471791698573 -0.0003404426144519252 0.0013247212314244335 0.0014800392086773805 0.00015578181228555934 0.00083192958800257179 0.00092700285537114426 -0.00043143334436052523 0.0007470442723795655 -1.9245882005907559e-05 -0.00037740738933701175 0.00032894259849755234 0.00012558732989981268 5.9252536978927777e-06 6.2391024959447628e-05 -0.00065437094553496384 -0.00058731081128779266 0.00085845298449639814 -0.00052114790975001427 0.0012103077709436543 1.5791657341107987e-05 -0.00019754612008703341
leaf_weight=5.3373580425977698 24.379251971840858 66.175345420837402 28.31334400177002 29.339179337024689 12.400690943002699 192.82684271037579 7.4280603975057584 10.247918903827665 3.4171856939792633 18.869192272424698 3.2068850398063686 5.7611405849456769 5.3782982528209686 3.3914766460657182 3.2244061082601538 13.140459522604941 3.5565571337938335 26.62737925350666 44.999061554670334 6.5472934544086447 9.9415470957756025 7.4177092909812918 7.0227037370204917 41.538286805152893 7.5513412505388251 4.68058794736862 14.308909907937048 3.37290334701538 7.3458723127841949 61.239103719592094
leaf_count=33 155 191 180 185 76 288 45 63 21 115 20 36 33 21 20 80 22 163 141 25 36 26 25 119 41 29 87 21 45 374
internal_value=5.38136e-09 -0.000395844 0.000615592 0.000337568 0.00197143 -0.000627121 -2.28254e-05 -4.30643e-05 -0.000483028 -1.82e-05 0.000113938 0.000403313 0.000840667 0.000191153 7.15067e-06 -0.000172258 -8.72409e-05 7.10457e-05 -0.000447174 -0.000287689 -0.000509408 -0.000386085 -0.000476955 -0.000554324 -0.000119243 -8.43147e-05 -0.000142049 -6.95868e-05 0.000343748 -0.000129975
internal_weight=678.986 413.249 265.738 237.424 36.7799 376.469 208.085 202.748 10.8452 191.902 83.1558 34.1027 11.1394 22.9632 19.7563 16.5319 49.0531 30.1839 183.642 51.5464 132.096 65.9202 55.9787 48.956 108.747 101.195 89.1688 74.8599 12.0265 71.487
internal_count=2716 1082 1634 1454 231 851 1269 1236 66 1170 510 210 69 141 121 101 300 185 563 166 397 206 170 145 660 619 545 458 74 437
is_linear=0
shrinkage=0.001


Tree=25
num_leaves=31
num_cat=0
split_feature=6 2 0 5 1 6 6 7 8 6 5 6 6 7 7 7 7 6 6 8 8 5 4 8 6 5 6 8 8 6
split_gain=801.681 175.02 213.929 32.2677 67.4449 3.20335 2.12721 2.76334 2.21926 3.63975 2.4463 2.05688 3.61999 1.90338 1.89292 3.1928 2.54126 2.06896 1.86207 1.74689 2.95713 2.46359 1.67974 1.82346 1.93398 1.67627 1.62554 1.52839 2.92081 2.24421
threshold=199.17500000000004 1.0000000180025095e-35 1.0000000180025095e-35 0.60500000000000009 1.0000000180025095e-35 102.73500000000001 109.11000000000001 684.5200000000001 6327547200.000001 150.49000000000004 0.36500000000000005 137.05000000000004 129.15000000000001 63.995000000000012 113.91000000000001 515.78000000000009 658.41500000000008 171.23500000000004 184.20500000000001 6347764800.000001 6350356800.000001 0.7350000000000001 1.0000000180025095e-35 6339124800.000001 169.48500000000004 0.66500000000000015 265.56000000000006 6354849600.000001 6356318400.000001 175.40000000000001
decision_type=2 2 2 2 2 2 2 2 2 2 2 2 2 2 2 2 2 2 2 2 2 2 2 2 2 2 2 2 2 2
left_child=1 2 5 4 -2 -1 7 -7 9 10 -8 12 -12 -10 -11 17 -17 -16 -18 21 -21 22 -15 -24 -25 27 -6 29 -29 -22
right_child=3 -3 -4 -5 26 6 8 -9 13 14 11 -13 -14 19 15 16 18 -19 -20 20 25 -23 23 24 -26 -27 -28 28 -30 -31
leaf_value=0.0012337255926130972 -0.00091931384542075917 -0.00099802803293248094 -0.00099800078211754128 -0.00094905233058761439 0.0021419784975477722 0.002784878110309124 0.0022454000217627637 0.0017028981868413939 0.002517058308929199 0.0013800813069742804 0.0011010786601987203 0.00082057310652580934 0.0022654075878680204 0.0024161583155107632 0.0029507234525566785 0.0012436667329485426 0.0017697884116098168 0.0021018401444508512 0.0026437586199406457 0.0013447398502648693 0.0025255950664400369 0.0014715860281608345 0.0023081693232220838 0.0021384461300213357 0.0012569398497844901 0.0023530958813533201 0.0013325141223496715 0.0009590123142629893 0.0019212850722929253 0.0015854453334731508
leaf_weight=5.3478245735168448 25.276647478342056 27.86986842751503 26.939384400844574 379.23215769231319 9.0806606411933881 7.5367205739021284 3.4754458516836193 3.4368654489517212 8.4887629747390729 3.9030582606792477 6.6319935768842715 5.4676696211099616 4.470094621181488 25.247576370835304 5.7096075713634509 5.0276881307363501 6.2283982485532743 5.7753816395998001 4.0056546181440353 7.640350639820098 8.6564271003007871 4.5635824203491202 11.432079344987871 5.2850655615329725 4.7041858434677124 11.278597474098204 3.4134151786565772 3.387210637331008 45.87829926609993 3.5928852707147589
leaf_count=33 163 180 174 865 55 45 21 21 51 24 41 34 27 152 34 31 38 35 24 47 52 28 69 32 29 68 21 21 279 22
internal_value=5.68233e-10 0.0013709 0.00165291 -0.000861263 2.01699e-05 0.00199762 0.00201786 0.00244601 0.00199325 0.00181395 0.00148262 0.00132262 0.00156988 0.0020581 0.00203064 0.00212557 0.00182585 0.00252385 0.00211186 0.00202851 0.00193658 0.00217283 0.00224141 0.00203544 0.00172332 0.0019987 0.00192083 0.00193372 0.00185512 0.00224984
internal_weight=678.984 261.981 234.111 417.003 37.7707 207.171 201.824 10.9736 190.85 50.695 20.0452 16.5698 11.1021 140.155 30.6498 26.7467 15.2617 11.485 10.2341 131.666 80.4338 51.2325 46.6689 21.4213 9.98925 72.7934 12.4941 61.5148 49.2655 12.2493
internal_count=2716 1612 1432 1104 239 1258 1225 66 1159 309 123 102 68 850 186 162 93 69 62 799 489 310 282 130 61 442 76 374 300 74
is_linear=0
shrinkage=0.001


Tree=26
num_leaves=31
num_cat=0
split_feature=6 1 5 6 6 7 5 7 5 8 7 5 8 8 8 8 8 8 6 5 7 6 6 5 6 8 5 8 8 7
split_gain=425.162 819.531 246.984 2.4941 3.17076 2.48944 1.93152 1.76247 2.77746 1.93072 2.97571 2.26368 2.65425 1.74163 1.0982 1.54631 1.15375 1.49899 0.974458 0.974353 1.6052 0.910086 1.81452 1.00186 0.847369 0.830845 2.46025 3.5779 0.721913 0.669655
threshold=200.18500000000003 1.0000000180025095e-35 0.60500000000000009 234.38000000000002 223.43000000000004 375.12500000000006 0.75500000000000012 577.42500000000007 0.92500000000000016 6343963200.000001 110.38500000000001 0.93500000000000016 6349579200.000001 6311649600.000001 6345604800.000001 6322104000.000001 6352689600.000001 6362971200.000001 241.58000000000004 0.88500000000000012 716.3900000000001 268.9500000000001 260.77500000000003 0.85500000000000009 248.02000000000001 6359601600.000001 0.83500000000000008 6365131200.000001 6315451200.000001 283.47500000000008
decision_type=2 2 2 2 2 2 2 2 2 2 2 2 2 2 2 2 2 2 2 2 2 2 2 2 2 2 2 2 2 2
left_child=-1 2 -2 4 19 -6 -5 9 13 18 -11 12 -12 -9 15 -15 -16 -18 28 20 29 22 -8 -23 -17 -14 27 -27 -4 -3
right_child=1 3 7 6 5 -7 21 8 -10 10 11 -13 25 14 16 24 17 -19 -20 -21 -22 23 -24 -25 -26 26 -28 -29 -30 -31
leaf_value=-0.00099201736277713319 -0.00099796495803514129 -0.00063460203317746171 0.0019852281463910758 -0.00099800547777551159 6.6364442806300741e-06 -0.0006373447507074042 -0.00080148591375728403 -0.00099966407586858977 0.0016479625200165058 0.0018488511694402696 0.0019667580698651045 0.0019111487167856871 0.0027939754219255203 0.0025459403008214394 0.0028565219740740652 0.0022050719614548206 0.0020865196697055816 0.0026659060860342405 0.0026805773821245529 -0.00099814096794009028 -0.00035642765770756217 -0.00065780623238625004 -0.00032179487387177917 -0.00099799202450121601 0.0016966184761180827 0.0016039398767783435 0.0028884187035068671 0.0026000590745749162 0.0024972338823687212 -0.00099805249479857964
leaf_weight=264.03149871528149 23.995983675122261 8.7173565477132851 3.1839765459299114 62.482297033071518 11.033371329307558 13.165869385004042 24.148081392049789 0.15534420311450858 6.582073211669921 10.010597884654997 7.4763606786727896 7.0750463008880606 15.866272807121275 7.5949193537235287 6.5724233984947231 7.4142048954963666 9.2388237565755862 8.6427629590034467 43.47040106356144 15.198136776685713 9.8728203028440458 13.959974840283392 11.709457591176031 22.790609732270241 5.8749176859855652 5.4753449857235017 10.184787407517431 10.560616582632063 20.38346104323864 12.114401280879973
leaf_count=1634 155 16 11 121 23 22 40 1 25 36 26 25 42 22 17 24 31 24 120 24 20 22 20 31 22 21 26 30 60 25
internal_value=-1.76767e-09 0.000631214 0.00202118 -0.000789686 -0.000636639 -0.000343729 -0.000869106 0.00241118 0.00225512 0.00247198 0.00235145 0.00244029 0.00251582 0.00234296 0.00235442 0.002186 0.00249824 0.00236656 0.0025918 -0.000791058 -0.000688556 -0.000758182 -0.00064484 -0.00086877 0.00198029 0.00261335 0.00250406 0.00225994 0.00242806 -0.000845961
internal_weight=678.982 414.951 209.758 205.192 70.102 24.1992 135.09 185.762 52.0755 133.687 66.649 56.6384 49.5634 45.4934 45.3381 20.884 24.454 17.8816 67.0378 45.9027 30.7046 72.6081 35.8575 36.7506 13.2891 42.087 26.2207 16.036 23.5674 20.8318
internal_count=2716 1082 718 364 130 45 234 563 166 397 206 170 145 141 140 68 72 55 191 85 61 113 60 53 46 119 77 51 71 41
is_linear=0
shrinkage=0.001


Tree=27
num_leaves=31
num_cat=0
split_feature=1 6 5 8 6 6 5 5 5 8 7 6 8 7 6 8 5 4 6 6 7 6 5 8 3 8 7 8 6 8
split_gain=1271.2 252.724 140.223 6.60855 5.01412 3.57686 8.11518 2.1787 2.73234 2.50765 1.82146 0.980523 0.459381 0.337159 3.75094e-07 2.54418e-07 2.61395e-07 7.71348e-07 3.89543e-07 1.25402e-06 5.77652e-07 6.0433e-07 3.04084e-07 2.78311e-07 2.69167e-07 2.59742e-07 2.15111e-07 1.99491e-07 1.95544e-07 1.8723e-07
threshold=1.0000000180025095e-35 199.61500000000004 0.6150000000000001 6311649600.000001 243.52500000000001 223.43000000000004 0.80500000000000016 0.75500000000000012 0.89500000000000013 6335236800.000001 681.47500000000002 270.70000000000005 6320116800.000001 457.88000000000005 265.56000000000006 6311649600.000001 0.53500000000000014 1.0000000180025095e-35 170.59000000000003 184.20500000000001 920.93500000000006 121.22500000000001 0.35500000000000004 6322104000.000001 1.0000000180025095e-35 6325646400.000001 833.25000000000011 6339124800.000001 150.49000000000004 6347764800.000001
decision_type=2 2 2 2 2 2 2 2 2 2 2 2 2 2 2 2 2 2 2 2 2 2 2 2 2 2 2 2 2 2
left_child=15 26 14 -4 5 10 -7 12 9 -9 -5 -10 -6 -14 -3 -1 22 24 20 -20 21 -19 -17 -23 -18 28 -2 -27 -24 -26
right_child=1 2 3 4 7 6 -8 8 11 -11 -12 -13 13 -15 -16 16 17 18 19 -21 -22 23 25 -25 29 27 -28 -29 -30 -31
leaf_value=-0.00099836051644513362 -0.00099808253481361371 -0.0009978651473942226 -0.00099980420515271228 0.0026263860925054873 0.0024862843438765367 0.0023958576232457523 0.001405970499901849 0.0025734547334817681 0.0024597811027442882 0.0020028906262853467 0.002208151216385523 0.0028034747527656461 0.0026946735534315899 0.0028701142567258606 -0.00099825511828750975 -0.00099793449240859829 -0.0009979855041503036 -0.000997702605322548 -0.0009973608061472042 -0.00099803466949418608 -0.00099754466770844382 -0.0009978078799140924 -0.00099825452931500401 -0.000998136329129579 -0.00099801524081328825 -0.0009979303832365889 -0.00099783743498489653 -0.00099806014914667726 -0.00099805804170767119 -0.00099815691248855069
leaf_weight=1.9070042073726643 22.835008397698406 9.1236162930726987 0.55184455215930839 26.862463474273682 5.5883205384016028 22.950020685791969 12.95787128806114 14.175868913531305 13.515470907092093 16.8697849214077 17.004892662167549 21.513474687933922 20.03780323266983 24.163443028926849 3.3802992403507224 23.788788571953773 250.18931798636913 6.0917053222656312 5.7040944546461088 5.3534545749425888 3.6953823268413535 3.2118672281503704 10.658636853098871 13.110620245337484 21.860501036047935 14.973371312022207 4.246706709265708 56.736032024025917 9.6511031538248044 16.27226559817791
leaf_count=9 140 56 2 36 9 36 28 20 18 31 28 26 27 27 21 146 997 38 36 33 23 20 66 80 134 92 26 351 60 100
internal_value=-4.20674e-09 0.00187598 0.00224893 0.00245587 0.00246562 0.00227268 0.00203864 0.00259846 0.00247942 0.00226342 0.00246426 0.00267086 0.00275643 0.00279058 -0.000997971 -0.000997996 -0.000997994 -0.00099798 -0.000997844 -0.000997687 -0.000997911 -0.000997971 -0.000998035 -0.000998072 -0.000997997 -0.000998061 -0.000998044 -0.000998033 -0.000998161 -0.000998076
internal_weight=678.981 235.777 208.695 196.191 195.639 79.7752 35.9079 115.864 66.0746 31.0457 43.8674 35.0289 49.7896 44.2012 12.5039 443.204 441.297 325.489 37.1671 11.0575 26.1096 22.4142 115.808 16.3225 288.322 92.0191 27.0817 71.7094 20.3097 38.1328
