{"learner":{"attributes":{"scikit_learn":"{\"_estimator_type\": \"classifier\"}"},"feature_names":[],"feature_types":[],"gradient_booster":{"model":{"gbtree_model_param":{"num_parallel_tree":"1","num_trees":"1000"},"iteration_indptr":[0,4,8,12,16,20,24,28,32,36,40,44,48,52,56,60,64,68,72,76,80,84,88,92,96,100,104,108,112,116,120,124,128,132,136,140,144,148,152,156,160,164,168,172,176,180,184,188,192,196,200,204,208,212,216,220,224,228,232,236,240,244,248,252,256,260,264,268,272,276,280,284,288,292,296,300,304,308,312,316,320,324,328,332,336,340,344,348,352,356,360,364,368,372,376,380,384,388,392,396,400,404,408,412,416,420,424,428,432,436,440,444,448,452,456,460,464,468,472,476,480,484,488,492,496,500,504,508,512,516,520,524,528,532,536,540,544,548,552,556,560,564,568,572,576,580,584,588,592,596,600,604,608,612,616,620,624,628,632,636,640,644,648,652,656,660,664,668,672,676,680,684,688,692,696,700,704,708,712,716,720,724,728,732,736,740,744,748,752,756,760,764,768,772,776,780,784,788,792,796,800,804,808,812,816,820,824,828,832,836,840,844,848,852,856,860,864,868,872,876,880,884,888,892,896,900,904,908,912,916,920,924,928,932,936,940,944,948,952,956,960,964,968,972,976,980,984,988,992,996,1000],"tree_info":[0,1,2,3,0,1,2,3,0,1,2,3,0,1,2,3,0,1,2,3,0,1,2,3,0,1,2,3,0,1,2,3,0,1,2,3,0,1,2,3,0,1,2,3,0,1,2,3,0,1,2,3,0,1,2,3,0,1,2,3,0,1,2,3,0,1,2,3,0,1,2,3,0,1,2,3,0,1,2,3,0,1,2,3,0,1,2,3,0,1,2,3,0,1,2,3,0,1,2,3,0,1,2,3,0,1,2,3,0,1,2,3,0,1,2,3,0,1,2,3,0,1,2,3,0,1,2,3,0,1,2,3,0,1,2,3,0,1,2,3,0,1,2,3,0,1,2,3,0,1,2,3,0,1,2,3,0,1,2,3,0,1,2,3,0,1,2,3,0,1,2,3,0,1,2,3,0,1,2,3,0,1,2,3,0,1,2,3,0,1,2,3,0,1,2,3,0,1,2,3,0,1,2,3,0,1,2,3,0,1,2,3,0,1,2,3,0,1,2,3,0,1,2,3,0,1,2,3,0,1,2,3,0,1,2,3,0,1,2,3,0,1,2,3,0,1,2,3,0,1,2,3,0,1,2,3,0,1,2,3,0,1,2,3,0,1,2,3,0,1,2,3,0,1,2,3,0,1,2,3,0,1,2,3,0,1,2,3,0,1,2,3,0,1,2,3,0,1,2,3,0,1,2,3,0,1,2,3,0,1,2,3,0,1,2,3,0,1,2,3,0,1,2,3,0,1,2,3,0,1,2,3,0,1,2,3,0,1,2,3,0,1,2,3,0,1,2,3,0,1,2,3,0,1,2,3,0,1,2,3,0,1,2,3,0,1,2,3,0,1,2,3,0,1,2,3,0,1,2,3,0,1,2,3,0,1,2,3,0,1,2,3,0,1,2,3,0,1,2,3,0,1,2,3,0,1,2,3,0,1,2,3,0,1,2,3,0,1,2,3,0,1,2,3,0,1,2,3,0,1,2,3,0,1,2,3,0,1,2,3,0,1,2,3,0,1,2,3,0,1,2,3,0,1,2,3,0,1,2,3,0,1,2,3,0,1,2,3,0,1,2,3,0,1,2,3,0,1,2,3,0,1,2,3,0,1,2,3,0,1,2,3,0,1,2,3,0,1,2,3,0,1,2,3,0,1,2,3,0,1,2,3,0,1,2,3,0,1,2,3,0,1,2,3,0,1,2,3,0,1,2,3,0,1,2,3,0,1,2,3,0,1,2,3,0,1,2,3,0,1,2,3,0,1,2,3,0,1,2,3,0,1,2,3,0,1,2,3,0,1,2,3,0,1,2,3,0,1,2,3,0,1,2,3,0,1,2,3,0,1,2,3,0,1,2,3,0,1,2,3,0,1,2,3,0,1,2,3,0,1,2,3,0,1,2,3,0,1,2,3,0,1,2,3,0,1,2,3,0,1,2,3,0,1,2,3,0,1,2,3,0,1,2,3,0,1,2,3,0,1,2,3,0,1,2,3,0,1,2,3,0,1,2,3,0,1,2,3,0,1,2,3,0,1,2,3,0,1,2,3,0,1,2,3,0,1,2,3,0,1,2,3,0,1,2,3,0,1,2,3,0,1,2,3,0,1,2,3,0,1,2,3,0,1,2,3,0,1,2,3,0,1,2,3,0,1,2,3,0,1,2,3,0,1,2,3,0,1,2,3,0,1,2,3,0,1,2,3,0,1,2,3,0,1,2,3,0,1,2,3,0,1,2,3,0,1,2,3,0,1,2,3,0,1,2,3,0,1,2,3,0,1,2,3,0,1,2,3,0,1,2,3,0,1,2,3,0,1,2,3,0,1,2,3,0,1,2,3,0,1,2,3,0,1,2,3,0,1,2,3,0,1,2,3,0,1,2,3,0,1,2,3,0,1,2,3,0,1,2,3,0,1,2,3,0,1,2,3,0,1,2,3,0,1,2,3,0,1,2,3,0,1,2,3,0,1,2,3,0,1,2,3,0,1,2,3,0,1,2,3,0,1,2,3,0,1,2,3,0,1,2,3,0,1,2,3,0,1,2,3,0,1,2,3,0,1,2,3,0,1,2,3,0,1,2,3,0,1,2,3,0,1,2,3,0,1,2,3,0,1,2,3,0,1,2,3,0,1,2,3,0,1,2,3,0,1,2,3,0,1,2,3,0,1,2,3,0,1,2,3,0,1,2,3,0,1,2,3,0,1,2,3,0,1,2,3,0,1,2,3,0,1,2,3,0,1,2,3,0,1,2,3,0,1,2,3,0,1,2,3],"trees":[{"base_weights":[4.0510055E-1,2.4112608E-1,1.0614251E0,2.8530671E-3,9.541845E-1,1.970803E-3,5.955882E-1,5.3846157E-1,-8.729993E-3,1.9573714E-3,4.2513862E-1,1.9391635E-3,1.6566627E-1,8.108108E-1,-1.0526316E-1,-3.2E-1,4.762936E-3,1.9266056E-3,4.587156E-2,7.692308E-1,1.1340206E-1,-0E0,9.677419E-1,2.6086956E-4,-4.3478262E-4,-4.5086706E-1,4E-1,-4.7958523E-2,1.10317975E-1,-1.8430035E-1,1.6013628E-1,6.896552E-2,1.0909091E0,6.29275E-2,7.924528E-1,1.2195123E-3,3.448276E-4,-5.5737706E-4,-1.6949154E-4,-1.5384617E-4,1.0588237E-3,2.5706942E-5,-1.2223667E-4,-2.8540067E-5,3.0721005E-4,8.292683E-4,-3.3846157E-4,8.0000005E-5,5.684211E-4,5.882353E-4,-4.0000002E-4,4.615385E-4,1.3846154E-3,3.646564E-5,7.692308E-4,9.09091E-4,1.1764706E-4],"categories":[],"categories_nodes":[],"categories_segments":[],"categories_sizes":[],"default_left":[0,0,0,0,0,0,0,0,0,0,0,0,0,0,0,0,0,0,0,0,0,0,0,0,0,0,0,0,0,0,0,0,0,0,0,0,0,0,0,0,0,0,0,0,0,0,0,0,0,0,0,0,0,0,0,0,0],"id":0,"left_children":[1,3,5,7,9,-1,11,13,15,-1,17,-1,19,21,23,25,27,-1,29,31,33,-1,35,-1,-1,37,39,41,43,45,47,49,51,53,55,-1,-1,-1,-1,-1,-1,-1,-1,-1,-1,-1,-1,-1,-1,-1,-1,-1,-1,-1,-1,-1,-1],"loss_changes":[1.09463135E2,1.3880768E2,8.503322E1,3.8100703E0,1.07768845E2,0E0,7.823677E1,2.3644814E0,2.5272655E0,0E0,7.693067E1,0E0,3.1973722E0,1.1769838E0,6.864989E-1,2.5359535E0,3.2183917E0,0E0,2.8962708E0,1.7550035E0,3.274788E0,0E0,7.9492044E-1,0E0,0E0,5.5361557E-1,1.7592759E0,2.113864E0,5.275144E0,6.00344E0,2.3552408E0,1.1180527E0,3.7762213E-1,1.6797571E0,4.144888E-1,0E0,0E0,0E0,0E0,0E0,0E0,0E0,0E0,0E0,0E0,0E0,0E0,0E0,0E0,0E0,0E0,0E0,0E0,0E0,0E0,0E0,0E0],"parents":[2147483647,0,0,1,1,2,2,3,3,4,4,6,6,7,7,8,8,10,10,12,12,13,13,14,14,15,15,16,16,18,18,19,19,20,20,22,22,25,25,26,26,27,27,28,28,29,29,30,30,31,31,32,32,33,33,34,34],"right_children":[2,4,6,8,10,-1,12,14,16,-1,18,-1,20,22,24,26,28,-1,30,32,34,-1,36,-1,-1,38,40,42,44,46,48,50,52,54,56,-1,-1,-1,-1,-1,-1,-1,-1,-1,-1,-1,-1,-1,-1,-1,-1,-1,-1,-1,-1,-1,-1],"split_conditions":[1E0,1E0,2.0013E2,1.0271E2,2.0013E2,1.970803E-3,6.1E-1,6.7875E2,1.0881E2,1.9573714E-3,6.1E-1,1.9391635E-3,6.31463E9,2.5312E2,1E0,6.2E-1,1E0,1.9266056E-3,6.3370947E9,2.9737E2,9.8E-1,-0E0,5.2E-1,2.6086956E-4,-4.3478262E-4,6.8527E2,6.5411E2,6.3E-1,5.4E-1,2.0961E2,9.3E-1,6.6E-1,6.3124705E9,7.8101E2,6.3478E2,1.2195123E-3,3.448276E-4,-5.5737706E-4,-1.6949154E-4,-1.5384617E-4,1.0588237E-3,2.5706942E-5,-1.2223667E-4,-2.8540067E-5,3.0721005E-4,8.292683E-4,-3.3846157E-4,8.0000005E-5,5.684211E-4,5.882353E-4,-4.0000002E-4,4.615385E-4,1.3846154E-3,3.646564E-5,7.692308E-4,9.09091E-4,1.1764706E-4],"split_indices":[0,2,6,6,6,0,5,7,6,0,5,0,8,7,3,5,4,0,8,7,5,0,5,0,0,7,7,5,5,6,5,5,8,7,7,0,0,0,0,0,0,0,0,0,0,0,0,0,0,0,0,0,0,0,0,0,0],"split_type":[0,0,0,0,0,0,0,0,0,0,0,0,0,0,0,0,0,0,0,0,0,0,0,0,0,0,0,0,0,0,0,0,0,0,0,0,0,0,0,0,0,0,0,0,0,0,0,0,0,0,0,0,0,0,0,0,0],"sum_hessian":[1.0185E3,8.16E2,2.025E2,6.12375E2,2.03625E2,6.75E1,1.35E2,1.2E1,6.00375E2,6.9375E1,1.3425E2,3.1875E1,1.03125E2,8.25E0,3.75E0,2.4E1,5.76375E2,2.625E1,1.08E2,7.125E0,9.6E1,1.5E0,6.75E0,1.875E0,1.875E0,2.0625E1,3.375E0,3.8475E2,1.91625E2,3.5625E1,7.2375E1,2.625E0,4.5E0,9.0375E1,5.625E0,4.125E0,2.625E0,1.425E1,6.375E0,2.25E0,1.125E0,1.935E2,1.9125E2,1.12875E2,7.875E1,4.125E0,3.15E1,6.15E1,1.0875E1,1.125E0,1.5E0,2.25E0,2.25E0,8.8125E1,2.25E0,4.5E0,1.125E0],"tree_param":{"num_deleted":"0","num_feature":"9","num_nodes":"57","size_leaf_vector":"1"}},{"base_weights":[3.3643943E-1,8.802642E-1,-4.5783132E-1,1.0743494E0,-6.5693434E-4,-6.49865E-1,-6.8716094E-2,1.3146484E0,-6.566038E-4,-6.606253E-1,6.086957E-4,1.220339E0,-4.145786E-1,6.923077E-1,1.3293543E0,-6.6423696E-4,-0E0,1.3110048E0,4E-1,-4.3855423E-1,-0E0,-1.5384616E-1,8.8372093E-1,1.6E0,1.3108186E0,6.2068963E-1,1.3617021E-3,1.2E-3,-4.3478262E-4,-4.5241037E-1,6.896552E-2,5E-1,-5E-4,-3.529412E-4,1.1764706E-4,1.4545455E-3,2.4000001E-4,1.7225434E-3,6.285715E-4,1.177243E-3,1.3539414E-3,-0E0,1.0588237E-3,-4.8044696E-4,-2.1782178E-4,1.1764706E-4,-0E0,-0E0,8.0000004E-4],"categories":[],"categories_nodes":[],"categories_segments":[],"categories_sizes":[],"default_left":[0,0,0,0,0,0,0,0,0,0,0,0,0,0,0,0,0,0,0,0,0,0,0,0,0,0,0,0,0,0,0,0,0,0,0,0,0,0,0,0,0,0,0,0,0,0,0,0,0],"id":1,"left_children":[1,3,5,7,-1,9,11,13,-1,15,-1,17,19,21,23,-1,-1,25,27,29,31,33,35,37,39,41,-1,-1,-1,43,45,47,-1,-1,-1,-1,-1,-1,-1,-1,-1,-1,-1,-1,-1,-1,-1,-1,-1],"loss_changes":[4.4077008E2,1.8135522E2,3.0965477E1,2.2464221E2,0E0,4.1635437E0,6.214273E1,3.406311E0,0E0,6.582184E-1,0E0,1.6697083E0,1.0908909E0,2.2415028E0,2.1411133E-1,0E0,0E0,6.9107056E-2,3.4434783E0,7.607994E-1,2E0,2.1719459E-1,3.601015E0,1.8933105E0,9.2181396E-1,9.858011E-1,0E0,0E0,0E0,5.604534E-1,1.2170386E-2,6E-1,0E0,0E0,0E0,0E0,0E0,0E0,0E0,0E0,0E0,0E0,0E0,0E0,0E0,0E0,0E0,0E0,0E0],"parents":[2147483647,0,0,1,1,2,2,3,3,5,5,6,6,7,7,9,9,11,11,12,12,13,13,14,14,17,17,18,18,19,19,20,20,21,21,22,22,23,23,24,24,25,25,29,29,30,30,31,31],"right_children":[2,4,6,8,-1,10,12,14,-1,16,-1,18,20,22,24,-1,-1,26,28,30,32,34,36,38,40,42,-1,-1,-1,44,46,48,-1,-1,-1,-1,-1,-1,-1,-1,-1,-1,-1,-1,-1,-1,-1,-1,-1],"split_conditions":[1.9933E2,1E0,1E0,1E0,-6.5693434E-4,1E0,6.1E-1,1.0271E2,-6.566038E-4,1E0,6.086957E-4,6.369926E9,6.3706173E9,6.3169633E9,1.0881E2,-6.6423696E-4,-0E0,6.981E1,4.0096E2,9.8043E2,6.3725184E9,5.2E-1,6.342192E9,6.2E-1,6.3271583E9,6.35472E9,1.3617021E-3,1.2E-3,-4.3478262E-4,9.5E-1,7.5E-1,4.3881E2,-5E-4,-3.529412E-4,1.1764706E-4,1.4545455E-3,2.4000001E-4,1.7225434E-3,6.285715E-4,1.177243E-3,1.3539414E-3,-0E0,1.0588237E-3,-4.8044696E-4,-2.1782178E-4,1.1764706E-4,-0E0,-0E0,8.0000004E-4],"split_indices":[6,2,1,0,0,3,5,6,0,4,0,8,8,8,6,0,0,7,7,7,8,5,8,5,8,8,0,0,0,5,5,7,0,0,0,0,0,0,0,0,0,0,0,0,0,0,0,0,0],"split_type":[0,0,0,0,0,0,0,0,0,0,0,0,0,0,0,0,0,0,0,0,0,0,0,0,0,0,0,0,0,0,0,0,0,0,0,0,0,0,0,0,0,0,0,0,0,0,0,0,0],"sum_hessian":[1.0185E3,6.045E2,4.14E2,5.37E2,6.75E1,2.7675E2,1.3725E2,4.7175E2,6.525E1,2.74875E2,1.875E0,2.85E1,1.0875E2,1.2E1,4.5975E2,2.73375E2,1.5E0,2.5125E1,3.375E0,1.0275E2,6E0,2.25E0,9.75E0,2.4E1,4.3575E2,2.625E0,2.25E1,1.5E0,1.875E0,1.00125E2,2.625E0,3E0,3E0,1.125E0,1.125E0,4.5E0,5.25E0,2.0625E1,3.375E0,1.1325E2,3.225E2,1.5E0,1.125E0,8.85E1,1.1625E1,1.125E0,1.5E0,1.5E0,1.5E0],"tree_param":{"num_deleted":"0","num_feature":"9","num_nodes":"49","size_leaf_vector":"1"}},{"base_weights":[-2.4619912E-1,-6.639495E-1,3.8378876E-1,-6.6557317E-4,-3.1578946E-1,8.159112E-1,-4.660018E-1,-4.8275862E-4,1.1764706E-4,-6.5539114E-4,1.2221568E0,-5.825603E-1,-3.4965035E-1,1.2927439E0,1.0355731E0,1.1764706E-4,-5.962264E-1,-4.144869E-1,7.2289154E-2,1.4354562E0,1.14377E0,1.1276102E0,4.5783132E-1,-4.6153846E-1,-6.5168546E-4,-3.0857143E-1,-6.322581E-4,8.0000004E-4,-1.4084508E-1,9.411765E-4,1.4779272E-3,5.840708E-4,1.2476009E-3,4.390244E-4,1.1758794E-3,-1.4634147E-4,8.8000007E-4,-4.9710984E-4,1.1764706E-4,-4.615385E-4,-1.9534885E-4,-5E-4,1.2765959E-4],"categories":[],"categories_nodes":[],"categories_segments":[],"categories_sizes":[],"default_left":[0,0,0,0,0,0,0,0,0,0,0,0,0,0,0,0,0,0,0,0,0,0,0,0,0,0,0,0,0,0,0,0,0,0,0,0,0,0,0,0,0,0,0],"id":2,"left_children":[1,3,5,-1,7,9,11,-1,-1,-1,13,15,17,19,21,-1,23,25,27,29,31,33,35,37,-1,39,-1,-1,41,-1,-1,-1,-1,-1,-1,-1,-1,-1,-1,-1,-1,-1,-1],"loss_changes":[2.6856442E2,1.3653564E-1,1.4988203E2,0E0,4.0055516E-1,1.6233212E2,1.6661339E0,0E0,0E0,0E0,1.4550476E0,7.148628E-1,1.9859972E0,1.5445557E0,2.8469772E0,0E0,1.9408607E-1,1.2378368E0,1.7218395E0,1.335907E-1,3.8187332E0,1.274437E0,2.7750573E0,5.271888E-1,0E0,6.675596E-1,0E0,0E0,9.196884E-1,0E0,0E0,0E0,0E0,0E0,0E0,0E0,0E0,0E0,0E0,0E0,0E0,0E0,0E0],"parents":[2147483647,0,0,1,1,2,2,4,4,5,5,6,6,10,10,11,11,12,12,13,13,14,14,16,16,17,17,18,18,19,19,20,20,21,21,22,22,23,23,25,25,28,28],"right_children":[2,4,6,-1,8,10,12,-1,-1,-1,14,16,18,20,22,-1,24,26,28,30,32,34,36,38,-1,40,-1,-1,42,-1,-1,-1,-1,-1,-1,-1,-1,-1,-1,-1,-1,-1,-1],"split_conditions":[2.0013E2,1.9963E2,1E0,-6.6557317E-4,7E-1,6.1E-1,7.5E-1,-4.8275862E-4,1.1764706E-4,-6.5539114E-4,5.7814E2,1.568E1,6.3658655E9,6.3440067E9,9.3E-1,1.1764706E-4,2.3156E2,6.3500544E9,6.3665567E9,6.3154944E9,1.0991E2,6.3E-1,6.6733E2,2.2972E2,-6.5168546E-4,6.3271583E9,-6.322581E-4,8.0000004E-4,6.36889E9,9.411765E-4,1.4779272E-3,5.840708E-4,1.2476009E-3,4.390244E-4,1.1758794E-3,-1.4634147E-4,8.8000007E-4,-4.9710984E-4,1.1764706E-4,-4.615385E-4,-1.9534885E-4,-5E-4,1.2765959E-4],"split_indices":[6,6,1,0,5,5,5,0,0,0,7,7,8,8,5,0,6,8,8,8,7,5,7,6,0,8,0,0,8,0,0,0,0,0,0,0,0,0,0,0,0,0,0],"split_type":[0,0,0,0,0,0,0,0,0,0,0,0,0,0,0,0,0,0,0,0,0,0,0,0,0,0,0,0,0,0,0,0,0,0,0,0,0,0,0,0,0,0,0],"sum_hessian":[1.0185E3,6.12375E2,4.06125E2,6.08625E2,3.75E0,2.6925E2,1.36875E2,2.625E0,1.125E0,5.8125E1,2.11125E2,6.6375E1,7.05E1,1.48875E2,6.225E1,1.125E0,6.525E1,6.1125E1,9.375E0,7.1625E1,7.725E1,5.2875E1,9.375E0,2.175E1,4.35E1,4.275E1,1.8375E1,1.5E0,7.875E0,7.5E0,6.4125E1,1.3125E1,6.4125E1,4.125E0,4.875E1,4.125E0,5.25E0,2.0625E1,1.125E0,1.6875E1,2.5875E1,3E0,4.875E0],"tree_param":{"num_deleted":"0","num_feature":"9","num_nodes":"43","size_leaf_vector":"1"}},{"base_weights":[-4.9534085E-1,-6.658541E-4,2.0612118E-1,-6.5612653E-4,6.0018134E-1,-6.4435153E-4,9.357798E-1,7.1428573E-1,1.0983607E0,8.165681E-1,6.451613E-2,3.6363637E-1,1.1504425E0,1.0541872E-3,4.3356646E-4,5E-4,-3.1578948E-4,7.5E-4,-4.0000002E-4,1.2622479E-3,7.2566373E-4],"categories":[],"categories_nodes":[],"categories_segments":[],"categories_sizes":[],"default_left":[0,0,0,0,0,0,0,0,0,0,0,0,0,0,0,0,0,0,0,0,0],"id":3,"left_children":[1,-1,3,-1,5,-1,7,9,11,13,15,17,19,-1,-1,-1,-1,-1,-1,-1,-1],"loss_changes":[1.22078156E2,0E0,6.8391754E1,0E0,5.8188297E1,0E0,3.140625E0,3.2038574E0,1.9158707E0,3.3880482E0,1.4414262E0,1.9227273E0,1.7673645E0,0E0,0E0,0E0,0E0,0E0,0E0,0E0,0E0],"parents":[2147483647,0,0,2,2,4,4,6,6,7,7,8,8,9,9,10,10,11,11,12,12],"right_children":[2,-1,4,-1,6,-1,8,10,12,14,16,18,20,-1,-1,-1,-1,-1,-1,-1,-1],"split_conditions":[1E0,-6.658541E-4,1.9963E2,-6.5612653E-4,6.2E-1,-6.4435153E-4,2.4365E2,9.4E-1,6.3169633E9,2.2837E2,6.3434015E9,8.2E-1,6.359731E9,1.0541872E-3,4.3356646E-4,5E-4,-3.1578948E-4,7.5E-4,-4.0000002E-4,1.2622479E-3,7.2566373E-4],"split_indices":[1,0,6,0,5,0,6,5,8,6,8,5,8,0,0,0,0,0,0,0,0],"split_type":[0,0,0,0,0,0,0,0,0,0,0,0,0,0,0,0,0,0,0,0,0],"sum_hessian":[1.0185E3,8.19375E2,1.99125E2,6.225E1,1.36875E2,2.8875E1,1.08E2,4.8E1,6E1,4.125E1,6.75E0,4.5E0,5.55E1,2.4375E1,1.6875E1,3E0,3.75E0,3E0,1.5E0,4.2375E1,1.3125E1],"tree_param":{"num_deleted":"0","num_feature":"9","num_nodes":"21","size_leaf_vector":"1"}},{"base_weights":[4.0472826E-1,2.409274E-1,1.0600144E0,2.850129E-3,9.529536E-1,1.9669577E-3,5.9499514E-1,5.3796345E-1,-8.726015E-3,1.9535604E-3,4.2473668E-1,1.935462E-3,1.6556436E-1,8.1000084E-1,-1.0527649E-1,-3.198628E-1,4.75836E-3,1.9229613E-3,4.5831542E-2,7.686722E-1,1.1332702E-1,-7.8701746E-8,9.6674144E-1,-4.3475037E-4,2.6076657E-4,-4.507182E-1,3.997384E-1,-4.793669E-2,1.1025184E-1,-1.8422559E-1,1.600173E-1,6.890632E-2,1.0900103E0,6.287944E-2,7.918019E-1,1.2180835E-3,3.4458973E-4,-5.5723474E-4,-1.6938367E-4,-1.5386967E-4,1.0581191E-3,2.5686706E-5,-1.2217877E-4,-2.85306E-5,3.0700382E-4,8.2862726E-4,-3.3835665E-4,7.993443E-5,5.679284E-4,5.8793364E-4,-3.999513E-4,4.6123867E-4,1.38337E-3,3.6429083E-5,7.686934E-4,9.0833043E-4,1.1753419E-4],"categories":[],"categories_nodes":[],"categories_segments":[],"categories_sizes":[],"default_left":[0,0,0,0,0,0,0,0,0,0,0,0,0,0,0,0,0,0,0,0,0,0,0,0,0,0,0,0,0,0,0,0,0,0,0,0,0,0,0,0,0,0,0,0,0,0,0,0,0,0,0,0,0,0,0,0,0],"id":4,"left_children":[1,3,5,7,9,-1,11,13,15,-1,17,-1,19,21,23,25,27,-1,29,31,33,-1,35,-1,-1,37,39,41,43,45,47,49,51,53,55,-1,-1,-1,-1,-1,-1,-1,-1,-1,-1,-1,-1,-1,-1,-1,-1,-1,-1,-1,-1,-1,-1],"loss_changes":[1.09203094E2,1.3851505E2,8.4713745E1,3.8042867E0,1.0739038E2,0E0,7.799538E1,2.3608196E0,2.524572E0,0E0,7.671291E1,0E0,3.193607E0,1.175096E0,6.8623453E-1,2.533787E0,3.2149181E0,0E0,2.8929367E0,1.7524681E0,3.270495E0,0E0,7.927675E-1,0E0,0E0,5.534692E-1,1.7577314E0,2.1115813E0,5.268836E0,5.997452E0,2.351767E0,1.117337E0,3.7688065E-1,1.6779572E0,4.1396427E-1,0E0,0E0,0E0,0E0,0E0,0E0,0E0,0E0,0E0,0E0,0E0,0E0,0E0,0E0,0E0,0E0,0E0,0E0,0E0,0E0,0E0,0E0],"parents":[2147483647,0,0,1,1,2,2,3,3,4,4,6,6,7,7,8,8,10,10,12,12,13,13,14,14,15,15,16,16,18,18,19,19,20,20,22,22,25,25,26,26,27,27,28,28,29,29,30,30,31,31,32,32,33,33,34,34],"right_children":[2,4,6,8,10,-1,12,14,16,-1,18,-1,20,22,24,26,28,-1,30,32,34,-1,36,-1,-1,38,40,42,44,46,48,50,52,54,56,-1,-1,-1,-1,-1,-1,-1,-1,-1,-1,-1,-1,-1,-1,-1,-1,-1,-1,-1,-1,-1,-1],"split_conditions":[1E0,1E0,2.0013E2,1.0271E2,2.0013E2,1.9669577E-3,6.1E-1,6.7875E2,1.0881E2,1.9535604E-3,6.1E-1,1.935462E-3,6.31463E9,2.5312E2,8.0416E2,6.2E-1,1E0,1.9229613E-3,6.3370947E9,2.9737E2,9.8E-1,-7.8701746E-8,5.2E-1,-4.3475037E-4,2.6076657E-4,6.8527E2,6.5411E2,6.3E-1,5.4E-1,2.0961E2,9.3E-1,6.6E-1,6.3124705E9,7.8101E2,6.3478E2,1.2180835E-3,3.4458973E-4,-5.5723474E-4,-1.6938367E-4,-1.5386967E-4,1.0581191E-3,2.5686706E-5,-1.2217877E-4,-2.85306E-5,3.0700382E-4,8.2862726E-4,-3.3835665E-4,7.993443E-5,5.679284E-4,5.8793364E-4,-3.999513E-4,4.6123867E-4,1.38337E-3,3.6429083E-5,7.686934E-4,9.0833043E-4,1.1753419E-4],"split_indices":[0,2,6,6,6,0,5,7,6,0,5,0,8,7,7,5,4,0,8,7,5,0,5,0,0,7,7,5,5,6,5,5,8,7,7,0,0,0,0,0,0,0,0,0,0,0,0,0,0,0,0,0,0,0,0,0,0],"split_type":[0,0,0,0,0,0,0,0,0,0,0,0,0,0,0,0,0,0,0,0,0,0,0,0,0,0,0,0,0,0,0,0,0,0,0,0,0,0,0,0,0,0,0,0,0,0,0,0,0,0,0,0,0,0,0,0,0],"sum_hessian":[1.01876996E3,8.161307E2,2.026393E2,6.123768E2,2.037539E2,6.758875E1,1.3505054E2,1.2004209E1,6.0037256E2,6.946577E1,1.3428813E2,3.1916441E1,1.031341E2,8.254138E0,3.7500706E0,2.3994955E1,5.763776E2,2.6283962E1,1.08004166E2,7.1275654E0,9.600654E1,1.5001968E0,6.7539415E0,1.8748358E0,1.8752347E0,2.0619139E1,3.3758175E0,3.8474115E2,1.9163647E2,3.5621643E1,7.238252E1,2.6252007E0,4.5023646E0,9.037913E1,5.627406E0,4.1283E0,2.625641E0,1.4245096E1,6.374042E0,2.2500904E0,1.1257272E0,1.9350383E2,1.9123732E2,1.1287389E2,7.876258E1,4.1267967E0,3.1494846E1,6.1503796E1,1.0878731E1,1.1254036E0,1.499797E0,2.2506666E0,2.251698E0,8.812814E1,2.2509873E0,4.5021915E0,1.1252146E0],"tree_param":{"num_deleted":"0","num_feature":"9","num_nodes":"57","size_leaf_vector":"1"}},{"base_weights":[3.3614057E-1,8.791701E-1,-4.576686E-1,1.0728785E0,-6.5678795E-4,-6.497167E-1,-6.866983E-2,1.3126419E0,-6.564566E-4,-6.6047937E-1,6.0815463E-4,1.2186764E0,-4.1442397E-1,6.915923E-1,1.3273103E0,-6.6409144E-4,-1.1004191E-7,1.3091534E0,3.9962924E-1,-4.383997E-1,6.1522165E-5,-1.5386662E-1,8.827718E-1,1.5973493E0,1.3088143E0,6.2021804E-1,1.3597049E-3,1.1989545E-3,-4.347767E-4,-4.5225593E-1,6.89739E-2,4.9981853E-1,-4.998857E-4,-3.5297574E-4,1.1766537E-4,1.4526987E-3,2.3974656E-4,1.7195449E-3,6.279505E-4,1.1755101E-3,1.3518465E-3,-1.07777424E-7,1.0580627E-3,-4.8029044E-4,-2.1772485E-4,-2.1230726E-8,1.1768993E-4,-1.1993401E-7,7.998675E-4],"categories":[],"categories_nodes":[],"categories_segments":[],"categories_sizes":[],"default_left":[0,0,0,0,0,0,0,0,0,0,0,0,0,0,0,0,0,0,0,0,0,0,0,0,0,0,0,0,0,0,0,0,0,0,0,0,0,0,0,0,0,0,0,0,0,0,0,0,0],"id":5,"left_children":[1,3,5,7,-1,9,11,13,-1,15,-1,17,19,21,23,-1,-1,25,27,29,31,33,35,37,39,41,-1,-1,-1,43,45,47,-1,-1,-1,-1,-1,-1,-1,-1,-1,-1,-1,-1,-1,-1,-1,-1,-1],"loss_changes":[4.3996808E2,1.8096268E2,3.0949257E1,2.2409161E2,0E0,4.1602783E0,6.203779E1,3.392456E0,0E0,6.5769196E-1,0E0,1.6645584E0,1.0903912E0,2.237965E0,2.1270752E-1,0E0,0E0,6.726074E-2,3.4400077E0,7.603836E-1,1.9987092E0,2.1724686E-1,3.593337E0,1.8846359E0,9.18396E-1,9.849733E-1,0E0,0E0,0E0,5.60133E-1,1.2186641E-2,6.0019255E-1,0E0,0E0,0E0,0E0,0E0,0E0,0E0,0E0,0E0,0E0,0E0,0E0,0E0,0E0,0E0,0E0,0E0],"parents":[2147483647,0,0,1,1,2,2,3,3,5,5,6,6,7,7,9,9,11,11,12,12,13,13,14,14,17,17,18,18,19,19,20,20,21,21,22,22,23,23,24,24,25,25,29,29,30,30,31,31],"right_children":[2,4,6,8,-1,10,12,14,-1,16,-1,18,20,22,24,-1,-1,26,28,30,32,34,36,38,40,42,-1,-1,-1,44,46,48,-1,-1,-1,-1,-1,-1,-1,-1,-1,-1,-1,-1,-1,-1,-1,-1,-1],"split_conditions":[1.9933E2,1E0,1E0,1E0,-6.5678795E-4,1E0,6.1E-1,1.0271E2,-6.564566E-4,1E0,6.0815463E-4,6.369926E9,6.3706173E9,6.3169633E9,1.0881E2,-6.6409144E-4,-1.1004191E-7,6.981E1,4.0096E2,9.8043E2,6.3725184E9,1.0211E2,6.342192E9,6.2E-1,6.3271583E9,6.35472E9,1.3597049E-3,1.1989545E-3,-4.347767E-4,9.5E-1,7.7E-1,6.3716547E9,-4.998857E-4,-3.5297574E-4,1.1766537E-4,1.4526987E-3,2.3974656E-4,1.7195449E-3,6.279505E-4,1.1755101E-3,1.3518465E-3,-1.07777424E-7,1.0580627E-3,-4.8029044E-4,-2.1772485E-4,-2.1230726E-8,1.1768993E-4,-1.1993401E-7,7.998675E-4],"split_indices":[6,2,1,0,0,3,5,6,0,4,0,8,8,8,6,0,0,7,7,7,8,6,8,5,8,8,0,0,0,5,5,8,0,0,0,0,0,0,0,0,0,0,0,0,0,0,0,0,0],"split_type":[0,0,0,0,0,0,0,0,0,0,0,0,0,0,0,0,0,0,0,0,0,0,0,0,0,0,0,0,0,0,0,0,0,0,0,0,0,0,0,0,0,0,0,0,0,0,0,0,0],"sum_hessian":[1.0187278E3,6.048524E2,4.1387537E2,5.3738165E2,6.747076E1,2.7663226E2,1.372431E2,4.7216003E2,6.5221596E1,2.747563E2,1.8759671E0,2.8522099E1,1.0872101E2,1.2005496E1,4.6015454E2,2.73256E2,1.5002751E0,2.5145939E1,3.3761585E0,1.0272144E2,5.999569E0,2.2500787E0,9.755417E0,2.4025503E1,4.3612903E2,2.626055E0,2.2519884E1,1.5011884E0,1.8749701E0,1.0009647E2,2.6249714E0,3.0004838E0,2.9990852E0,1.1251135E0,1.1249652E0,4.50414E0,5.251277E0,2.0648836E1,3.3766685E0,1.1334097E2,3.2278806E2,1.5002694E0,1.1257856E0,8.847304E1,1.1623435E1,1.5000529E0,1.1249185E0,1.5002997E0,1.500184E0],"tree_param":{"num_deleted":"0","num_feature":"9","num_nodes":"49","size_leaf_vector":"1"}},{"base_weights":[-2.4607727E-1,-6.638016E-1,3.834317E-1,-6.654255E-4,-3.1567746E-1,8.14935E-1,-4.658457E-1,-4.826784E-4,1.1776028E-4,-6.5524597E-4,1.2203746E0,-5.824095E-1,-3.495052E-1,1.290815E0,1.0341561E0,1.1762128E-4,-5.9607774E-1,-4.1433725E-1,7.22972E-2,1.4332118E0,1.142149E0,1.1260129E0,4.5732805E-1,-4.613763E-1,-6.515481E-4,-3.0842376E-1,-6.3213403E-4,7.9957297E-4,-1.4078009E-1,9.399986E-4,1.4755769E-3,5.8334146E-4,1.2457834E-3,4.385595E-4,1.174183E-3,-1.4640558E-4,8.7903865E-4,-4.9694825E-4,1.1759563E-4,-4.613944E-4,-1.952123E-4,-4.9990613E-4,1.2764425E-4],"categories":[],"categories_nodes":[],"categories_segments":[],"categories_sizes":[],"default_left":[0,0,0,0,0,0,0,0,0,0,0,0,0,0,0,0,0,0,0,0,0,0,0,0,0,0,0,0,0,0,0,0,0,0,0,0,0,0,0,0,0,0,0],"id":6,"left_children":[1,3,5,-1,7,9,11,-1,-1,-1,13,15,17,19,21,-1,23,25,27,29,31,33,35,37,-1,39,-1,-1,41,-1,-1,-1,-1,-1,-1,-1,-1,-1,-1,-1,-1,-1,-1],"loss_changes":[2.6830008E2,1.3653564E-1,1.4961557E2,0E0,4.0061042E-1,1.6197404E2,1.6656303E0,0E0,0E0,0E0,1.4498596E0,7.1453667E-1,1.9847803E0,1.5384979E0,2.8387146E0,0E0,1.9422722E-1,1.2377443E0,1.7203236E0,1.318512E-1,3.8083038E0,1.2704391E0,2.7710915E0,5.268378E-1,0E0,6.6743183E-1,0E0,0E0,9.19279E-1,0E0,0E0,0E0,0E0,0E0,0E0,0E0,0E0,0E0,0E0,0E0,0E0,0E0,0E0],"parents":[2147483647,0,0,1,1,2,2,4,4,5,5,6,6,10,10,11,11,12,12,13,13,14,14,16,16,17,17,18,18,19,19,20,20,21,21,22,22,23,23,25,25,28,28],"right_children":[2,4,6,-1,8,10,12,-1,-1,-1,14,16,18,20,22,-1,24,26,28,30,32,34,36,38,-1,40,-1,-1,42,-1,-1,-1,-1,-1,-1,-1,-1,-1,-1,-1,-1,-1,-1],"split_conditions":[2.0013E2,1.9963E2,1E0,-6.654255E-4,6.2292E2,6.1E-1,7.5E-1,-4.826784E-4,1.1776028E-4,-6.5524597E-4,5.7814E2,1.568E1,6.3658655E9,6.3440067E9,9.3E-1,1.1762128E-4,2.3156E2,6.3500544E9,6.3665567E9,6.3154944E9,1.0991E2,6.3E-1,6.6733E2,2.2972E2,-6.515481E-4,6.3271583E9,-6.3213403E-4,7.9957297E-4,6.36889E9,9.399986E-4,1.4755769E-3,5.8334146E-4,1.2457834E-3,4.385595E-4,1.174183E-3,-1.4640558E-4,8.7903865E-4,-4.9694825E-4,1.1759563E-4,-4.613944E-4,-1.952123E-4,-4.9990613E-4,1.2764425E-4],"split_indices":[6,6,1,0,7,5,5,0,0,0,7,7,8,8,5,0,6,8,8,8,7,5,7,6,0,8,0,0,8,0,0,0,0,0,0,0,0,0,0,0,0,0,0],"split_type":[0,0,0,0,0,0,0,0,0,0,0,0,0,0,0,0,0,0,0,0,0,0,0,0,0,0,0,0,0,0,0,0,0,0,0,0,0,0,0,0,0,0,0],"sum_hessian":[1.01833496E3,6.12105E2,4.0622998E2,6.083557E2,3.749222E0,2.693953E2,1.3683469E2,2.6244376E0,1.1247847E0,5.8100082E1,2.1129521E2,6.6350655E1,7.048404E1,1.4900116E2,6.2294044E1,1.125049E0,6.52256E1,6.1109116E1,9.374922E0,7.169197E1,7.73092E1,5.2915462E1,9.378582E0,2.1743149E1,4.3482452E1,4.2740654E1,1.8368462E1,1.5005932E0,7.8743286E0,7.5051594E0,6.418681E1,1.3131506E1,6.417769E1,4.1266556E0,4.8788807E1,4.125385E0,5.253197E0,2.0618052E1,1.1250978E0,1.6870216E1,2.587044E1,2.999249E0,4.8750796E0],"tree_param":{"num_deleted":"0","num_feature":"9","num_nodes":"43","size_leaf_vector":"1"}},{"base_weights":[-4.951758E-1,-6.6570676E-4,2.059516E-1,-6.559844E-4,5.9955156E-1,-6.4420776E-4,9.34602E-1,7.134473E-1,1.0969037E0,8.155823E-1,6.437372E-2,3.6322516E-1,1.1488936E0,1.0528424E-3,4.330602E-4,4.9957493E-4,-3.1577554E-4,7.4945344E-4,-4.0009827E-4,1.2604777E-3,7.248387E-4],"categories":[],"categories_nodes":[],"categories_segments":[],"categories_sizes":[],"default_left":[0,0,0,0,0,0,0,0,0,0,0,0,0,0,0,0,0,0,0,0,0],"id":7,"left_children":[1,-1,3,-1,5,-1,7,9,11,13,15,17,19,-1,-1,-1,-1,-1,-1,-1,-1],"loss_changes":[1.2199263E2,0E0,6.829682E1,0E0,5.808025E1,0E0,3.132225E0,3.1974506E0,1.9110718E0,3.3806267E0,1.4400958E0,1.9218378E0,1.7617416E0,0E0,0E0,0E0,0E0,0E0,0E0,0E0,0E0],"parents":[2147483647,0,0,2,2,4,4,6,6,7,7,8,8,9,9,10,10,11,11,12,12],"right_children":[2,-1,4,-1,6,-1,8,10,12,14,16,18,20,-1,-1,-1,-1,-1,-1,-1,-1],"split_conditions":[1E0,-6.6570676E-4,1.9963E2,-6.559844E-4,6.2E-1,-6.4420776E-4,2.4365E2,9.4E-1,6.3169633E9,2.2837E2,6.3434015E9,6.5411E2,6.359731E9,1.0528424E-3,4.330602E-4,4.9957493E-4,-3.1577554E-4,7.4945344E-4,-4.0009827E-4,1.2604777E-3,7.248387E-4],"split_indices":[1,0,6,0,5,0,6,5,8,6,8,7,8,0,0,0,0,0,0,0,0],"split_type":[0,0,0,0,0,0,0,0,0,0,0,0,0,0,0,0,0,0,0,0,0],"sum_hessian":[1.0181663E3,8.1901324E2,1.991531E2,6.222384E1,1.3692926E2,2.8862917E1,1.08066345E2,4.802397E1,6.004237E1,4.1272934E1,6.7510366E0,4.5016584E0,5.5540714E1,2.439162E1,1.6881313E1,3.0011337E0,3.749903E0,3.0012493E0,1.5004091E0,4.240896E1,1.3131755E1],"tree_param":{"num_deleted":"0","num_feature":"9","num_nodes":"21","size_leaf_vector":"1"}},{"base_weights":[4.0435666E-1,2.4072917E-1,1.0586067E0,2.8473928E-3,9.5172614E-1,1.9631253E-3,5.9440327E-1,5.374661E-1,-8.721836E-3,1.9497664E-3,4.2433542E-1,1.9317756E-3,1.6546267E-1,8.091981E-1,-1.05295256E-1,-3.1972557E-1,4.753993E-3,1.9193316E-3,4.579167E-2,7.6811445E-1,1.1325219E-1,-1.5732556E-7,9.6575034E-1,-4.346924E-4,2.6059366E-4,-4.505693E-1,3.994771E-1,-4.791472E-2,1.1018608E-1,-1.8415076E-1,1.5989849E-1,6.8847254E-2,1.0891131E0,6.283158E-2,7.911521E-1,1.2166835E-3,3.4434124E-4,-5.5709237E-4,-1.692757E-4,-1.538931E-4,1.0574156E-3,2.5666704E-5,-1.221208E-4,-2.8521075E-5,3.0679855E-4,8.279872E-4,-3.3825167E-4,7.9868994E-5,5.6743657E-4,5.876323E-4,-3.9990255E-4,4.6093922E-4,1.3821269E-3,3.639271E-5,7.681567E-4,9.075712E-4,1.1742144E-4],"categories":[],"categories_nodes":[],"categories_segments":[],"categories_sizes":[],"default_left":[0,0,0,0,0,0,0,0,0,0,0,0,0,0,0,0,0,0,0,0,0,0,0,0,0,0,0,0,0,0,0,0,0,0,0,0,0,0,0,0,0,0,0,0,0,0,0,0,0,0,0,0,0,0,0,0,0],"id":8,"left_children":[1,3,5,7,9,-1,11,13,15,-1,17,-1,19,21,23,25,27,-1,29,31,33,-1,35,-1,-1,37,39,41,43,45,47,49,51,53,55,-1,-1,-1,-1,-1,-1,-1,-1,-1,-1,-1,-1,-1,-1,-1,-1,-1,-1,-1,-1,-1,-1],"loss_changes":[1.08943726E2,1.3822327E2,8.439574E1,3.7985108E0,1.0701399E2,0E0,7.775511E1,2.357238E0,2.5218816E0,0E0,7.649609E1,0E0,3.1898475E0,1.1732306E0,6.8578166E-1,2.5316207E0,3.2114553E0,0E0,2.8896058E0,1.7499366E0,3.2662096E0,0E0,7.907429E-1,0E0,0E0,5.5332375E-1,1.7561893E0,2.109305E0,5.2625575E0,5.9914713E0,2.348301E0,1.116622E0,3.7614346E-1,1.6761595E0,4.1344166E-1,0E0,0E0,0E0,0E0,0E0,0E0,0E0,0E0,0E0,0E0,0E0,0E0,0E0,0E0,0E0,0E0,0E0,0E0,0E0,0E0,0E0,0E0],"parents":[2147483647,0,0,1,1,2,2,3,3,4,4,6,6,7,7,8,8,10,10,12,12,13,13,14,14,15,15,16,16,18,18,19,19,20,20,22,22,25,25,26,26,27,27,28,28,29,29,30,30,31,31,32,32,33,33,34,34],"right_children":[2,4,6,8,10,-1,12,14,16,-1,18,-1,20,22,24,26,28,-1,30,32,34,-1,36,-1,-1,38,40,42,44,46,48,50,52,54,56,-1,-1,-1,-1,-1,-1,-1,-1,-1,-1,-1,-1,-1,-1,-1,-1,-1,-1,-1,-1,-1,-1],"split_conditions":[1E0,1E0,2.0013E2,1.0271E2,2.0013E2,1.9631253E-3,6.1E-1,6.7875E2,1.0881E2,1.9497664E-3,6.1E-1,1.9317756E-3,6.31463E9,2.5312E2,8.0416E2,6.2E-1,1E0,1.9193316E-3,6.3370947E9,2.9737E2,9.8E-1,-1.5732556E-7,5.2E-1,-4.346924E-4,2.6059366E-4,6.8527E2,6.5411E2,6.3E-1,5.4E-1,2.0961E2,9.3E-1,6.6E-1,6.3124705E9,7.8101E2,6.3478E2,1.2166835E-3,3.4434124E-4,-5.5709237E-4,-1.692757E-4,-1.538931E-4,1.0574156E-3,2.5666704E-5,-1.221208E-4,-2.8521075E-5,3.0679855E-4,8.279872E-4,-3.3825167E-4,7.9868994E-5,5.6743657E-4,5.876323E-4,-3.9990255E-4,4.6093922E-4,1.3821269E-3,3.639271E-5,7.681567E-4,9.075712E-4,1.1742144E-4],"split_indices":[0,2,6,6,6,0,5,7,6,0,5,0,8,7,7,5,4,0,8,7,5,0,5,0,0,7,7,5,5,6,5,5,8,7,7,0,0,0,0,0,0,0,0,0,0,0,0,0,0,0,0,0,0,0,0,0,0],"split_type":[0,0,0,0,0,0,0,0,0,0,0,0,0,0,0,0,0,0,0,0,0,0,0,0,0,0,0,0,0,0,0,0,0,0,0,0,0,0,0,0,0,0,0,0,0,0,0,0,0,0,0,0,0,0,0,0,0],"sum_hessian":[1.01903925E3,8.162609E2,2.0277834E2,6.123784E2,2.0388249E2,6.767737E1,1.3510097E2,1.200841E1,6.0037E2,6.955631E1,1.3432617E2,3.195779E1,1.0314318E2,8.258241E0,3.75017E0,2.3989904E1,5.763801E2,2.6317852E1,1.08008316E2,7.130127E0,9.6013054E1,1.5003932E0,6.7578473E0,1.8745409E0,1.8756291E0,2.0613272E1,3.376634E0,3.8473224E2,1.9164787E2,3.561828E1,7.239004E1,2.6254008E0,4.5047264E0,9.038324E1,5.629809E0,4.1315365E0,2.626311E0,1.4240189E1,6.3730836E0,2.2501802E0,1.1264536E0,1.9350763E2,1.9122462E2,1.12872765E2,7.877511E1,4.1285906E0,3.1489689E1,6.1507584E1,1.0882456E1,1.1258069E0,1.4995939E0,2.2513328E0,2.2533934E0,8.813127E1,2.2519736E0,4.50438E0,1.1254289E0],"tree_param":{"num_deleted":"0","num_feature":"9","num_nodes":"57","size_leaf_vector":"1"}},{"base_weights":[3.358422E-1,8.780786E-1,-4.5750603E-1,1.0714114E0,-6.566416E-4,-6.4956844E-1,-6.862364E-2,1.3106413E0,-6.563096E-4,-6.603335E-1,6.076142E-4,1.2170182E0,-4.1426942E-1,6.908781E-1,1.3252723E0,-6.639461E-4,-2.0498607E-7,1.307307E0,3.9925888E-1,-4.3824524E-1,1.229987E-4,-1.5388699E-1,8.8182443E-1,1.5947071E0,1.3068157E0,6.1974686E-1,1.3577132E-3,1.1979106E-3,-4.347708E-4,-4.521015E-1,6.89823E-2,4.996372E-1,-4.997714E-4,-3.5295647E-4,1.1759097E-4,1.4508564E-3,2.3949351E-4,1.7165564E-3,6.273304E-4,1.173782E-3,1.349758E-3,-2.154959E-7,1.0573027E-3,-4.80134E-4,-2.1762792E-4,-1.594399E-8,1.17697964E-4,-1.1981484E-7,7.99519E-4],"categories":[],"categories_nodes":[],"categories_segments":[],"categories_sizes":[],"default_left":[0,0,0,0,0,0,0,0,0,0,0,0,0,0,0,0,0,0,0,0,0,0,0,0,0,0,0,0,0,0,0,0,0,0,0,0,0,0,0,0,0,0,0,0,0,0,0,0,0],"id":9,"left_children":[1,3,5,7,-1,9,11,13,-1,15,-1,17,19,21,23,-1,-1,25,27,29,31,33,35,37,39,41,-1,-1,-1,43,45,47,-1,-1,-1,-1,-1,-1,-1,-1,-1,-1,-1,-1,-1,-1,-1,-1,-1],"loss_changes":[4.3916818E2,1.8057141E2,3.093303E1,2.2354285E2,0E0,4.157028E0,6.1933113E1,3.378662E0,0E0,6.571808E-1,0E0,1.6594238E0,1.0898876E0,2.234436E0,2.1124268E-1,0E0,0E0,6.543732E-2,3.4365427E0,7.599697E-1,1.9974195E0,2.1715263E-1,3.5856838E0,1.8760147E0,9.151001E-1,9.841465E-1,0E0,0E0,0E0,5.5981445E-1,1.218638E-2,5.9971285E-1,0E0,0E0,0E0,0E0,0E0,0E0,0E0,0E0,0E0,0E0,0E0,0E0,0E0,0E0,0E0,0E0,0E0],"parents":[2147483647,0,0,1,1,2,2,3,3,5,5,6,6,7,7,9,9,11,11,12,12,13,13,14,14,17,17,18,18,19,19,20,20,21,21,22,22,23,23,24,24,25,25,29,29,30,30,31,31],"right_children":[2,4,6,8,-1,10,12,14,-1,16,-1,18,20,22,24,-1,-1,26,28,30,32,34,36,38,40,42,-1,-1,-1,44,46,48,-1,-1,-1,-1,-1,-1,-1,-1,-1,-1,-1,-1,-1,-1,-1,-1,-1],"split_conditions":[1.9933E2,1E0,1E0,1E0,-6.566416E-4,1E0,6.1E-1,1.0271E2,-6.563096E-4,1E0,6.076142E-4,6.369926E9,6.3706173E9,6.3169633E9,1.0881E2,-6.639461E-4,-2.0498607E-7,6.981E1,4.0096E2,9.8043E2,6.3725184E9,1.0211E2,6.342192E9,6.2E-1,6.3271583E9,6.35472E9,1.3577132E-3,1.1979106E-3,-4.347708E-4,9.5E-1,7.7E-1,6.3716547E9,-4.997714E-4,-3.5295647E-4,1.1759097E-4,1.4508564E-3,2.3949351E-4,1.7165564E-3,6.273304E-4,1.173782E-3,1.349758E-3,-2.154959E-7,1.0573027E-3,-4.80134E-4,-2.1762792E-4,-1.594399E-8,1.17697964E-4,-1.1981484E-7,7.99519E-4],"split_indices":[6,2,1,0,0,3,5,6,0,4,0,8,8,8,6,0,0,7,7,7,8,6,8,5,8,8,0,0,0,5,5,8,0,0,0,0,0,0,0,0,0,0,0,0,0,0,0,0,0],"split_type":[0,0,0,0,0,0,0,0,0,0,0,0,0,0,0,0,0,0,0,0,0,0,0,0,0,0,0,0,0,0,0,0,0,0,0,0,0,0,0,0,0,0,0,0,0,0,0,0,0],"sum_hessian":[1.0189548E3,6.0520404E2,4.137507E2,5.377626E2,6.7441505E1,2.7651453E2,1.3723619E2,4.7256937E2,6.5193184E1,2.7463757E2,1.8769332E0,2.8544159E1,1.08692024E2,1.2010984E1,4.6055838E2,2.7313705E2,1.5005124E0,2.5166845E1,3.377315E0,1.0269289E2,5.999138E0,2.2501566E0,9.760827E0,2.4050964E1,4.3650742E2,2.6271088E0,2.2539736E1,1.5023752E0,1.8749398E0,1.0006794E2,2.624943E0,3.0009675E0,2.9981704E0,1.1250501E0,1.1251066E0,4.508274E0,5.252553E0,2.0672628E1,3.378335E0,1.134318E2,3.2307562E2,1.5005386E0,1.1265702E0,8.8446075E1,1.162187E1,1.5000398E0,1.1249032E0,1.5002992E0,1.5006683E0],"tree_param":{"num_deleted":"0","num_feature":"9","num_nodes":"49","size_leaf_vector":"1"}},{"base_weights":[-2.4595553E-1,-6.6365385E-1,3.830754E-1,-6.65278E-4,-3.155654E-1,8.1396097E-1,-4.656895E-1,-4.8258415E-4,1.17821895E-4,-6.551009E-4,1.2185972E0,-5.8225936E-1,-3.493588E-1,1.2888914E0,1.0327425E0,1.1759555E-4,-5.959298E-1,-4.1418675E-1,7.231036E-2,1.4309742E0,1.1405321E0,1.1244196E0,4.5682555E-1,-4.6121576E-1,-6.5141125E-4,-3.0827478E-1,-6.3200993E-4,7.9914636E-4,-1.4071035E-1,9.388231E-4,1.4732342E-3,5.8261334E-4,1.2439707E-3,4.3809527E-4,1.1724907E-3,-1.4646957E-4,8.780791E-4,-4.9678824E-4,1.1754419E-4,-4.6124798E-4,-1.9507558E-4,-4.998123E-4,1.2763846E-4],"categories":[],"categories_nodes":[],"categories_segments":[],"categories_sizes":[],"default_left":[0,0,0,0,0,0,0,0,0,0,0,0,0,0,0,0,0,0,0,0,0,0,0,0,0,0,0,0,0,0,0,0,0,0,0,0,0,0,0,0,0,0,0],"id":10,"left_children":[1,3,5,-1,7,9,11,-1,-1,-1,13,15,17,19,21,-1,23,25,27,29,31,33,35,37,-1,39,-1,-1,41,-1,-1,-1,-1,-1,-1,-1,-1,-1,-1,-1,-1,-1,-1],"loss_changes":[2.6803607E2,1.3656616E-1,1.4934969E2,0E0,4.0056935E-1,1.6161711E2,1.665163E0,0E0,0E0,0E0,1.4446411E0,7.142105E-1,1.9835949E0,1.5325012E0,2.8304825E0,0E0,1.9435692E-1,1.2376604E0,1.7187889E0,1.3015747E-1,3.797905E0,1.2664642E0,2.7671356E0,5.264888E-1,0E0,6.672907E-1,0E0,0E0,9.188967E-1,0E0,0E0,0E0,0E0,0E0,0E0,0E0,0E0,0E0,0E0,0E0,0E0,0E0,0E0],"parents":[2147483647,0,0,1,1,2,2,4,4,5,5,6,6,10,10,11,11,12,12,13,13,14,14,16,16,17,17,18,18,19,19,20,20,21,21,22,22,23,23,25,25,28,28],"right_children":[2,4,6,-1,8,10,12,-1,-1,-1,14,16,18,20,22,-1,24,26,28,30,32,34,36,38,-1,40,-1,-1,42,-1,-1,-1,-1,-1,-1,-1,-1,-1,-1,-1,-1,-1,-1],"split_conditions":[2.0013E2,1.9963E2,1E0,-6.65278E-4,7E-1,6.1E-1,7.5E-1,-4.8258415E-4,1.17821895E-4,-6.551009E-4,5.7814E2,1.568E1,6.3658655E9,6.3440067E9,9.3E-1,1.1759555E-4,2.3156E2,6.3500544E9,6.3665567E9,6.3154944E9,1.0991E2,6.3E-1,6.6733E2,2.2972E2,-6.5141125E-4,6.3271583E9,-6.3200993E-4,7.9914636E-4,6.36889E9,9.388231E-4,1.4732342E-3,5.8261334E-4,1.2439707E-3,4.3809527E-4,1.1724907E-3,-1.4646957E-4,8.780791E-4,-4.9678824E-4,1.1754419E-4,-4.6124798E-4,-1.9507558E-4,-4.998123E-4,1.2763846E-4],"split_indices":[6,6,1,0,5,5,5,0,0,0,7,7,8,8,5,0,6,8,8,8,7,5,7,6,0,8,0,0,8,0,0,0,0,0,0,0,0,0,0,0,0,0,0],"split_type":[0,0,0,0,0,0,0,0,0,0,0,0,0,0,0,0,0,0,0,0,0,0,0,0,0,0,0,0,0,0,0,0,0,0,0,0,0,0,0,0,0,0,0],"sum_hessian":[1.0181695E3,6.118349E2,4.0633463E2,6.080864E2,3.748444E0,2.695403E2,1.3679433E2,2.6237764E0,1.1246676E0,5.8075157E1,2.1146515E2,6.632639E1,7.046793E1,1.4912712E2,6.2338028E1,1.1250979E0,6.5201294E1,6.109314E1,9.374793E0,7.175882E1,7.73683E1,5.2955868E1,9.382159E0,2.173636E1,4.3464935E1,4.2731224E1,1.8361916E1,1.5011858E0,7.8736076E0,7.510312E0,6.4248505E1,1.3138002E1,6.42303E1,4.1283097E0,4.882756E1,4.125769E0,5.2563896E0,2.0611166E1,1.1251956E0,1.6865353E1,2.5865871E1,2.9984975E0,4.8751097E0],"tree_param":{"num_deleted":"0","num_feature":"9","num_nodes":"43","size_leaf_vector":"1"}},{"base_weights":[-4.9501088E-1,-6.6555967E-4,2.0578222E-1,-6.5584265E-4,5.989234E-1,-6.440641E-4,9.334275E-1,7.1260977E-1,1.0954524E0,8.1459767E-1,6.42314E-2,3.6281437E-1,1.1473509E0,1.0514951E-3,4.325586E-4,4.9915037E-4,-3.1576154E-4,7.487191E-4,-4.0009292E-4,1.2587128E-3,7.2402117E-4],"categories":[],"categories_nodes":[],"categories_segments":[],"categories_sizes":[],"default_left":[0,0,0,0,0,0,0,0,0,0,0,0,0,0,0,0,0,0,0,0,0],"id":11,"left_children":[1,-1,3,-1,5,-1,7,9,11,13,15,17,19,-1,-1,-1,-1,-1,-1,-1,-1],"loss_changes":[1.21907196E2,0E0,6.820218E1,0E0,5.7972538E1,0E0,3.123909E0,3.1910572E0,1.9063416E0,3.3731136E0,1.4387674E0,1.9197857E0,1.7560501E0,0E0,0E0,0E0,0E0,0E0,0E0,0E0,0E0],"parents":[2147483647,0,0,2,2,4,4,6,6,7,7,8,8,9,9,10,10,11,11,12,12],"right_children":[2,-1,4,-1,6,-1,8,10,12,14,16,18,20,-1,-1,-1,-1,-1,-1,-1,-1],"split_conditions":[1E0,-6.6555967E-4,1.9963E2,-6.5584265E-4,6.2E-1,-6.440641E-4,2.4365E2,9.4E-1,6.3169633E9,2.2837E2,6.3434015E9,6.5411E2,6.359731E9,1.0514951E-3,4.325586E-4,4.9915037E-4,-3.1576154E-4,7.487191E-4,-4.0009292E-4,1.2587128E-3,7.2402117E-4],"split_indices":[1,0,6,0,5,0,6,5,8,6,8,7,8,0,0,0,0,0,0,0,0],"split_type":[0,0,0,0,0,0,0,0,0,0,0,0,0,0,0,0,0,0,0,0,0],"sum_hessian":[1.01783246E3,8.1865137E2,1.991811E2,6.2197727E1,1.3698338E2,2.8850834E1,1.08132545E2,4.8047928E1,6.0084618E1,4.1295853E1,6.7520723E0,4.5033154E0,5.5581303E1,2.4408283E1,1.6887571E1,3.0022662E0,3.749806E0,3.0029287E0,1.500387E0,4.2442852E1,1.3138452E1],"tree_param":{"num_deleted":"0","num_feature":"9","num_nodes":"21","size_leaf_vector":"1"}},{"base_weights":[4.0398568E-1,2.4053113E-1,1.0572037E0,2.8447139E-3,9.505014E-1,1.9593115E-3,5.938124E-1,5.369696E-1,-8.717604E-3,1.9459863E-3,4.2393482E-1,1.9281033E-3,1.6536124E-1,8.0839664E-1,-1.0531388E-1,-3.195883E-1,4.7496804E-3,1.915716E-3,4.5751933E-2,7.675577E-1,1.1317758E-1,-2.358715E-7,9.647611E-1,2.6047815E-4,-4.3466003E-4,-4.5042035E-1,3.992161E-1,-4.7892686E-2,1.10120356E-1,-1.8407585E-1,1.5977989E-1,6.878829E-2,1.0882175E0,6.278392E-2,7.905033E-1,1.2152864E-3,3.440931E-4,-5.569501E-4,-1.6916763E-4,-1.539164E-4,1.056713E-3,2.5646774E-5,-1.2206276E-4,-2.851136E-5,3.0659314E-4,8.273483E-4,-3.3814664E-4,7.98037E-5,5.669454E-4,5.873313E-4,-3.9985374E-4,4.6064015E-4,1.3808864E-3,3.635653E-5,7.676208E-4,9.0681325E-4,1.17308766E-4],"categories":[],"categories_nodes":[],"categories_segments":[],"categories_sizes":[],"default_left":[0,0,0,0,0,0,0,0,0,0,0,0,0,0,0,0,0,0,0,0,0,0,0,0,0,0,0,0,0,0,0,0,0,0,0,0,0,0,0,0,0,0,0,0,0,0,0,0,0,0,0,0,0,0,0,0,0],"id":12,"left_children":[1,3,5,7,9,-1,11,13,15,-1,17,-1,19,21,23,25,27,-1,29,31,33,-1,35,-1,-1,37,39,41,43,45,47,49,51,53,55,-1,-1,-1,-1,-1,-1,-1,-1,-1,-1,-1,-1,-1,-1,-1,-1,-1,-1,-1,-1,-1,-1],"loss_changes":[1.0868544E2,1.3793224E2,8.407973E1,3.7927454E0,1.0663942E2,0E0,7.751592E1,2.353664E0,2.5191932E0,0E0,7.62802E1,0E0,3.1860938E0,1.17137E0,6.854946E-1,2.5294564E0,3.2079928E0,0E0,2.8862782E0,1.7474113E0,3.2619302E0,0E0,7.8872585E-1,0E0,0E0,5.531788E-1,1.7546487E0,2.1070302E0,5.2562704E0,5.9854994E0,2.34484E0,1.1159074E0,3.754077E-1,1.6743637E0,4.1291904E-1,0E0,0E0,0E0,0E0,0E0,0E0,0E0,0E0,0E0,0E0,0E0,0E0,0E0,0E0,0E0,0E0,0E0,0E0,0E0,0E0,0E0,0E0],"parents":[2147483647,0,0,1,1,2,2,3,3,4,4,6,6,7,7,8,8,10,10,12,12,13,13,14,14,15,15,16,16,18,18,19,19,20,20,22,22,25,25,26,26,27,27,28,28,29,29,30,30,31,31,32,32,33,33,34,34],"right_children":[2,4,6,8,10,-1,12,14,16,-1,18,-1,20,22,24,26,28,-1,30,32,34,-1,36,-1,-1,38,40,42,44,46,48,50,52,54,56,-1,-1,-1,-1,-1,-1,-1,-1,-1,-1,-1,-1,-1,-1,-1,-1,-1,-1,-1,-1,-1,-1],"split_conditions":[1E0,1E0,2.0013E2,1.0271E2,2.0013E2,1.9593115E-3,6.1E-1,6.7875E2,1.0881E2,1.9459863E-3,6.1E-1,1.9281033E-3,6.31463E9,2.5312E2,1E0,6.2E-1,1E0,1.915716E-3,6.3370947E9,2.9737E2,9.8E-1,-2.358715E-7,5.2E-1,2.6047815E-4,-4.3466003E-4,6.8527E2,6.5411E2,6.3E-1,5.4E-1,2.0961E2,9.3E-1,6.6E-1,6.3124705E9,7.8101E2,6.3478E2,1.2152864E-3,3.440931E-4,-5.569501E-4,-1.6916763E-4,-1.539164E-4,1.056713E-3,2.5646774E-5,-1.2206276E-4,-2.851136E-5,3.0659314E-4,8.273483E-4,-3.3814664E-4,7.98037E-5,5.669454E-4,5.873313E-4,-3.9985374E-4,4.6064015E-4,1.3808864E-3,3.635653E-5,7.676208E-4,9.0681325E-4,1.17308766E-4],"split_indices":[0,2,6,6,6,0,5,7,6,0,5,0,8,7,3,5,4,0,8,7,5,0,5,0,0,7,7,5,5,6,5,5,8,7,7,0,0,0,0,0,0,0,0,0,0,0,0,0,0,0,0,0,0,0,0,0,0],"split_type":[0,0,0,0,0,0,0,0,0,0,0,0,0,0,0,0,0,0,0,0,0,0,0,0,0,0,0,0,0,0,0,0,0,0,0,0,0,0,0,0,0,0,0,0,0,0,0,0,0,0,0,0,0,0,0,0,0],"sum_hessian":[1.01930786E3,8.1639087E2,2.0291702E2,6.1238007E2,2.0401082E2,6.776573E1,1.3515129E2,1.2012607E1,6.0036743E2,6.96467E1,1.3436412E2,3.1999054E1,1.0315223E2,8.262338E0,3.7502682E0,2.398485E1,5.7638257E2,2.6351671E1,1.0801244E2,7.1326847E0,9.601955E1,1.5005896E0,6.7617483E0,1.8758922E0,1.874376E0,2.0607403E1,3.3774488E0,3.8472333E2,1.9165927E2,3.561491E1,7.239754E1,2.6255999E0,4.5070844E0,9.038734E1,5.6322093E0,4.1347685E0,2.62698E0,1.4235277E1,6.372124E0,2.25027E0,1.127179E0,1.9351141E2,1.9121191E2,1.1287163E2,7.878764E1,4.130382E0,3.1484528E1,6.151136E1,1.0886177E1,1.1262096E0,1.4993904E0,2.251998E0,2.2550867E0,8.8134384E1,2.2529585E0,4.506566E0,1.1256433E0],"tree_param":{"num_deleted":"0","num_feature":"9","num_nodes":"57","size_leaf_vector":"1"}},{"base_weights":[3.3554432E-1,8.769896E-1,-4.5734355E-1,1.0699481E0,-6.564955E-4,-6.494204E-1,-6.857751E-2,1.3086463E0,-6.5616256E-4,-6.6018784E-1,6.0707435E-4,1.2153641E0,-4.1411492E-1,6.9016516E-1,1.3232402E0,-6.6380086E-4,-3.1488756E-7,1.3054655E0,3.9888892E-1,-4.3809083E-1,1.8436355E-4,-1.5390728E-1,8.80879E-1,1.5920739E0,1.304823E0,6.192762E-1,1.3557271E-3,1.1968685E-3,-4.3476486E-4,-4.5194715E-1,6.8990715E-2,4.9945584E-1,-4.9965724E-4,-3.5293718E-4,1.17516654E-4,1.449019E-3,2.3924082E-4,1.7135788E-3,6.267113E-4,1.1720583E-3,1.3476755E-3,-3.2307204E-7,1.0565436E-3,-4.799776E-4,-2.1753104E-4,-1.803008E-8,1.1771572E-4,-1.347599E-7,7.991978E-4],"categories":[],"categories_nodes":[],"categories_segments":[],"categories_sizes":[],"default_left":[0,0,0,0,0,0,0,0,0,0,0,0,0,0,0,0,0,0,0,0,0,0,0,0,0,0,0,0,0,0,0,0,0,0,0,0,0,0,0,0,0,0,0,0,0,0,0,0,0],"id":13,"left_children":[1,3,5,7,-1,9,11,13,-1,15,-1,17,19,21,23,-1,-1,25,27,29,31,33,35,37,39,41,-1,-1,-1,43,45,47,-1,-1,-1,-1,-1,-1,-1,-1,-1,-1,-1,-1,-1,-1,-1,-1,-1],"loss_changes":[4.3837027E2,1.801814E2,3.091681E1,2.229961E2,0E0,4.1537476E0,6.1828686E1,3.3649292E0,0E0,6.56662E-1,0E0,1.6543121E0,1.089386E0,2.230916E0,2.0983887E-1,0E0,0E0,6.362152E-2,3.4330835E0,7.595539E-1,1.9961305E0,2.1705845E-1,3.5780582E0,1.8674393E0,9.116821E-1,9.8332083E-1,0E0,0E0,0E0,5.5949783E-1,1.2190716E-2,5.9931785E-1,0E0,0E0,0E0,0E0,0E0,0E0,0E0,0E0,0E0,0E0,0E0,0E0,0E0,0E0,0E0,0E0,0E0],"parents":[2147483647,0,0,1,1,2,2,3,3,5,5,6,6,7,7,9,9,11,11,12,12,13,13,14,14,17,17,18,18,19,19,20,20,21,21,22,22,23,23,24,24,25,25,29,29,30,30,31,31],"right_children":[2,4,6,8,-1,10,12,14,-1,16,-1,18,20,22,24,-1,-1,26,28,30,32,34,36,38,40,42,-1,-1,-1,44,46,48,-1,-1,-1,-1,-1,-1,-1,-1,-1,-1,-1,-1,-1,-1,-1,-1,-1],"split_conditions":[1.9933E2,1E0,1E0,1E0,-6.564955E-4,1E0,6.1E-1,1.0271E2,-6.5616256E-4,1E0,6.0707435E-4,6.369926E9,6.3706173E9,6.3169633E9,1.0881E2,-6.6380086E-4,-3.1488756E-7,6.981E1,4.0096E2,9.8043E2,6.3725184E9,1.0211E2,6.342192E9,6.2E-1,6.3271583E9,6.35472E9,1.3557271E-3,1.1968685E-3,-4.3476486E-4,9.5E-1,2.3741E2,4.3881E2,-4.9965724E-4,-3.5293718E-4,1.17516654E-4,1.449019E-3,2.3924082E-4,1.7135788E-3,6.267113E-4,1.1720583E-3,1.3476755E-3,-3.2307204E-7,1.0565436E-3,-4.799776E-4,-2.1753104E-4,-1.803008E-8,1.1771572E-4,-1.347599E-7,7.991978E-4],"split_indices":[6,2,1,0,0,3,5,6,0,4,0,8,8,8,6,0,0,7,7,7,8,6,8,5,8,8,0,0,0,5,6,7,0,0,0,0,0,0,0,0,0,0,0,0,0,0,0,0,0],"split_type":[0,0,0,0,0,0,0,0,0,0,0,0,0,0,0,0,0,0,0,0,0,0,0,0,0,0,0,0,0,0,0,0,0,0,0,0,0,0,0,0,0,0,0,0,0,0,0,0,0],"sum_hessian":[1.0191809E3,6.05555E2,4.1362595E2,5.3814276E2,6.741223E1,2.7639673E2,1.3722922E2,4.72978E2,6.516476E1,2.7451883E2,1.8778985E0,2.8566187E1,1.0866304E2,1.2016462E1,4.6096152E2,2.7301804E2,1.5007871E0,2.5187717E1,3.3784702E0,1.0266433E2,5.9987063E0,2.2502346E0,9.766228E0,2.4076372E1,4.3688516E2,2.6281617E0,2.2559555E1,1.5035608E0,1.8749094E0,1.0003941E2,2.6249144E0,3.0014508E0,2.9972558E0,1.1249866E0,1.125248E0,4.512401E0,5.2538266E0,2.0696373E1,3.3799992E0,1.13522484E2,3.2336267E2,1.5008075E0,1.1273541E0,8.841911E1,1.1620306E1,1.5000451E0,1.1248695E0,1.5003365E0,1.5011142E0],"tree_param":{"num_deleted":"0","num_feature":"9","num_nodes":"49","size_leaf_vector":"1"}},{"base_weights":[-2.4583392E-1,-6.6350627E-1,3.8271967E-1,-6.651307E-4,-3.1545332E-1,8.129891E-1,-4.6553335E-1,-4.824858E-4,1.17868454E-4,-6.549559E-4,1.2168247E0,-5.8210933E-1,-3.492124E-1,1.2869734E0,1.0313324E0,1.1756985E-4,-5.957819E-1,-4.1403627E-1,7.232355E-2,1.4287435E0,1.1389195E0,1.1228305E0,4.5632374E-1,-4.6105528E-1,-6.5127446E-4,-3.0812576E-1,-6.3188595E-4,7.987202E-4,-1.4064059E-1,9.376499E-4,1.4708985E-3,5.818863E-4,1.2421631E-3,4.3763156E-4,1.1708031E-3,-1.4653345E-4,8.771212E-4,-4.966283E-4,1.1749275E-4,-4.611016E-4,-1.9493885E-4,-4.9971853E-4,1.2763268E-4],"categories":[],"categories_nodes":[],"categories_segments":[],"categories_sizes":[],"default_left":[0,0,0,0,0,0,0,0,0,0,0,0,0,0,0,0,0,0,0,0,0,0,0,0,0,0,0,0,0,0,0,0,0,0,0,0,0,0,0,0,0,0,0],"id":14,"left_children":[1,3,5,-1,7,9,11,-1,-1,-1,13,15,17,19,21,-1,23,25,27,29,31,33,35,37,-1,39,-1,-1,41,-1,-1,-1,-1,-1,-1,-1,-1,-1,-1,-1,-1,-1,-1],"loss_changes":[2.6777246E2,1.3647461E-1,1.4908447E2,0E0,4.0050018E-1,1.6126129E2,1.6646976E0,0E0,0E0,0E0,1.4394836E0,7.1388817E-1,1.9824085E0,1.5265503E0,2.8222885E0,0E0,1.9448662E-1,1.2375793E0,1.7172561E0,1.2843323E-1,3.7875671E0,1.2625198E0,2.763187E0,5.261407E-1,0E0,6.6715E-1,0E0,0E0,9.185144E-1,0E0,0E0,0E0,0E0,0E0,0E0,0E0,0E0,0E0,0E0,0E0,0E0,0E0,0E0],"parents":[2147483647,0,0,1,1,2,2,4,4,5,5,6,6,10,10,11,11,12,12,13,13,14,14,16,16,17,17,18,18,19,19,20,20,21,21,22,22,23,23,25,25,28,28],"right_children":[2,4,6,-1,8,10,12,-1,-1,-1,14,16,18,20,22,-1,24,26,28,30,32,34,36,38,-1,40,-1,-1,42,-1,-1,-1,-1,-1,-1,-1,-1,-1,-1,-1,-1,-1,-1],"split_conditions":[2.0013E2,1.9963E2,1E0,-6.651307E-4,6.2292E2,6.1E-1,7.5E-1,-4.824858E-4,1.17868454E-4,-6.549559E-4,5.7814E2,1.568E1,6.3658655E9,6.3440067E9,9.3E-1,1.1756985E-4,2.3156E2,6.3500544E9,6.3665567E9,6.3154944E9,1.0991E2,6.3E-1,6.6733E2,2.2972E2,-6.5127446E-4,6.3271583E9,-6.3188595E-4,7.987202E-4,6.36889E9,9.376499E-4,1.4708985E-3,5.818863E-4,1.2421631E-3,4.3763156E-4,1.1708031E-3,-1.4653345E-4,8.771212E-4,-4.966283E-4,1.1749275E-4,-4.611016E-4,-1.9493885E-4,-4.9971853E-4,1.2763268E-4],"split_indices":[6,6,1,0,7,5,5,0,0,0,7,7,8,8,5,0,6,8,8,8,7,5,7,6,0,8,0,0,8,0,0,0,0,0,0,0,0,0,0,0,0,0,0],"split_type":[0,0,0,0,0,0,0,0,0,0,0,0,0,0,0,0,0,0,0,0,0,0,0,0,0,0,0,0,0,0,0,0,0,0,0,0,0,0,0,0,0,0,0],"sum_hessian":[1.0180037E3,6.1156476E2,4.0643896E2,6.0781714E2,3.7476654E0,2.69685E2,1.3675397E2,2.6230865E0,1.124579E0,5.8050213E1,2.1163478E2,6.630213E1,7.045183E1,1.4925285E2,6.2381935E1,1.1251467E0,6.517699E1,6.1077164E1,9.374664E0,7.182555E1,7.74273E1,5.2996204E1,9.385731E0,2.1729574E1,4.344741E1,4.2721794E1,1.8355368E1,1.5017779E0,7.872886E0,7.5154576E0,6.431009E1,1.3144492E1,6.428281E1,4.129962E0,4.886624E1,4.1261525E0,5.259578E0,2.060428E1,1.1252934E0,1.686049E1,2.5861305E1,2.9977462E0,4.8751397E0],"tree_param":{"num_deleted":"0","num_feature":"9","num_nodes":"43","size_leaf_vector":"1"}},{"base_weights":[-4.9484608E-1,-6.6541263E-4,2.05613E-1,-6.55701E-4,5.982963E-1,-6.439206E-4,9.3225557E-1,7.117738E-1,1.0940044E0,8.13615E-1,6.4089246E-2,3.6240408E-1,1.1458119E0,1.050151E-3,4.3205766E-4,4.9872627E-4,-3.1574751E-4,7.481583E-4,-4.0018247E-4,1.2569525E-3,7.232049E-4],"categories":[],"categories_nodes":[],"categories_segments":[],"categories_sizes":[],"default_left":[0,0,0,0,0,0,0,0,0,0,0,0,0,0,0,0,0,0,0,0,0],"id":15,"left_children":[1,-1,3,-1,5,-1,7,9,11,13,15,17,19,-1,-1,-1,-1,-1,-1,-1,-1],"loss_changes":[1.2182179E2,0E0,6.8107704E1,0E0,5.7865093E1,0E0,3.115631E0,3.1846848E0,1.9016113E0,3.3656235E0,1.4374403E0,1.9188018E0,1.750412E0,0E0,0E0,0E0,0E0,0E0,0E0,0E0,0E0],"parents":[2147483647,0,0,2,2,4,4,6,6,7,7,8,8,9,9,10,10,11,11,12,12],"right_children":[2,-1,4,-1,6,-1,8,10,12,14,16,18,20,-1,-1,-1,-1,-1,-1,-1,-1],"split_conditions":[1E0,-6.6541263E-4,1.9963E2,-6.55701E-4,6.2E-1,-6.439206E-4,2.4365E2,9.4E-1,6.3169633E9,2.2837E2,6.3434015E9,8.2E-1,6.359731E9,1.050151E-3,4.3205766E-4,4.9872627E-4,-3.1574751E-4,7.481583E-4,-4.0018247E-4,1.2569525E-3,7.232049E-4],"split_indices":[1,0,6,0,5,0,6,5,8,6,8,5,8,0,0,0,0,0,0,0,0],"split_type":[0,0,0,0,0,0,0,0,0,0,0,0,0,0,0,0,0,0,0,0,0],"sum_hessian":[1.0174985E3,8.182894E2,1.99209E2,6.217161E1,1.370374E2,2.8838749E1,1.0819865E2,4.8071846E1,6.0126797E1,4.131874E1,6.753106E0,4.5049706E0,5.5621826E1,2.4424921E1,1.6893822E1,3.0033977E0,3.7497084E0,3.0042112E0,1.5007594E0,4.247669E1,1.3145141E1],"tree_param":{"num_deleted":"0","num_feature":"9","num_nodes":"21","size_leaf_vector":"1"}},{"base_weights":[4.0361533E-1,2.4033357E-1,1.0558034E0,2.8422403E-3,9.4928014E-1,1.9555101E-3,5.932227E-1,5.364738E-1,-8.713168E-3,1.9422232E-3,4.2353496E-1,1.9244457E-3,1.6525996E-1,8.075967E-1,-1.05332434E-1,-3.1945097E-1,4.7455803E-3,1.9121147E-3,4.5712408E-2,7.670016E-1,1.13103114E-1,-3.1427408E-7,9.637737E-1,2.6030568E-4,-4.3460197E-4,-4.502714E-1,3.9895526E-1,-4.7870517E-2,1.1005504E-1,-1.840009E-1,1.5966162E-1,6.8729416E-2,1.0873233E0,6.2736355E-2,7.898556E-1,1.2138924E-3,3.4384525E-4,-5.568078E-4,-1.6905948E-4,-1.5393968E-4,1.0560113E-3,2.5627058E-5,-1.2200466E-4,-2.8501483E-5,3.0638857E-4,8.267103E-4,-3.3804157E-4,7.973869E-5,5.6645507E-4,5.8703055E-4,-3.9980494E-4,4.6034143E-4,1.3796482E-3,3.632044E-5,7.670856E-4,9.060566E-4,1.1719622E-4],"categories":[],"categories_nodes":[],"categories_segments":[],"categories_sizes":[],"default_left":[0,0,0,0,0,0,0,0,0,0,0,0,0,0,0,0,0,0,0,0,0,0,0,0,0,0,0,0,0,0,0,0,0,0,0,0,0,0,0,0,0,0,0,0,0,0,0,0,0,0,0,0,0,0,0,0,0],"id":16,"left_children":[1,3,5,7,9,-1,11,13,15,-1,17,-1,19,21,23,25,27,-1,29,31,33,-1,35,-1,-1,37,39,41,43,45,47,49,51,53,55,-1,-1,-1,-1,-1,-1,-1,-1,-1,-1,-1,-1,-1,-1,-1,-1,-1,-1,-1,-1,-1,-1],"loss_changes":[1.08427795E2,1.3764212E2,8.376518E1,3.7869883E0,1.06267044E2,0E0,7.727783E1,2.3500965E0,2.5165088E0,0E0,7.606523E1,0E0,3.1823463E0,1.1695147E0,6.850425E-1,2.5272937E0,3.2045422E0,0E0,2.8829567E0,1.7448916E0,3.2576594E0,0E0,7.8671646E-1,0E0,0E0,5.530329E-1,1.7531099E0,2.1047604E0,5.2500067E0,5.9795346E0,2.341385E0,1.1151935E0,3.7467432E-1,1.6725705E0,4.123993E-1,0E0,0E0,0E0,0E0,0E0,0E0,0E0,0E0,0E0,0E0,0E0,0E0,0E0,0E0,0E0,0E0,0E0,0E0,0E0,0E0,0E0,0E0],"parents":[2147483647,0,0,1,1,2,2,3,3,4,4,6,6,7,7,8,8,10,10,12,12,13,13,14,14,15,15,16,16,18,18,19,19,20,20,22,22,25,25,26,26,27,27,28,28,29,29,30,30,31,31,32,32,33,33,34,34],"right_children":[2,4,6,8,10,-1,12,14,16,-1,18,-1,20,22,24,26,28,-1,30,32,34,-1,36,-1,-1,38,40,42,44,46,48,50,52,54,56,-1,-1,-1,-1,-1,-1,-1,-1,-1,-1,-1,-1,-1,-1,-1,-1,-1,-1,-1,-1,-1,-1],"split_conditions":[1E0,1E0,2.0013E2,1.0271E2,2.0013E2,1.9555101E-3,6.1E-1,6.7875E2,1.0881E2,1.9422232E-3,6.1E-1,1.9244457E-3,6.31463E9,2.5312E2,1E0,6.2E-1,1E0,1.9121147E-3,6.3370947E9,2.9737E2,9.8E-1,-3.1427408E-7,5.2E-1,2.6030568E-4,-4.3460197E-4,6.8527E2,6.5411E2,6.3E-1,5.4E-1,2.0961E2,9.3E-1,6.6E-1,6.3124705E9,7.8101E2,6.3478E2,1.2138924E-3,3.4384525E-4,-5.568078E-4,-1.6905948E-4,-1.5393968E-4,1.0560113E-3,2.5627058E-5,-1.2200466E-4,-2.8501483E-5,3.0638857E-4,8.267103E-4,-3.3804157E-4,7.973869E-5,5.6645507E-4,5.8703055E-4,-3.9980494E-4,4.6034143E-4,1.3796482E-3,3.632044E-5,7.670856E-4,9.060566E-4,1.1719622E-4],"split_indices":[0,2,6,6,6,0,5,7,6,0,5,0,8,7,3,5,4,0,8,7,5,0,5,0,0,7,7,5,5,6,5,5,8,7,7,0,0,0,0,0,0,0,0,0,0,0,0,0,0,0,0,0,0,0,0,0,0],"split_type":[0,0,0,0,0,0,0,0,0,0,0,0,0,0,0,0,0,0,0,0,0,0,0,0,0,0,0,0,0,0,0,0,0,0,0,0,0,0,0,0,0,0,0,0,0,0,0,0,0,0,0,0,0,0,0,0,0],"sum_hessian":[1.0195758E3,8.165203E2,2.0305547E2,6.1238153E2,2.0413881E2,6.7853966E1,1.3520149E2,1.2016794E1,6.0036475E2,6.973685E1,1.3440198E2,3.204023E1,1.0316126E2,8.266429E0,3.7503657E0,2.397979E1,5.7638495E2,2.6385418E1,1.08016556E2,7.1352386E0,9.6026024E1,1.5007855E0,6.7656436E0,1.8762853E0,1.8740804E0,2.0601526E1,3.378263E0,3.8471432E2,1.9167061E2,3.5611534E1,7.240502E1,2.625799E0,4.50944E0,9.039142E1,5.634606E0,4.1379957E0,2.6276479E0,1.4230364E1,6.3711634E0,2.2503593E0,1.1279038E0,1.9351515E2,1.9119917E2,1.12870476E2,7.880013E1,4.1321716E0,3.1479362E1,6.1515125E1,1.0889894E1,1.1266121E0,1.4991868E0,2.2526624E0,2.2567773E0,8.813748E1,2.2539425E0,4.508749E0,1.125857E0],"tree_param":{"num_deleted":"0","num_feature":"9","num_nodes":"57","size_leaf_vector":"1"}},{"base_weights":[3.3524686E-1,8.759032E-1,-4.571812E-1,1.0684885E0,-6.5634935E-4,-6.4927244E-1,-6.8531446E-2,1.3066571E0,-6.560157E-4,-6.600423E-1,6.0653506E-4,1.2137144E0,-4.139605E-1,6.894534E-1,1.3212138E0,-6.636558E-4,-4.096261E-7,1.303629E0,3.9851928E-1,-4.3793646E-1,2.4571258E-4,-1.5392745E-1,8.799352E-1,1.5894492E0,1.302836E0,6.1880594E-1,1.3537467E-3,1.1958277E-3,-4.3475884E-4,-4.5179284E-1,6.899914E-2,4.9927467E-1,-4.9954315E-4,-3.5291785E-4,1.1744253E-4,1.447186E-3,2.3898842E-4,1.7106114E-3,6.2609307E-4,1.1703393E-3,1.3455991E-3,-4.3062505E-7,1.0557853E-3,-4.7982126E-4,-2.174342E-4,-1.4149943E-8,1.1772565E-4,-2.3954743E-7,7.990384E-4],"categories":[],"categories_nodes":[],"categories_segments":[],"categories_sizes":[],"default_left":[0,0,0,0,0,0,0,0,0,0,0,0,0,0,0,0,0,0,0,0,0,0,0,0,0,0,0,0,0,0,0,0,0,0,0,0,0,0,0,0,0,0,0,0,0,0,0,0,0],"id":17,"left_children":[1,3,5,7,-1,9,11,13,-1,15,-1,17,19,21,23,-1,-1,25,27,29,31,33,35,37,39,41,-1,-1,-1,43,45,47,-1,-1,-1,-1,-1,-1,-1,-1,-1,-1,-1,-1,-1,-1,-1,-1,-1],"loss_changes":[4.3757437E2,1.7979254E2,3.0900604E1,2.2245123E2,0E0,4.1504974E0,6.1724503E1,3.3512573E0,0E0,6.561508E-1,0E0,1.6492271E0,1.0888824E0,2.2274027E0,2.0843506E-1,0E0,0E0,6.181717E-2,3.4296298E0,7.591419E-1,1.9948425E0,2.1696442E-1,3.5704584E0,1.8589325E0,9.0838623E-1,9.8249686E-1,0E0,0E0,0E0,5.591812E-1,1.2191342E-2,5.994257E-1,0E0,0E0,0E0,0E0,0E0,0E0,0E0,0E0,0E0,0E0,0E0,0E0,0E0,0E0,0E0,0E0,0E0],"parents":[2147483647,0,0,1,1,2,2,3,3,5,5,6,6,7,7,9,9,11,11,12,12,13,13,14,14,17,17,18,18,19,19,20,20,21,21,22,22,23,23,24,24,25,25,29,29,30,30,31,31],"right_children":[2,4,6,8,-1,10,12,14,-1,16,-1,18,20,22,24,-1,-1,26,28,30,32,34,36,38,40,42,-1,-1,-1,44,46,48,-1,-1,-1,-1,-1,-1,-1,-1,-1,-1,-1,-1,-1,-1,-1,-1,-1],"split_conditions":[1.9933E2,1E0,1E0,1E0,-6.5634935E-4,1E0,6.1E-1,1.0271E2,-6.560157E-4,1E0,6.0653506E-4,6.369926E9,6.3706173E9,6.3169633E9,1.0881E2,-6.636558E-4,-4.096261E-7,6.981E1,4.0096E2,9.8043E2,6.3725184E9,1.0211E2,6.342192E9,6.2E-1,6.3271583E9,6.35472E9,1.3537467E-3,1.1958277E-3,-4.3475884E-4,9.5E-1,7.7E-1,6.3716547E9,-4.9954315E-4,-3.5291785E-4,1.1744253E-4,1.447186E-3,2.3898842E-4,1.7106114E-3,6.2609307E-4,1.1703393E-3,1.3455991E-3,-4.3062505E-7,1.0557853E-3,-4.7982126E-4,-2.174342E-4,-1.4149943E-8,1.1772565E-4,-2.3954743E-7,7.990384E-4],"split_indices":[6,2,1,0,0,3,5,6,0,4,0,8,8,8,6,0,0,7,7,7,8,6,8,5,8,8,0,0,0,5,5,8,0,0,0,0,0,0,0,0,0,0,0,0,0,0,0,0,0],"split_type":[0,0,0,0,0,0,0,0,0,0,0,0,0,0,0,0,0,0,0,0,0,0,0,0,0,0,0,0,0,0,0,0,0,0,0,0,0,0,0,0,0,0,0,0,0,0,0,0,0],"sum_hessian":[1.0194063E3,6.0590515E2,4.1350116E2,5.385222E2,6.738296E1,2.7627893E2,1.3722223E2,4.733859E2,6.5136314E1,2.744001E2,1.8788629E0,2.8588177E1,1.0863405E2,1.2021933E1,4.6136398E2,2.7289905E2,1.5010239E0,2.5208553E1,3.3796241E0,1.0263577E2,5.998275E0,2.2503119E0,9.771621E0,2.4101732E1,4.3726224E2,2.6292138E0,2.257934E1,1.504745E0,1.8748791E0,1.0001089E2,2.6248858E0,3.0019338E0,2.9963412E0,1.124923E0,1.1253889E0,4.5165215E0,5.2550993E0,2.072007E1,3.381662E0,1.13613014E2,3.2364923E2,1.5010765E0,1.1281372E0,8.839215E1,1.1618741E1,1.5000353E0,1.1248505E0,1.500598E0,1.5013357E0],"tree_param":{"num_deleted":"0","num_feature":"9","num_nodes":"49","size_leaf_vector":"1"}},{"base_weights":[-2.4571244E-1,-6.633588E-1,3.8236427E-1,-6.649834E-4,-3.1534117E-1,8.120194E-1,-4.6537745E-1,-4.8240967E-4,1.17997035E-4,-6.54811E-4,1.2150568E0,-5.819589E-1,-3.4906724E-1,1.2850604E0,1.0299253E0,1.1754423E-4,-5.956337E-1,-4.1388658E-1,7.233155E-2,1.4265194E0,1.1373109E0,1.1212451E0,4.5582268E-1,-4.608937E-1,-6.511375E-4,-3.0797794E-1,-6.317622E-4,7.982944E-4,-1.4057569E-1,9.3647925E-4,1.4685701E-3,5.8116054E-4,1.2403603E-3,4.3716852E-4,1.1691197E-3,-1.4659726E-4,8.7616505E-4,-4.964673E-4,1.1744137E-4,-4.6095744E-4,-1.9480215E-4,-4.996247E-4,1.2761731E-4],"categories":[],"categories_nodes":[],"categories_segments":[],"categories_sizes":[],"default_left":[0,0,0,0,0,0,0,0,0,0,0,0,0,0,0,0,0,0,0,0,0,0,0,0,0,0,0,0,0,0,0,0,0,0,0,0,0,0,0,0,0,0,0],"id":18,"left_children":[1,3,5,-1,7,9,11,-1,-1,-1,13,15,17,19,21,-1,23,25,27,29,31,33,35,37,-1,39,-1,-1,41,-1,-1,-1,-1,-1,-1,-1,-1,-1,-1,-1,-1,-1,-1],"loss_changes":[2.6750897E2,1.3650513E-1,1.4881998E2,0E0,4.0058392E-1,1.6090656E2,1.6642036E0,0E0,0E0,0E0,1.4343872E0,7.135639E-1,1.9811926E0,1.5205841E0,2.8141327E0,0E0,1.9462204E-1,1.2374887E0,1.715745E0,1.2675476E-1,3.7772675E0,1.2585831E0,2.7592487E0,5.257907E-1,0E0,6.6702366E-1,0E0,0E0,9.181057E-1,0E0,0E0,0E0,0E0,0E0,0E0,0E0,0E0,0E0,0E0,0E0,0E0,0E0,0E0],"parents":[2147483647,0,0,1,1,2,2,4,4,5,5,6,6,10,10,11,11,12,12,13,13,14,14,16,16,17,17,18,18,19,19,20,20,21,21,22,22,23,23,25,25,28,28],"right_children":[2,4,6,-1,8,10,12,-1,-1,-1,14,16,18,20,22,-1,24,26,28,30,32,34,36,38,-1,40,-1,-1,42,-1,-1,-1,-1,-1,-1,-1,-1,-1,-1,-1,-1,-1,-1],"split_conditions":[2.0013E2,1.9963E2,1E0,-6.649834E-4,7E-1,6.1E-1,7.5E-1,-4.8240967E-4,1.17997035E-4,-6.54811E-4,5.7814E2,1.568E1,6.3658655E9,6.3440067E9,9.3E-1,1.1754423E-4,2.3156E2,6.3500544E9,6.3665567E9,6.3154944E9,1.0991E2,6.3E-1,6.6733E2,2.2972E2,-6.511375E-4,6.3271583E9,-6.317622E-4,7.982944E-4,6.36889E9,9.3647925E-4,1.4685701E-3,5.8116054E-4,1.2403603E-3,4.3716852E-4,1.1691197E-3,-1.4659726E-4,8.7616505E-4,-4.964673E-4,1.1744137E-4,-4.6095744E-4,-1.9480215E-4,-4.996247E-4,1.2761731E-4],"split_indices":[6,6,1,0,5,5,5,0,0,0,7,7,8,8,5,0,6,8,8,8,7,5,7,6,0,8,0,0,8,0,0,0,0,0,0,0,0,0,0,0,0,0,0],"split_type":[0,0,0,0,0,0,0,0,0,0,0,0,0,0,0,0,0,0,0,0,0,0,0,0,0,0,0,0,0,0,0,0,0,0,0,0,0,0,0,0,0,0,0],"sum_hessian":[1.0178376E3,6.1129456E2,4.0654306E2,6.0754767E2,3.746886E0,2.698294E2,1.3671365E2,2.6225517E0,1.1243345E0,5.8025257E1,2.1180415E2,6.6277794E1,7.043585E1,1.4937837E2,6.2425777E1,1.1251955E0,6.5152596E1,6.1061268E1,9.374584E0,7.189216E1,7.748621E1,5.303648E1,9.3892975E0,2.1722736E1,4.3429863E1,4.271244E1,1.834883E1,1.5023696E0,7.872215E0,7.5205956E0,6.437157E1,1.3150974E1,6.433524E1,4.1316123E0,4.890487E1,4.1265354E0,5.2627625E0,2.0597345E1,1.125391E0,1.68557E1,2.5856739E1,2.996995E0,4.87522E0],"tree_param":{"num_deleted":"0","num_feature":"9","num_nodes":"43","size_leaf_vector":"1"}},{"base_weights":[-4.9468142E-1,-6.652658E-4,2.0544402E-1,-6.5555924E-4,5.9766966E-1,-6.4377725E-4,9.310852E-1,7.109393E-1,1.0925584E0,8.126342E-1,6.394723E-2,3.6199424E-1,1.144275E0,1.0488138E-3,4.3155346E-4,4.9830263E-4,-3.157335E-4,7.4744143E-4,-4.0018564E-4,1.255197E-3,7.223842E-4],"categories":[],"categories_nodes":[],"categories_segments":[],"categories_sizes":[],"default_left":[0,0,0,0,0,0,0,0,0,0,0,0,0,0,0,0,0,0,0,0,0],"id":19,"left_children":[1,-1,3,-1,5,-1,7,9,11,13,15,17,19,-1,-1,-1,-1,-1,-1,-1,-1],"loss_changes":[1.2173648E2,0E0,6.801328E1,0E0,5.7757866E1,0E0,3.1073685E0,3.1783295E0,1.8968811E0,3.3582706E0,1.436115E0,1.9168516E0,1.7448959E0,0E0,0E0,0E0,0E0,0E0,0E0,0E0,0E0],"parents":[2147483647,0,0,2,2,4,4,6,6,7,7,8,8,9,9,10,10,11,11,12,12],"right_children":[2,-1,4,-1,6,-1,8,10,12,14,16,18,20,-1,-1,-1,-1,-1,-1,-1,-1],"split_conditions":[1E0,-6.652658E-4,1.9963E2,-6.5555924E-4,6.2E-1,-6.4377725E-4,2.4365E2,9.4E-1,6.3169633E9,2.2837E2,6.3434015E9,6.5411E2,6.359731E9,1.0488138E-3,4.3155346E-4,4.9830263E-4,-3.157335E-4,7.4744143E-4,-4.0018564E-4,1.255197E-3,7.223842E-4],"split_indices":[1,0,6,0,5,0,6,5,8,6,8,7,8,0,0,0,0,0,0,0,0],"split_type":[0,0,0,0,0,0,0,0,0,0,0,0,0,0,0,0,0,0,0,0,0],"sum_hessian":[1.0171643E3,8.179275E2,1.992368E2,6.2145435E1,1.3709137E2,2.8826662E1,1.082647E2,4.8095737E1,6.016896E1,4.13416E1,6.754139E0,4.5066237E0,5.566234E1,2.4441484E1,1.6900116E1,3.004528E0,3.749611E0,3.0058515E0,1.5007724E0,4.2510468E1,1.3151871E1],"tree_param":{"num_deleted":"0","num_feature":"9","num_nodes":"21","size_leaf_vector":"1"}},{"base_weights":[4.0324557E-1,2.4013618E-1,1.0544076E0,2.8398107E-3,9.480615E-1,1.9517277E-3,5.92634E-1,5.359788E-1,-8.708692E-3,1.9384737E-3,4.2313573E-1,1.9208028E-3,1.6515897E-1,8.0679804E-1,-1.0535085E-1,-3.1931365E-1,4.741524E-3,1.9085275E-3,4.567302E-2,7.664464E-1,1.13028914E-1,-3.92569E-7,9.6278816E-1,-4.345695E-4,2.6019054E-4,-4.501224E-1,3.9869484E-1,-4.7848266E-2,1.0998968E-1,-1.8392584E-1,1.5954354E-1,6.867066E-2,1.0864307E0,6.2689066E-2,7.892088E-1,1.2125013E-3,3.4359776E-4,-5.566655E-4,-1.6895126E-4,-1.5396287E-4,1.0553105E-3,2.560746E-5,-1.2194651E-4,-2.8491533E-5,3.0618382E-4,8.2607346E-4,-3.379364E-4,7.967383E-5,5.659654E-4,5.867302E-4,-3.997561E-4,4.6004303E-4,1.3784126E-3,3.6284615E-5,7.665512E-4,9.053012E-4,1.170838E-4],"categories":[],"categories_nodes":[],"categories_segments":[],"categories_sizes":[],"default_left":[0,0,0,0,0,0,0,0,0,0,0,0,0,0,0,0,0,0,0,0,0,0,0,0,0,0,0,0,0,0,0,0,0,0,0,0,0,0,0,0,0,0,0,0,0,0,0,0,0,0,0,0,0,0,0,0,0],"id":20,"left_children":[1,3,5,7,9,-1,11,13,15,-1,17,-1,19,21,23,25,27,-1,29,31,33,-1,35,-1,-1,37,39,41,43,45,47,49,51,53,55,-1,-1,-1,-1,-1,-1,-1,-1,-1,-1,-1,-1,-1,-1,-1,-1,-1,-1,-1,-1,-1,-1],"loss_changes":[1.0817119E2,1.3735269E2,8.345268E1,3.7812397E0,1.0589635E2,0E0,7.704083E1,2.3465374E0,2.5138261E0,0E0,7.5851166E1,0E0,3.178602E0,1.167664E0,6.847559E-1,2.525133E0,3.2010887E0,0E0,2.8796387E0,1.7423773E0,3.253394E0,0E0,7.8471184E-1,0E0,0E0,5.528879E-1,1.7515739E0,2.1024935E0,5.243738E0,5.9735775E0,2.3379352E0,1.1144801E0,3.7394333E-1,1.6707792E0,4.1187954E-1,0E0,0E0,0E0,0E0,0E0,0E0,0E0,0E0,0E0,0E0,0E0,0E0,0E0,0E0,0E0,0E0,0E0,0E0,0E0,0E0,0E0,0E0],"parents":[2147483647,0,0,1,1,2,2,3,3,4,4,6,6,7,7,8,8,10,10,12,12,13,13,14,14,15,15,16,16,18,18,19,19,20,20,22,22,25,25,26,26,27,27,28,28,29,29,30,30,31,31,32,32,33,33,34,34],"right_children":[2,4,6,8,10,-1,12,14,16,-1,18,-1,20,22,24,26,28,-1,30,32,34,-1,36,-1,-1,38,40,42,44,46,48,50,52,54,56,-1,-1,-1,-1,-1,-1,-1,-1,-1,-1,-1,-1,-1,-1,-1,-1,-1,-1,-1,-1,-1,-1],"split_conditions":[1E0,1E0,2.0013E2,1.0271E2,2.0013E2,1.9517277E-3,6.1E-1,6.7875E2,1.0881E2,1.9384737E-3,6.1E-1,1.9208028E-3,6.31463E9,2.5312E2,8.0416E2,6.2E-1,1E0,1.9085275E-3,6.3370947E9,2.9737E2,9.8E-1,-3.92569E-7,5.2E-1,-4.345695E-4,2.6019054E-4,6.8527E2,6.5411E2,6.3E-1,5.4E-1,2.0961E2,9.3E-1,6.6E-1,6.3124705E9,7.8101E2,6.3478E2,1.2125013E-3,3.4359776E-4,-5.566655E-4,-1.6895126E-4,-1.5396287E-4,1.0553105E-3,2.560746E-5,-1.2194651E-4,-2.8491533E-5,3.0618382E-4,8.2607346E-4,-3.379364E-4,7.967383E-5,5.659654E-4,5.867302E-4,-3.997561E-4,4.6004303E-4,1.3784126E-3,3.6284615E-5,7.665512E-4,9.053012E-4,1.170838E-4],"split_indices":[0,2,6,6,6,0,5,7,6,0,5,0,8,7,7,5,4,0,8,7,5,0,5,0,0,7,7,5,5,6,5,5,8,7,7,0,0,0,0,0,0,0,0,0,0,0,0,0,0,0,0,0,0,0,0,0,0],"split_type":[0,0,0,0,0,0,0,0,0,0,0,0,0,0,0,0,0,0,0,0,0,0,0,0,0,0,0,0,0,0,0,0,0,0,0,0,0,0,0,0,0,0,0,0,0,0,0,0,0,0,0,0,0,0,0,0,0],"sum_hessian":[1.019843E3,8.166495E2,2.0319351E2,6.1238293E2,2.0426656E2,6.794193E1,1.3525159E2,1.2020977E1,6.0036194E2,6.982683E1,1.3443973E2,3.208131E1,1.0317027E2,8.2705145E0,3.7504623E0,2.3974728E1,5.763872E2,2.6419092E1,1.0802064E2,7.1377892E0,9.6032486E1,1.5009812E0,6.769533E0,1.8739147E0,1.8765476E0,2.0595652E1,3.379076E0,3.847053E2,1.9168193E2,3.5608154E1,7.241248E1,2.6259973E0,4.511792E0,9.0395485E1,5.6369996E0,4.141218E0,2.6283152E0,1.422545E1,6.3702016E0,2.2504482E0,1.1286279E0,1.9351886E2,1.9118643E2,1.1286931E2,7.881263E1,4.1339583E0,3.1474195E1,6.1518875E1,1.0893605E1,1.127014E0,1.4989831E0,2.2533264E0,2.258466E0,8.8140564E1,2.2549253E0,4.510929E0,1.1260707E0],"tree_param":{"num_deleted":"0","num_feature":"9","num_nodes":"57","size_leaf_vector":"1"}},{"base_weights":[3.349499E-1,8.748193E-1,-4.5701897E-1,1.0670326E0,-6.562033E-4,-6.491246E-1,-6.8485476E-2,1.3046736E0,-6.558689E-4,-6.598969E-1,6.059965E-4,1.2120687E0,-4.138061E-1,6.8874294E-1,1.3191935E0,-6.6351076E-4,-5.193041E-7,1.3017974E0,3.9815006E-1,-4.3778214E-1,3.0698828E-4,-1.5394753E-1,8.789932E-1,1.586833E0,1.3008544E0,6.183363E-1,1.3517716E-3,1.194789E-3,-4.3475282E-4,-4.516386E-1,6.900758E-2,4.9909356E-1,-4.9942906E-4,-3.5289847E-4,1.1736849E-4,1.4453577E-3,2.3873636E-4,1.7076546E-3,6.254757E-4,1.1686247E-3,1.3435287E-3,-5.3802404E-7,1.0550283E-3,-4.79665E-4,-2.1733738E-4,-1.5228757E-8,1.1774212E-4,-2.3941638E-7,7.986905E-4],"categories":[],"categories_nodes":[],"categories_segments":[],"categories_sizes":[],"default_left":[0,0,0,0,0,0,0,0,0,0,0,0,0,0,0,0,0,0,0,0,0,0,0,0,0,0,0,0,0,0,0,0,0,0,0,0,0,0,0,0,0,0,0,0,0,0,0,0,0],"id":21,"left_children":[1,3,5,7,-1,9,11,13,-1,15,-1,17,19,21,23,-1,-1,25,27,29,31,33,35,37,39,41,-1,-1,-1,43,45,47,-1,-1,-1,-1,-1,-1,-1,-1,-1,-1,-1,-1,-1,-1,-1,-1,-1],"loss_changes":[4.3678052E2,1.7940485E2,3.0884369E1,2.2190851E2,0E0,4.147255E0,6.162056E1,3.3375244E0,0E0,6.556244E-1,0E0,1.6441689E0,1.0883789E0,2.223898E0,2.0709229E-1,0E0,0E0,6.002426E-2,3.4261825E0,7.5872993E-1,1.9935553E0,2.168705E-1,3.5628843E0,1.8504753E0,9.0509033E-1,9.816735E-1,0E0,0E0,0E0,5.588646E-1,1.2195064E-2,5.989471E-1,0E0,0E0,0E0,0E0,0E0,0E0,0E0,0E0,0E0,0E0,0E0,0E0,0E0,0E0,0E0,0E0,0E0],"parents":[2147483647,0,0,1,1,2,2,3,3,5,5,6,6,7,7,9,9,11,11,12,12,13,13,14,14,17,17,18,18,19,19,20,20,21,21,22,22,23,23,24,24,25,25,29,29,30,30,31,31],"right_children":[2,4,6,8,-1,10,12,14,-1,16,-1,18,20,22,24,-1,-1,26,28,30,32,34,36,38,40,42,-1,-1,-1,44,46,48,-1,-1,-1,-1,-1,-1,-1,-1,-1,-1,-1,-1,-1,-1,-1,-1,-1],"split_conditions":[1.9933E2,1E0,1E0,1E0,-6.562033E-4,1E0,6.1E-1,1.0271E2,-6.558689E-4,1E0,6.059965E-4,6.369926E9,6.3706173E9,6.3169633E9,1.0881E2,-6.6351076E-4,-5.193041E-7,6.981E1,4.0096E2,9.8043E2,6.3725184E9,1.0211E2,6.342192E9,6.2E-1,6.3271583E9,6.35472E9,1.3517716E-3,1.194789E-3,-4.3475282E-4,9.5E-1,2.3741E2,6.3716547E9,-4.9942906E-4,-3.5289847E-4,1.1736849E-4,1.4453577E-3,2.3873636E-4,1.7076546E-3,6.254757E-4,1.1686247E-3,1.3435287E-3,-5.3802404E-7,1.0550283E-3,-4.79665E-4,-2.1733738E-4,-1.5228757E-8,1.1774212E-4,-2.3941638E-7,7.986905E-4],"split_indices":[6,2,1,0,0,3,5,6,0,4,0,8,8,8,6,0,0,7,7,7,8,6,8,5,8,8,0,0,0,5,6,8,0,0,0,0,0,0,0,0,0,0,0,0,0,0,0,0,0],"split_type":[0,0,0,0,0,0,0,0,0,0,0,0,0,0,0,0,0,0,0,0,0,0,0,0,0,0,0,0,0,0,0,0,0,0,0,0,0,0,0,0,0,0,0,0,0,0,0,0,0],"sum_hessian":[1.0196309E3,6.0625464E2,4.1337628E2,5.38901E2,6.735366E1,2.761611E2,1.372152E2,4.7379312E2,6.510786E1,2.7428128E2,1.8798261E0,2.861013E1,1.08605064E2,1.2027394E1,4.6176575E2,2.7277997E2,1.5012981E0,2.5229355E1,3.3807762E0,1.0260722E2,5.997843E0,2.2503889E0,9.777006E0,2.4127045E1,4.376387E2,2.6302645E0,2.259909E1,1.5059277E0,1.8748484E0,9.998236E1,2.6248572E0,3.0024164E0,2.9954267E0,1.1248593E0,1.1255295E0,4.5206356E0,5.2563705E0,2.0743721E1,3.3833222E0,1.1370341E2,3.239353E2,1.5013448E0,1.1289196E0,8.836519E1,1.1617177E1,1.500038E0,1.1248192E0,1.5005972E0,1.5018191E0],"tree_param":{"num_deleted":"0","num_feature":"9","num_nodes":"49","size_leaf_vector":"1"}},{"base_weights":[-2.455911E-1,-6.632115E-1,3.8200966E-1,-6.648364E-4,-3.15229E-1,8.1105185E-1,-4.652214E-1,-4.8230635E-4,1.1802553E-4,-6.5466616E-4,1.2132937E0,-5.8180904E-1,-3.4892097E-1,1.283153E0,1.0285218E0,1.17518626E-4,-5.95486E-1,-4.137362E-1,7.23447E-2,1.4243021E0,1.1357064E0,1.1196638E0,4.5532236E-1,-4.607333E-1,-6.5100094E-4,-3.0782905E-1,-6.316384E-4,7.9786906E-4,-1.40506E-1,9.3531085E-4,1.4662491E-3,5.80436E-4,1.2385624E-3,4.3670615E-4,1.1674407E-3,-1.4666092E-4,8.7521074E-4,-4.9630745E-4,1.17390045E-4,-4.6081116E-4,-1.9466552E-4,-4.99531E-4,1.2761152E-4],"categories":[],"categories_nodes":[],"categories_segments":[],"categories_sizes":[],"default_left":[0,0,0,0,0,0,0,0,0,0,0,0,0,0,0,0,0,0,0,0,0,0,0,0,0,0,0,0,0,0,0,0,0,0,0,0,0,0,0,0,0,0,0],"id":22,"left_children":[1,3,5,-1,7,9,11,-1,-1,-1,13,15,17,19,21,-1,23,25,27,29,31,33,35,37,-1,39,-1,-1,41,-1,-1,-1,-1,-1,-1,-1,-1,-1,-1,-1,-1,-1,-1],"loss_changes":[2.6724594E2,1.3647461E-1,1.4855606E2,0E0,4.004809E-1,1.60553E2,1.6637306E0,0E0,0E0,0E0,1.4293213E0,7.1323967E-1,1.9800062E0,1.5146637E0,2.8060074E0,0E0,1.9475365E-1,1.2374086E0,1.7142152E0,1.2510681E-1,3.7670364E0,1.2546616E0,2.7553186E0,5.254431E-1,0E0,6.6688204E-1,0E0,0E0,9.177236E-1,0E0,0E0,0E0,0E0,0E0,0E0,0E0,0E0,0E0,0E0,0E0,0E0,0E0,0E0],"parents":[2147483647,0,0,1,1,2,2,4,4,5,5,6,6,10,10,11,11,12,12,13,13,14,14,16,16,17,17,18,18,19,19,20,20,21,21,22,22,23,23,25,25,28,28],"right_children":[2,4,6,-1,8,10,12,-1,-1,-1,14,16,18,20,22,-1,24,26,28,30,32,34,36,38,-1,40,-1,-1,42,-1,-1,-1,-1,-1,-1,-1,-1,-1,-1,-1,-1,-1,-1],"split_conditions":[2.0013E2,1.9963E2,1E0,-6.648364E-4,7E-1,6.1E-1,7.5E-1,-4.8230635E-4,1.1802553E-4,-6.5466616E-4,5.7814E2,1.568E1,6.3658655E9,6.3440067E9,9.3E-1,1.17518626E-4,2.3156E2,6.3500544E9,6.3665567E9,6.3154944E9,1.0991E2,6.3E-1,6.6733E2,2.2972E2,-6.5100094E-4,6.3271583E9,-6.316384E-4,7.9786906E-4,6.36889E9,9.3531085E-4,1.4662491E-3,5.80436E-4,1.2385624E-3,4.3670615E-4,1.1674407E-3,-1.4666092E-4,8.7521074E-4,-4.9630745E-4,1.17390045E-4,-4.6081116E-4,-1.9466552E-4,-4.99531E-4,1.2761152E-4],"split_indices":[6,6,1,0,5,5,5,0,0,0,7,7,8,8,5,0,6,8,8,8,7,5,7,6,0,8,0,0,8,0,0,0,0,0,0,0,0,0,0,0,0,0,0],"split_type":[0,0,0,0,0,0,0,0,0,0,0,0,0,0,0,0,0,0,0,0,0,0,0,0,0,0,0,0,0,0,0,0,0,0,0,0,0,0,0,0,0,0,0],"sum_hessian":[1.01767114E3,6.1102435E2,4.0664682E2,6.0727826E2,3.7461066E0,2.6997354E2,1.3667328E2,2.6218264E0,1.1242803E0,5.8000294E1,2.1197324E2,6.625353E1,7.041975E1,1.4950368E2,6.246955E1,1.125244E0,6.512829E1,6.1045296E1,9.374454E0,7.195865E1,7.754504E1,5.307669E1,9.39286E0,2.1715948E1,4.3412334E1,4.2703014E1,1.8342281E1,1.5029607E0,7.871493E0,7.5257273E0,6.443292E1,1.3157447E1,6.438759E1,4.1332607E0,4.894343E1,4.126918E0,5.265943E0,2.059046E1,1.1254886E0,1.6850838E1,2.5852177E1,2.9962435E0,4.8752494E0],"tree_param":{"num_deleted":"0","num_feature":"9","num_nodes":"43","size_leaf_vector":"1"}},{"base_weights":[-4.945169E-1,-6.6511903E-4,2.0527521E-1,-6.5541785E-4,5.970447E-1,-6.43634E-4,9.299182E-1,7.101063E-1,1.0911173E0,8.1165534E-1,6.380531E-2,3.615848E-1,1.1427435E0,1.0474756E-3,4.3105395E-4,4.978794E-4,-3.1571937E-4,7.4687175E-4,-4.002694E-4,1.2534459E-3,7.2157074E-4],"categories":[],"categories_nodes":[],"categories_segments":[],"categories_sizes":[],"default_left":[0,0,0,0,0,0,0,0,0,0,0,0,0,0,0,0,0,0,0,0,0],"id":23,"left_children":[1,-1,3,-1,5,-1,7,9,11,13,15,17,19,-1,-1,-1,-1,-1,-1,-1,-1],"loss_changes":[1.216512E2,0E0,6.791915E1,0E0,5.7650974E1,0E0,3.0991669E0,3.1719933E0,1.892189E0,3.3508377E0,1.4347912E0,1.9158075E0,1.7393036E0,0E0,0E0,0E0,0E0,0E0,0E0,0E0,0E0],"parents":[2147483647,0,0,2,2,4,4,6,6,7,7,8,8,9,9,10,10,11,11,12,12],"right_children":[2,-1,4,-1,6,-1,8,10,12,14,16,18,20,-1,-1,-1,-1,-1,-1,-1,-1],"split_conditions":[1E0,-6.6511903E-4,1.9963E2,-6.5541785E-4,6.2E-1,-6.43634E-4,2.4365E2,9.4E-1,6.3169633E9,2.2837E2,6.3434015E9,8.2E-1,6.359731E9,1.0474756E-3,4.3105395E-4,4.978794E-4,-3.1571937E-4,7.4687175E-4,-4.002694E-4,1.2534459E-3,7.2157074E-4],"split_indices":[1,0,6,0,5,0,6,5,8,6,8,5,8,0,0,0,0,0,0,0,0],"split_type":[0,0,0,0,0,0,0,0,0,0,0,0,0,0,0,0,0,0,0,0,0],"sum_hessian":[1.0168299E3,8.175654E2,1.992645E2,6.2119312E1,1.3714519E2,2.8814575E1,1.0833061E2,4.81196E1,6.0211014E1,4.1364426E1,6.7551703E0,4.5082755E0,5.570274E1,2.4458075E1,1.6906353E1,3.0056574E0,3.749513E0,3.0071552E0,1.5011206E0,4.2544197E1,1.3158543E1],"tree_param":{"num_deleted":"0","num_feature":"9","num_nodes":"21","size_leaf_vector":"1"}},{"base_weights":[4.0287647E-1,2.3993912E-1,1.0530155E0,2.8375254E-3,9.46846E-1,1.9479605E-3,5.9204644E-1,5.354845E-1,-8.704073E-3,1.9347394E-3,4.2273718E-1,1.917174E-3,1.6505814E-1,8.060007E-1,-1.05369166E-1,-3.1917626E-1,4.7376156E-3,1.9049542E-3,4.56338E-2,7.658921E-1,1.1295485E-1,-4.708161E-7,9.618044E-1,2.6001848E-4,-4.3451134E-4,-4.4997332E-1,3.9843467E-1,-4.7825906E-2,1.0992457E-1,-1.838507E-1,1.5942569E-1,6.861195E-2,1.0855396E0,6.2641874E-2,7.8856325E-1,1.2111132E-3,3.433506E-4,-5.565231E-4,-1.6884287E-4,-1.5398595E-4,1.0546106E-3,2.5588011E-5,-1.2188827E-4,-2.8481396E-5,3.0597948E-4,8.2543766E-4,-3.3783118E-4,7.9609126E-5,5.6547666E-4,5.8642996E-4,-3.9970718E-4,4.5974506E-4,1.3771792E-3,3.6248886E-5,7.660175E-4,9.045473E-4,1.1697147E-4],"categories":[],"categories_nodes":[],"categories_segments":[],"categories_sizes":[],"default_left":[0,0,0,0,0,0,0,0,0,0,0,0,0,0,0,0,0,0,0,0,0,0,0,0,0,0,0,0,0,0,0,0,0,0,0,0,0,0,0,0,0,0,0,0,0,0,0,0,0,0,0,0,0,0,0,0,0],"id":24,"left_children":[1,3,5,7,9,-1,11,13,15,-1,17,-1,19,21,23,25,27,-1,29,31,33,-1,35,-1,-1,37,39,41,43,45,47,49,51,53,55,-1,-1,-1,-1,-1,-1,-1,-1,-1,-1,-1,-1,-1,-1,-1,-1,-1,-1,-1,-1,-1,-1],"loss_changes":[1.07915436E2,1.3706412E2,8.314197E1,3.7755003E0,1.0552765E2,0E0,7.6804886E1,2.3429852E0,2.5111463E0,0E0,7.563801E1,0E0,3.1748648E0,1.1658168E0,6.843044E-1,2.5229728E0,3.1976416E0,0E0,2.876324E0,1.7398691E0,3.2491374E0,0E0,7.827153E-1,0E0,0E0,5.5274343E-1,1.7500393E0,2.1002295E0,5.2374783E0,5.9676304E0,2.3344927E0,1.1137674E0,3.7321472E-1,1.6689907E0,4.1136122E-1,0E0,0E0,0E0,0E0,0E0,0E0,0E0,0E0,0E0,0E0,0E0,0E0,0E0,0E0,0E0,0E0,0E0,0E0,0E0,0E0,0E0,0E0],"parents":[2147483647,0,0,1,1,2,2,3,3,4,4,6,6,7,7,8,8,10,10,12,12,13,13,14,14,15,15,16,16,18,18,19,19,20,20,22,22,25,25,26,26,27,27,28,28,29,29,30,30,31,31,32,32,33,33,34,34],"right_children":[2,4,6,8,10,-1,12,14,16,-1,18,-1,20,22,24,26,28,-1,30,32,34,-1,36,-1,-1,38,40,42,44,46,48,50,52,54,56,-1,-1,-1,-1,-1,-1,-1,-1,-1,-1,-1,-1,-1,-1,-1,-1,-1,-1,-1,-1,-1,-1],"split_conditions":[1E0,1E0,2.0013E2,1.0271E2,2.0013E2,1.9479605E-3,6.1E-1,6.7875E2,1.0881E2,1.9347394E-3,6.1E-1,1.917174E-3,6.31463E9,2.5312E2,1E0,6.2E-1,1E0,1.9049542E-3,6.3370947E9,2.9737E2,9.8E-1,-4.708161E-7,5.2E-1,2.6001848E-4,-4.3451134E-4,6.8527E2,6.5411E2,6.3E-1,5.4E-1,2.0961E2,9.3E-1,6.6E-1,6.3124705E9,7.8101E2,6.3478E2,1.2111132E-3,3.433506E-4,-5.565231E-4,-1.6884287E-4,-1.5398595E-4,1.0546106E-3,2.5588011E-5,-1.2188827E-4,-2.8481396E-5,3.0597948E-4,8.2543766E-4,-3.3783118E-4,7.9609126E-5,5.6547666E-4,5.8642996E-4,-3.9970718E-4,4.5974506E-4,1.3771792E-3,3.6248886E-5,7.660175E-4,9.045473E-4,1.1697147E-4],"split_indices":[0,2,6,6,6,0,5,7,6,0,5,0,8,7,3,5,4,0,8,7,5,0,5,0,0,7,7,5,5,6,5,5,8,7,7,0,0,0,0,0,0,0,0,0,0,0,0,0,0,0,0,0,0,0,0,0,0],"split_type":[0,0,0,0,0,0,0,0,0,0,0,0,0,0,0,0,0,0,0,0,0,0,0,0,0,0,0,0,0,0,0,0,0,0,0,0,0,0,0,0,0,0,0,0,0,0,0,0,0,0,0,0,0,0,0,0,0],"sum_hessian":[1.02010956E3,8.1677826E2,2.033313E2,6.123843E2,2.0439401E2,6.802971E1,1.3530157E2,1.2025152E1,6.0035913E2,6.991662E1,1.3447739E2,3.212231E1,1.0317927E2,8.274594E0,3.7505584E0,2.3969662E1,5.7638947E2,2.6452694E1,1.080247E2,7.140336E0,9.603893E1,1.5011765E0,6.7734175E0,1.8769398E0,1.8736186E0,2.0589773E1,3.379888E0,3.8469623E2,1.9169322E2,3.5604767E1,7.241994E1,2.626195E0,4.514141E0,9.039954E1,5.63939E0,4.144436E0,2.6289816E0,1.4220533E1,6.3692393E0,2.250537E0,1.1293513E0,1.9352255E2,1.9117368E2,1.12868126E2,7.88251E1,4.135743E0,3.1469023E1,6.1522625E1,1.0897312E1,1.1274157E0,1.4987793E0,2.2539892E0,2.2601519E0,8.814364E1,2.2559068E0,4.5131063E0,1.1262841E0],"tree_param":{"num_deleted":"0","num_feature":"9","num_nodes":"57","size_leaf_vector":"1"}},{"base_weights":[3.3465344E-1,8.7373793E-1,-4.5685685E-1,1.0655805E0,-6.560573E-4,-6.489769E-1,-6.843955E-2,1.3026956E0,-6.557222E-4,-6.597516E-1,6.0545857E-4,1.210427E0,-4.1365176E-1,6.8803364E-1,1.3171787E0,-6.6336594E-4,-6.2892235E-7,1.2999706E0,3.977812E-1,-4.3762788E-1,3.6822254E-4,-1.5396753E-1,8.7805307E-1,1.5842254E0,1.2988787E0,6.178671E-1,1.3498022E-3,1.1937516E-3,-4.3474676E-4,-4.514844E-1,6.901603E-2,4.9891257E-1,-4.9931504E-4,1.173072E-4,-3.5288633E-4,1.4435338E-3,2.3848462E-4,1.7047079E-3,6.2485924E-4,1.1669146E-3,1.3414645E-3,-6.4539995E-7,1.0542719E-3,-4.7950877E-4,-2.172406E-4,-1.230821E-8,1.1775335E-4,-2.693823E-7,7.98397E-4],"categories":[],"categories_nodes":[],"categories_segments":[],"categories_sizes":[],"default_left":[0,0,0,0,0,0,0,0,0,0,0,0,0,0,0,0,0,0,0,0,0,0,0,0,0,0,0,0,0,0,0,0,0,0,0,0,0,0,0,0,0,0,0,0,0,0,0,0,0],"id":25,"left_children":[1,3,5,7,-1,9,11,13,-1,15,-1,17,19,21,23,-1,-1,25,27,29,31,33,35,37,39,41,-1,-1,-1,43,45,47,-1,-1,-1,-1,-1,-1,-1,-1,-1,-1,-1,-1,-1,-1,-1,-1,-1],"loss_changes":[4.3598862E2,1.790184E2,3.0868172E1,2.2136743E2,0E0,4.1440125E0,6.151687E1,3.3241577E0,0E0,6.550751E-1,0E0,1.6391373E0,1.0878792E0,2.2204041E0,2.0574951E-1,0E0,0E0,5.8246613E-2,3.4227405E0,7.5831413E-1,1.9922695E0,2.1679652E-1,3.555334E0,1.8420677E0,9.0185547E-1,9.808512E-1,0E0,0E0,0E0,5.5854607E-1,1.2196295E-2,5.986372E-1,0E0,0E0,0E0,0E0,0E0,0E0,0E0,0E0,0E0,0E0,0E0,0E0,0E0,0E0,0E0,0E0,0E0],"parents":[2147483647,0,0,1,1,2,2,3,3,5,5,6,6,7,7,9,9,11,11,12,12,13,13,14,14,17,17,18,18,19,19,20,20,21,21,22,22,23,23,24,24,25,25,29,29,30,30,31,31],"right_children":[2,4,6,8,-1,10,12,14,-1,16,-1,18,20,22,24,-1,-1,26,28,30,32,34,36,38,40,42,-1,-1,-1,44,46,48,-1,-1,-1,-1,-1,-1,-1,-1,-1,-1,-1,-1,-1,-1,-1,-1,-1],"split_conditions":[1.9933E2,1E0,1E0,1E0,-6.560573E-4,1E0,6.1E-1,1.0271E2,-6.557222E-4,1E0,6.0545857E-4,6.369926E9,6.3706173E9,6.3169633E9,1.0881E2,-6.6336594E-4,-6.2892235E-7,6.981E1,4.0096E2,9.8043E2,6.3725184E9,4.1322E2,6.342192E9,6.2E-1,6.3271583E9,6.35472E9,1.3498022E-3,1.1937516E-3,-4.3474676E-4,9.5E-1,7.7E-1,4.3881E2,-4.9931504E-4,1.173072E-4,-3.5288633E-4,1.4435338E-3,2.3848462E-4,1.7047079E-3,6.2485924E-4,1.1669146E-3,1.3414645E-3,-6.4539995E-7,1.0542719E-3,-4.7950877E-4,-2.172406E-4,-1.230821E-8,1.1775335E-4,-2.693823E-7,7.98397E-4],"split_indices":[6,2,1,0,0,3,5,6,0,4,0,8,8,8,6,0,0,7,7,7,8,7,8,5,8,8,0,0,0,5,5,7,0,0,0,0,0,0,0,0,0,0,0,0,0,0,0,0,0],"split_type":[0,0,0,0,0,0,0,0,0,0,0,0,0,0,0,0,0,0,0,0,0,0,0,0,0,0,0,0,0,0,0,0,0,0,0,0,0,0,0,0,0,0,0,0,0,0,0,0,0],"sum_hessian":[1.01985474E3,6.066034E2,4.1325137E2,5.3927905E2,6.732435E1,2.7604324E2,1.3720813E2,4.7419968E2,6.5079384E1,2.7416245E2,1.8807886E0,2.863205E1,1.0857608E2,1.2032847E1,4.621668E2,2.726609E2,1.5015719E0,2.5250122E1,3.3819265E0,1.0257867E2,5.997411E0,2.2504654E0,9.782382E0,2.4152308E1,4.380145E2,2.631314E0,2.2618809E1,1.5071092E0,1.8748175E0,9.9953835E1,2.6248283E0,3.0028987E0,2.994512E0,1.1256459E0,1.1248194E0,4.524743E0,5.2576394E0,2.0767326E1,3.3849812E0,1.1379364E2,3.2422086E2,1.5016131E0,1.129701E0,8.833823E1,1.1615612E1,1.5000305E0,1.1247978E0,1.5006721E0,1.5022268E0],"tree_param":{"num_deleted":"0","num_feature":"9","num_nodes":"49","size_leaf_vector":"1"}},{"base_weights":[-2.4546988E-1,-6.630643E-1,3.816556E-1,-6.6468946E-4,-3.151168E-1,8.100864E-1,-4.6506545E-1,-4.8221287E-4,1.1809033E-4,-6.5452146E-4,1.2115352E0,-5.816588E-1,-3.4877548E-1,1.2812508E0,1.0271217E0,1.1749308E-4,-5.953379E-1,-4.1358662E-1,7.235783E-2,1.4220914E0,1.1341059E0,1.1180867E0,4.5482278E-1,-4.60573E-1,-6.508639E-4,-3.0768132E-1,-6.315149E-4,7.974441E-4,-1.4043632E-1,9.3414483E-4,1.463935E-3,5.797126E-4,1.2367693E-3,4.3624436E-4,1.1657662E-3,-1.4672452E-4,8.7425817E-4,-4.9614767E-4,1.1733872E-4,-4.6066713E-4,-1.9452891E-4,-4.994373E-4,1.2760572E-4],"categories":[],"categories_nodes":[],"categories_segments":[],"categories_sizes":[],"default_left":[0,0,0,0,0,0,0,0,0,0,0,0,0,0,0,0,0,0,0,0,0,0,0,0,0,0,0,0,0,0,0,0,0,0,0,0,0,0,0,0,0,0,0],"id":26,"left_children":[1,3,5,-1,7,9,11,-1,-1,-1,13,15,17,19,21,-1,23,25,27,29,31,33,35,37,-1,39,-1,-1,41,-1,-1,-1,-1,-1,-1,-1,-1,-1,-1,-1,-1,-1,-1],"loss_changes":[2.669832E2,1.3641357E-1,1.482928E2,0E0,4.0044558E-1,1.6020047E2,1.6632481E0,0E0,0E0,0E0,1.4242859E0,7.129116E-1,1.9788294E0,1.5088196E0,2.7979126E0,0E0,1.9488335E-1,1.237318E0,1.7126869E0,1.234436E-1,3.756836E0,1.2507706E0,2.7513976E0,5.250945E-1,0E0,6.667547E-1,0E0,0E0,9.1734177E-1,0E0,0E0,0E0,0E0,0E0,0E0,0E0,0E0,0E0,0E0,0E0,0E0,0E0,0E0],"parents":[2147483647,0,0,1,1,2,2,4,4,5,5,6,6,10,10,11,11,12,12,13,13,14,14,16,16,17,17,18,18,19,19,20,20,21,21,22,22,23,23,25,25,28,28],"right_children":[2,4,6,-1,8,10,12,-1,-1,-1,14,16,18,20,22,-1,24,26,28,30,32,34,36,38,-1,40,-1,-1,42,-1,-1,-1,-1,-1,-1,-1,-1,-1,-1,-1,-1,-1,-1],"split_conditions":[2.0013E2,1.9963E2,1E0,-6.6468946E-4,6.2292E2,6.1E-1,7.5E-1,-4.8221287E-4,1.1809033E-4,-6.5452146E-4,5.7814E2,1.568E1,6.3658655E9,6.3440067E9,9.3E-1,1.1749308E-4,2.3156E2,6.3500544E9,6.3665567E9,6.3154944E9,1.0991E2,6.3E-1,6.6733E2,2.2972E2,-6.508639E-4,6.3271583E9,-6.315149E-4,7.974441E-4,6.36889E9,9.3414483E-4,1.463935E-3,5.797126E-4,1.2367693E-3,4.3624436E-4,1.1657662E-3,-1.4672452E-4,8.7425817E-4,-4.9614767E-4,1.1733872E-4,-4.6066713E-4,-1.9452891E-4,-4.994373E-4,1.2760572E-4],"split_indices":[6,6,1,0,7,5,5,0,0,0,7,7,8,8,5,0,6,8,8,8,7,5,7,6,0,8,0,0,8,0,0,0,0,0,0,0,0,0,0,0,0,0,0],"split_type":[0,0,0,0,0,0,0,0,0,0,0,0,0,0,0,0,0,0,0,0,0,0,0,0,0,0,0,0,0,0,0,0,0,0,0,0,0,0,0,0,0,0,0],"sum_hessian":[1.01750433E3,6.107541E2,4.0675027E2,6.070088E2,3.7453265E0,2.7011734E2,1.366329E2,2.6211696E0,1.1241568E0,5.7975315E1,2.1214204E2,6.622918E1,7.0403725E1,1.4962878E2,6.2513252E1,1.1252927E0,6.510389E1,6.10294E1,9.374323E0,7.202503E1,7.760376E1,5.3116833E1,9.396418E0,2.170916E1,4.339473E1,4.2693657E1,1.8335741E1,1.5035512E0,7.8707714E0,7.530852E0,6.449418E1,1.3163914E1,6.443984E1,4.1349072E0,4.8981926E1,4.127299E0,5.269119E0,2.0583574E1,1.1255862E0,1.6846046E1,2.5847612E1,2.9954922E0,4.8752794E0],"tree_param":{"num_deleted":"0","num_feature":"9","num_nodes":"43","size_leaf_vector":"1"}},{"base_weights":[-4.9435252E-1,-6.6497247E-4,2.0510657E-1,-6.552766E-4,5.964208E-1,-6.4349093E-4,9.2875373E-1,7.0927477E-1,1.0896796E0,8.106783E-1,6.366353E-2,3.611759E-1,1.1412158E0,1.0461403E-3,4.3055508E-4,4.9745664E-4,-3.1570529E-4,7.46167E-4,-4.0027814E-4,1.2516995E-3,7.2075875E-4],"categories":[],"categories_nodes":[],"categories_segments":[],"categories_sizes":[],"default_left":[0,0,0,0,0,0,0,0,0,0,0,0,0,0,0,0,0,0,0,0,0],"id":27,"left_children":[1,-1,3,-1,5,-1,7,9,11,13,15,17,19,-1,-1,-1,-1,-1,-1,-1,-1],"loss_changes":[1.2156596E2,0E0,6.7825195E1,0E0,5.7544357E1,0E0,3.0909882E0,3.16568E0,1.8875198E0,3.3434277E0,1.4334688E0,1.9139252E0,1.7337494E0,0E0,0E0,0E0,0E0,0E0,0E0,0E0,0E0],"parents":[2147483647,0,0,2,2,4,4,6,6,7,7,8,8,9,9,10,10,11,11,12,12],"right_children":[2,-1,4,-1,6,-1,8,10,12,14,16,18,20,-1,-1,-1,-1,-1,-1,-1,-1],"split_conditions":[1E0,-6.6497247E-4,1.9963E2,-6.552766E-4,6.2E-1,-6.4349093E-4,2.4365E2,9.4E-1,6.3169633E9,2.2837E2,6.3434015E9,6.5411E2,6.359731E9,1.0461403E-3,4.3055508E-4,4.9745664E-4,-3.1570529E-4,7.46167E-4,-4.0027814E-4,1.2516995E-3,7.2075875E-4],"split_indices":[1,0,6,0,5,0,6,5,8,6,8,7,8,0,0,0,0,0,0,0,0],"split_type":[0,0,0,0,0,0,0,0,0,0,0,0,0,0,0,0,0,0,0,0,0],"sum_hessian":[1.01649536E3,8.1720325E2,1.992921E2,6.2093185E1,1.3719891E2,2.8802485E1,1.0839642E2,4.8143425E1,6.0253002E1,4.1387222E1,6.756201E0,4.5099254E0,5.5743076E1,2.4474642E1,1.6912582E1,3.006786E0,3.7494147E0,3.0087686E0,1.5011568E0,4.257787E1,1.3165207E1],"tree_param":{"num_deleted":"0","num_feature":"9","num_nodes":"21","size_leaf_vector":"1"}},{"base_weights":[4.0250796E-1,2.3974249E-1,1.0516262E0,2.8354155E-3,9.456339E-1,1.9442053E-3,5.9146005E-1,5.3499097E-1,-8.699283E-3,1.9310218E-3,4.2233932E-1,1.9135599E-3,1.6495758E-1,8.0520487E-1,-1.0538738E-1,-3.1903884E-1,4.7338875E-3,1.9013946E-3,4.5594756E-2,7.653386E-1,1.1288103E-1,-5.4892587E-7,9.608225E-1,-4.3447877E-4,2.599037E-4,-4.4982427E-1,3.981748E-1,-4.7803435E-2,1.0985982E-1,-1.8377548E-1,1.5930809E-1,6.855343E-2,1.08465E0,6.2594905E-2,7.879187E-1,1.2097155E-3,3.4311472E-4,-5.5638084E-4,-1.687344E-4,-1.5400891E-4,1.0539116E-3,2.5568761E-5,-1.21829995E-4,-2.8471148E-5,3.05776E-4,8.2480273E-4,-3.3772585E-4,7.954466E-5,5.649886E-4,5.8613025E-4,-3.9965828E-4,4.5944742E-4,1.3759484E-3,3.6213365E-5,7.654844E-4,9.0379454E-4,1.1685926E-4],"categories":[],"categories_nodes":[],"categories_segments":[],"categories_sizes":[],"default_left":[0,0,0,0,0,0,0,0,0,0,0,0,0,0,0,0,0,0,0,0,0,0,0,0,0,0,0,0,0,0,0,0,0,0,0,0,0,0,0,0,0,0,0,0,0,0,0,0,0,0,0,0,0,0,0,0,0],"id":28,"left_children":[1,3,5,7,9,-1,11,13,15,-1,17,-1,19,21,23,25,27,-1,29,31,33,-1,35,-1,-1,37,39,41,43,45,47,49,51,53,55,-1,-1,-1,-1,-1,-1,-1,-1,-1,-1,-1,-1,-1,-1,-1,-1,-1,-1,-1,-1,-1,-1],"loss_changes":[1.07660324E2,1.3677638E2,8.283252E1,3.7697692E0,1.0516104E2,0E0,7.657003E1,2.339441E0,2.5084703E0,0E0,7.5425766E1,0E0,3.1711335E0,1.1639752E0,6.8401825E-1,2.5208142E0,3.194205E0,0E0,2.8730142E0,1.7373657E0,3.2448874E0,0E0,7.806349E-1,0E0,0E0,5.525999E-1,1.7485068E0,2.0979705E0,5.2312403E0,5.961689E0,2.3310556E0,1.1130552E0,3.7248898E-1,1.6672038E0,4.108448E-1,0E0,0E0,0E0,0E0,0E0,0E0,0E0,0E0,0E0,0E0,0E0,0E0,0E0,0E0,0E0,0E0,0E0,0E0,0E0,0E0,0E0,0E0],"parents":[2147483647,0,0,1,1,2,2,3,3,4,4,6,6,7,7,8,8,10,10,12,12,13,13,14,14,15,15,16,16,18,18,19,19,20,20,22,22,25,25,26,26,27,27,28,28,29,29,30,30,31,31,32,32,33,33,34,34],"right_children":[2,4,6,8,10,-1,12,14,16,-1,18,-1,20,22,24,26,28,-1,30,32,34,-1,36,-1,-1,38,40,42,44,46,48,50,52,54,56,-1,-1,-1,-1,-1,-1,-1,-1,-1,-1,-1,-1,-1,-1,-1,-1,-1,-1,-1,-1,-1,-1],"split_conditions":[1E0,1E0,2.0013E2,1.0271E2,2.0013E2,1.9442053E-3,6.1E-1,6.7875E2,1.0881E2,1.9310218E-3,6.1E-1,1.9135599E-3,6.31463E9,2.5312E2,8.0416E2,6.2E-1,1E0,1.9013946E-3,6.3370947E9,2.9737E2,9.8E-1,-5.4892587E-7,5.2E-1,-4.3447877E-4,2.599037E-4,6.8527E2,6.5411E2,6.3E-1,5.4E-1,2.0961E2,9.3E-1,6.6E-1,6.3124705E9,7.8101E2,6.3478E2,1.2097155E-3,3.4311472E-4,-5.5638084E-4,-1.687344E-4,-1.5400891E-4,1.0539116E-3,2.5568761E-5,-1.21829995E-4,-2.8471148E-5,3.05776E-4,8.2480273E-4,-3.3772585E-4,7.954466E-5,5.649886E-4,5.8613025E-4,-3.9965828E-4,4.5944742E-4,1.3759484E-3,3.6213365E-5,7.654844E-4,9.0379454E-4,1.1685926E-4],"split_indices":[0,2,6,6,6,0,5,7,6,0,5,0,8,7,7,5,4,0,8,7,5,0,5,0,0,7,7,5,5,6,5,5,8,7,7,0,0,0,0,0,0,0,0,0,0,0,0,0,0,0,0,0,0,0,0,0,0],"split_type":[0,0,0,0,0,0,0,0,0,0,0,0,0,0,0,0,0,0,0,0,0,0,0,0,0,0,0,0,0,0,0,0,0,0,0,0,0,0,0,0,0,0,0,0,0,0,0,0,0,0,0,0,0,0,0,0,0],"sum_hessian":[1.02037537E3,8.1690656E2,2.0346881E2,6.1238544E2,2.0452113E2,6.811736E1,1.3535144E2,1.2029322E1,6.0035614E2,7.000617E1,1.3451497E2,3.2163216E1,1.0318823E2,8.278667E0,3.7506533E0,2.3964588E1,5.7639154E2,2.6486227E1,1.0802874E2,7.142879E0,9.604535E1,1.5013717E0,6.777296E0,1.8734523E0,1.8772011E0,2.0583889E1,3.380699E0,3.8468707E2,1.9170444E2,3.560137E1,7.242737E1,2.6263921E0,4.516487E0,9.040357E1,5.6417775E0,4.1476784E0,2.6296175E0,1.4215613E1,6.3682766E0,2.2506254E0,1.1300737E0,1.9352618E2,1.911609E2,1.1286691E2,7.8837524E1,4.1375256E0,3.1463846E1,6.1526352E1,1.0901013E1,1.1278169E0,1.4985751E0,2.2546515E0,2.2618356E0,8.814668E1,2.2568874E0,4.5152802E0,1.1264974E0],"tree_param":{"num_deleted":"0","num_feature":"9","num_nodes":"57","size_leaf_vector":"1"}},{"base_weights":[3.343574E-1,8.726591E-1,-4.5669487E-1,1.0641321E0,-6.5591146E-4,-6.488294E-1,-6.8393685E-2,1.3007234E0,-6.555756E-4,-6.5960646E-1,6.049212E-4,1.2087897E0,-4.1349745E-1,6.873256E-1,1.3151699E0,-6.632213E-4,-7.2339907E-7,1.2981486E0,3.974127E-1,-4.3747365E-1,4.2940266E-4,-1.5398742E-1,8.771147E-1,1.5816264E0,1.2969085E0,6.173984E-1,1.3478382E-3,1.1927161E-3,-4.3474065E-4,-4.5133024E-1,6.9024496E-2,4.9873167E-1,-4.992011E-4,-3.528864E-4,1.17267155E-4,1.4417147E-3,2.3823323E-4,1.7017715E-3,6.2424364E-4,1.165209E-3,1.3394062E-3,-7.5263375E-7,1.0535166E-3,-4.7935257E-4,-2.1714384E-4,-1.2379734E-8,1.1776854E-4,-3.59055E-7,7.982107E-4],"categories":[],"categories_nodes":[],"categories_segments":[],"categories_sizes":[],"default_left":[0,0,0,0,0,0,0,0,0,0,0,0,0,0,0,0,0,0,0,0,0,0,0,0,0,0,0,0,0,0,0,0,0,0,0,0,0,0,0,0,0,0,0,0,0,0,0,0,0],"id":29,"left_children":[1,3,5,7,-1,9,11,13,-1,15,-1,17,19,21,23,-1,-1,25,27,29,31,33,35,37,39,41,-1,-1,-1,43,45,47,-1,-1,-1,-1,-1,-1,-1,-1,-1,-1,-1,-1,-1,-1,-1,-1,-1],"loss_changes":[4.3519876E2,1.7863324E2,3.0851967E1,2.2082849E2,0E0,4.1407623E0,6.1413425E1,3.3104858E0,0E0,6.5457916E-1,0E0,1.6341248E0,1.0873775E0,2.2169147E0,2.0440674E-1,0E0,0E0,5.6484222E-2,3.4193041E0,7.5790215E-1,1.9909843E0,2.1675602E-1,3.5478115E0,1.833725E0,8.985596E-1,9.8003054E-1,0E0,0E0,0E0,5.5822754E-1,1.2199402E-2,5.986606E-1,0E0,0E0,0E0,0E0,0E0,0E0,0E0,0E0,0E0,0E0,0E0,0E0,0E0,0E0,0E0,0E0,0E0],"parents":[2147483647,0,0,1,1,2,2,3,3,5,5,6,6,7,7,9,9,11,11,12,12,13,13,14,14,17,17,18,18,19,19,20,20,21,21,22,22,23,23,24,24,25,25,29,29,30,30,31,31],"right_children":[2,4,6,8,-1,10,12,14,-1,16,-1,18,20,22,24,-1,-1,26,28,30,32,34,36,38,40,42,-1,-1,-1,44,46,48,-1,-1,-1,-1,-1,-1,-1,-1,-1,-1,-1,-1,-1,-1,-1,-1,-1],"split_conditions":[1.9933E2,1E0,1E0,1E0,-6.5591146E-4,1E0,6.1E-1,1.0271E2,-6.555756E-4,1E0,6.049212E-4,6.369926E9,6.3706173E9,6.3169633E9,1.0881E2,-6.632213E-4,-7.2339907E-7,6.981E1,4.0096E2,9.8043E2,6.3725184E9,1.0211E2,6.342192E9,6.2E-1,6.3271583E9,6.35472E9,1.3478382E-3,1.1927161E-3,-4.3474065E-4,9.5E-1,2.3741E2,6.3716547E9,-4.992011E-4,-3.528864E-4,1.17267155E-4,1.4417147E-3,2.3823323E-4,1.7017715E-3,6.2424364E-4,1.165209E-3,1.3394062E-3,-7.5263375E-7,1.0535166E-3,-4.7935257E-4,-2.1714384E-4,-1.2379734E-8,1.1776854E-4,-3.59055E-7,7.982107E-4],"split_indices":[6,2,1,0,0,3,5,6,0,4,0,8,8,8,6,0,0,7,7,7,8,6,8,5,8,8,0,0,0,5,6,8,0,0,0,0,0,0,0,0,0,0,0,0,0,0,0,0,0],"split_type":[0,0,0,0,0,0,0,0,0,0,0,0,0,0,0,0,0,0,0,0,0,0,0,0,0,0,0,0,0,0,0,0,0,0,0,0,0,0,0,0,0,0,0,0,0,0,0,0,0],"sum_hessian":[1.0200778E3,6.069514E2,4.131264E2,5.396564E2,6.729502E1,2.7592535E2,1.3720102E2,4.7460547E2,6.50509E1,2.740436E2,1.88175E0,2.865393E1,1.085471E2,1.2038292E1,4.625672E2,2.725418E2,1.5018082E0,2.5270855E1,3.3830755E0,1.0255012E2,5.9969788E0,2.2505414E0,9.787751E0,2.4177523E1,4.3838968E2,2.6323628E0,2.2638493E1,1.508289E0,1.8747865E0,9.9925316E1,2.6247995E0,3.003381E0,2.9935977E0,1.1248194E0,1.1257219E0,4.528844E0,5.258907E0,2.0790884E1,3.386638E0,1.1388374E2,3.2450592E2,1.5018811E0,1.1304817E0,8.8311264E1,1.1614048E1,1.5000308E0,1.1247687E0,1.500895E0,1.5024859E0],"tree_param":{"num_deleted":"0","num_feature":"9","num_nodes":"49","size_leaf_vector":"1"}},{"base_weights":[-2.4534881E-1,-6.629173E-1,3.813019E-1,-6.6454266E-4,-3.1500456E-1,8.091231E-1,-4.6490976E-1,-4.8213187E-4,1.1820117E-4,-6.543767E-4,1.2097815E0,-5.815091E-1,-3.4862974E-1,1.2793539E0,1.0257248E0,1.1746757E-4,-5.951904E-1,-4.1343635E-1,7.2365746E-2,1.4198874E0,1.1325095E0,1.1165134E0,4.5432392E-1,-4.6041152E-1,-6.5072795E-4,-3.0753252E-1,-6.3139125E-4,7.970195E-4,-1.4037155E-1,9.3298126E-4,1.4616282E-3,5.789904E-4,1.234981E-3,4.357831E-4,1.1640958E-3,-1.4678799E-4,8.733074E-4,-4.959868E-4,1.1728746E-4,-4.6052094E-4,-1.9439236E-4,-4.993436E-4,1.2759026E-4],"categories":[],"categories_nodes":[],"categories_segments":[],"categories_sizes":[],"default_left":[0,0,0,0,0,0,0,0,0,0,0,0,0,0,0,0,0,0,0,0,0,0,0,0,0,0,0,0,0,0,0,0,0,0,0,0,0,0,0,0,0,0,0],"id":30,"left_children":[1,3,5,-1,7,9,11,-1,-1,-1,13,15,17,19,21,-1,23,25,27,29,31,33,35,37,-1,39,-1,-1,41,-1,-1,-1,-1,-1,-1,-1,-1,-1,-1,-1,-1,-1,-1],"loss_changes":[2.6672067E2,1.3641357E-1,1.4803026E2,0E0,4.0049613E-1,1.598491E2,1.6627712E0,0E0,0E0,0E0,1.4192505E0,7.125931E-1,1.9776096E0,1.503006E0,2.7898636E0,0E0,1.9502258E-1,1.237237E0,1.711181E0,1.2184143E-1,3.7466888E0,1.2468872E0,2.747485E0,5.2474594E-1,0E0,6.66615E-1,0E0,0E0,9.169334E-1,0E0,0E0,0E0,0E0,0E0,0E0,0E0,0E0,0E0,0E0,0E0,0E0,0E0,0E0],"parents":[2147483647,0,0,1,1,2,2,4,4,5,5,6,6,10,10,11,11,12,12,13,13,14,14,16,16,17,17,18,18,19,19,20,20,21,21,22,22,23,23,25,25,28,28],"right_children":[2,4,6,-1,8,10,12,-1,-1,-1,14,16,18,20,22,-1,24,26,28,30,32,34,36,38,-1,40,-1,-1,42,-1,-1,-1,-1,-1,-1,-1,-1,-1,-1,-1,-1,-1,-1],"split_conditions":[2.0013E2,1.9963E2,1E0,-6.6454266E-4,7E-1,6.1E-1,7.5E-1,-4.8213187E-4,1.1820117E-4,-6.543767E-4,5.7814E2,1.568E1,6.3658655E9,6.3440067E9,9.3E-1,1.1746757E-4,2.3156E2,6.3500544E9,6.3665567E9,6.3154944E9,1.0991E2,6.3E-1,6.6733E2,2.2972E2,-6.5072795E-4,6.3271583E9,-6.3139125E-4,7.970195E-4,6.36889E9,9.3298126E-4,1.4616282E-3,5.789904E-4,1.234981E-3,4.357831E-4,1.1640958E-3,-1.4678799E-4,8.733074E-4,-4.959868E-4,1.1728746E-4,-4.6052094E-4,-1.9439236E-4,-4.993436E-4,1.2759026E-4],"split_indices":[6,6,1,0,5,5,5,0,0,0,7,7,8,8,5,0,6,8,8,8,7,5,7,6,0,8,0,0,8,0,0,0,0,0,0,0,0,0,0,0,0,0,0],"split_type":[0,0,0,0,0,0,0,0,0,0,0,0,0,0,0,0,0,0,0,0,0,0,0,0,0,0,0,0,0,0,0,0,0,0,0,0,0,0,0,0,0,0,0],"sum_hessian":[1.0173372E3,6.104837E2,4.068535E2,6.067392E2,3.744546E0,2.702609E2,1.3659259E2,2.6205997E0,1.1239462E0,5.795033E1,2.1231056E2,6.620492E1,7.038767E1,1.4975368E2,6.2556885E1,1.1253409E0,6.5079575E1,6.1013428E1,9.374242E0,7.2091286E1,7.766239E1,5.3156914E1,9.39997E0,2.1702322E1,4.337725E1,4.2684235E1,1.8329193E1,1.5041414E0,7.8701005E0,7.5359693E0,6.455531E1,1.3170373E1,6.449201E1,4.136552E0,4.9020363E1,4.12768E0,5.27229E0,2.057664E1,1.1256837E0,1.6841183E1,2.584305E1,2.994741E0,4.8753595E0],"tree_param":{"num_deleted":"0","num_feature":"9","num_nodes":"43","size_leaf_vector":"1"}},{"base_weights":[-4.9418825E-1,-6.64826E-4,2.0493814E-1,-6.5513514E-4,5.957974E-1,-6.43348E-4,9.275907E-1,7.084447E-1,1.0882436E0,8.097032E-1,6.3521884E-2,3.6076742E-1,1.1396898E0,1.0448123E-3,4.3005293E-4,4.970344E-4,-3.1569114E-4,7.4558856E-4,-4.0035616E-4,1.2499576E-3,7.1994204E-4],"categories":[],"categories_nodes":[],"categories_segments":[],"categories_sizes":[],"default_left":[0,0,0,0,0,0,0,0,0,0,0,0,0,0,0,0,0,0,0,0,0],"id":31,"left_children":[1,-1,3,-1,5,-1,7,9,11,13,15,17,19,-1,-1,-1,-1,-1,-1,-1,-1],"loss_changes":[1.2148082E2,0E0,6.773128E1,0E0,5.743795E1,0E0,3.082817E0,3.159378E0,1.8828583E0,3.3361588E0,1.4321481E0,1.9128208E0,1.728302E0,0E0,0E0,0E0,0E0,0E0,0E0,0E0,0E0],"parents":[2147483647,0,0,2,2,4,4,6,6,7,7,8,8,9,9,10,10,11,11,12,12],"right_children":[2,-1,4,-1,6,-1,8,10,12,14,16,18,20,-1,-1,-1,-1,-1,-1,-1,-1],"split_conditions":[1E0,-6.64826E-4,1.9963E2,-6.5513514E-4,6.2E-1,-6.43348E-4,2.4365E2,9.4E-1,6.3169633E9,2.2837E2,6.3434015E9,8.2E-1,6.359731E9,1.0448123E-3,4.3005293E-4,4.970344E-4,-3.1569114E-4,7.4558856E-4,-4.0035616E-4,1.2499576E-3,7.1994204E-4],"split_indices":[1,0,6,0,5,0,6,5,8,6,8,5,8,0,0,0,0,0,0,0,0],"split_type":[0,0,0,0,0,0,0,0,0,0,0,0,0,0,0,0,0,0,0,0,0],"sum_hessian":[1.01616064E3,8.1684106E2,1.993196E2,6.2067005E1,1.372526E2,2.8790394E1,1.084622E2,4.816722E1,6.0294975E1,4.140999E1,6.75723E0,4.5115733E0,5.57834E1,2.4491133E1,1.6918856E1,3.0079134E0,3.7493162E0,3.0100927E0,1.5014806E0,4.261149E1,1.3171913E1],"tree_param":{"num_deleted":"0","num_feature":"9","num_nodes":"21","size_leaf_vector":"1"}},{"base_weights":[4.021401E-1,2.3954608E-1,1.0502415E0,2.8333997E-3,9.4442445E-1,1.9404686E-3,5.9087473E-1,5.344982E-1,-8.694399E-3,1.9273172E-3,4.2194217E-1,1.9099595E-3,1.6485722E-1,8.044103E-1,-1.0540547E-1,-3.189014E-1,4.730255E-3,1.8978494E-3,4.5555867E-2,7.6478595E-1,1.12807386E-1,-6.269758E-7,9.598425E-1,-4.344205E-4,2.5973204E-4,-4.4967514E-1,3.9791515E-1,-4.778084E-2,1.0979509E-1,-1.837002E-1,1.5919073E-1,6.849497E-2,1.083762E0,6.254809E-2,7.872752E-1,1.2083333E-3,3.4286818E-4,-5.562386E-4,-1.6862588E-4,-1.5403188E-4,1.0532134E-3,2.5549698E-5,-1.21771656E-4,-2.8460785E-5,3.0557238E-4,8.24169E-4,-3.376205E-4,7.948036E-5,5.645014E-4,5.858307E-4,-3.996093E-4,4.5915012E-4,1.3747198E-3,3.6178E-5,7.649522E-4,9.0304314E-4,1.16747135E-4],"categories":[],"categories_nodes":[],"categories_segments":[],"categories_sizes":[],"default_left":[0,0,0,0,0,0,0,0,0,0,0,0,0,0,0,0,0,0,0,0,0,0,0,0,0,0,0,0,0,0,0,0,0,0,0,0,0,0,0,0,0,0,0,0,0,0,0,0,0,0,0,0,0,0,0,0,0],"id":32,"left_children":[1,3,5,7,9,-1,11,13,15,-1,17,-1,19,21,23,25,27,-1,29,31,33,-1,35,-1,-1,37,39,41,43,45,47,49,51,53,55,-1,-1,-1,-1,-1,-1,-1,-1,-1,-1,-1,-1,-1,-1,-1,-1,-1,-1,-1,-1,-1,-1],"loss_changes":[1.07406265E2,1.364894E2,8.2525116E1,3.7640474E0,1.047961E2,0E0,7.633623E1,2.335903E0,2.5057964E0,0E0,7.521445E1,0E0,3.167407E0,1.1621385E0,6.835674E-1,2.5186567E0,3.1907668E0,0E0,2.869708E0,1.7348671E0,3.2406445E0,0E0,7.7865124E-1,0E0,0E0,5.524554E-1,1.7469757E0,2.0957172E0,5.2250004E0,5.955756E0,2.327625E0,1.1123437E0,3.717656E-1,1.6654193E0,4.1032934E-1,0E0,0E0,0E0,0E0,0E0,0E0,0E0,0E0,0E0,0E0,0E0,0E0,0E0,0E0,0E0,0E0,0E0,0E0,0E0,0E0,0E0,0E0],"parents":[2147483647,0,0,1,1,2,2,3,3,4,4,6,6,7,7,8,8,10,10,12,12,13,13,14,14,15,15,16,16,18,18,19,19,20,20,22,22,25,25,26,26,27,27,28,28,29,29,30,30,31,31,32,32,33,33,34,34],"right_children":[2,4,6,8,10,-1,12,14,16,-1,18,-1,20,22,24,26,28,-1,30,32,34,-1,36,-1,-1,38,40,42,44,46,48,50,52,54,56,-1,-1,-1,-1,-1,-1,-1,-1,-1,-1,-1,-1,-1,-1,-1,-1,-1,-1,-1,-1,-1,-1],"split_conditions":[1E0,1E0,2.0013E2,1.0271E2,2.0013E2,1.9404686E-3,6.1E-1,6.7875E2,1.0881E2,1.9273172E-3,6.1E-1,1.9099595E-3,6.31463E9,2.5312E2,8.0416E2,6.2E-1,1E0,1.8978494E-3,6.3370947E9,2.9737E2,9.8E-1,-6.269758E-7,5.2E-1,-4.344205E-4,2.5973204E-4,6.8527E2,6.5411E2,6.3E-1,5.4E-1,2.0961E2,9.3E-1,6.6E-1,6.3124705E9,7.8101E2,6.3478E2,1.2083333E-3,3.4286818E-4,-5.562386E-4,-1.6862588E-4,-1.5403188E-4,1.0532134E-3,2.5549698E-5,-1.21771656E-4,-2.8460785E-5,3.0557238E-4,8.24169E-4,-3.376205E-4,7.948036E-5,5.645014E-4,5.858307E-4,-3.996093E-4,4.5915012E-4,1.3747198E-3,3.6178E-5,7.649522E-4,9.0304314E-4,1.16747135E-4],"split_indices":[0,2,6,6,6,0,5,7,6,0,5,0,8,7,7,5,4,0,8,7,5,0,5,0,0,7,7,5,5,6,5,5,8,7,7,0,0,0,0,0,0,0,0,0,0,0,0,0,0,0,0,0,0,0,0,0,0],"split_type":[0,0,0,0,0,0,0,0,0,0,0,0,0,0,0,0,0,0,0,0,0,0,0,0,0,0,0,0,0,0,0,0,0,0,0,0,0,0,0,0,0,0,0,0,0,0,0,0,0,0,0,0,0,0,0,0,0],"sum_hessian":[1.02064056E3,8.170346E2,2.0360597E2,6.123866E2,2.0464801E2,6.820475E1,1.3540121E2,1.20334835E1,6.003531E2,7.009557E1,1.3455243E2,3.220404E1,1.03197174E2,8.282736E0,3.7507474E0,2.3959513E1,5.763936E2,2.651968E1,1.0803275E2,7.1454186E0,9.605176E1,1.5015666E0,6.781169E0,1.8731554E0,1.877592E0,2.0578003E1,3.3815086E0,3.8467792E2,1.9171567E2,3.5597973E1,7.2434784E1,2.6265886E0,4.5188303E0,9.040759E1,5.6441617E0,4.150887E0,2.630282E0,1.4210691E1,6.3673124E0,2.2507133E0,1.1307954E0,1.935298E2,1.9114812E2,1.1286571E2,7.884997E1,4.1393056E0,3.1458666E1,6.153007E1,1.090471E1,1.1282177E0,1.4983709E0,2.2553132E0,2.263517E0,8.814973E1,2.2578669E0,4.5174513E0,1.1267104E0],"tree_param":{"num_deleted":"0","num_feature":"9","num_nodes":"57","size_leaf_vector":"1"}},{"base_weights":[3.3406186E-1,8.7158275E-1,-4.5653298E-1,1.0626874E0,-6.5576576E-4,-6.4868194E-1,-6.83479E-2,1.2987567E0,-6.5542903E-4,-6.5946144E-1,6.043846E-4,1.2071563E0,-4.1334322E-1,6.866188E-1,1.3131667E0,-6.6307664E-4,-8.328537E-7,1.2963315E0,3.970445E-1,-4.373195E-1,4.904561E-4,-1.5400723E-1,8.761781E-1,1.5790356E0,1.2949438E0,6.169301E-1,1.3458795E-3,1.191682E-3,-4.3473457E-4,-4.5117617E-1,6.903294E-2,4.985508E-1,-4.9908727E-4,1.1719469E-4,-3.528676E-4,1.4399001E-3,2.3798215E-4,1.6988451E-3,6.2362896E-4,1.163508E-3,1.3373537E-3,-8.59809E-7,1.0527623E-3,-4.791965E-4,-2.1704711E-4,-1.0388984E-8,1.17780975E-4,-3.5891813E-7,7.978633E-4],"categories":[],"categories_nodes":[],"categories_segments":[],"categories_sizes":[],"default_left":[0,0,0,0,0,0,0,0,0,0,0,0,0,0,0,0,0,0,0,0,0,0,0,0,0,0,0,0,0,0,0,0,0,0,0,0,0,0,0,0,0,0,0,0,0,0,0,0,0],"id":33,"left_children":[1,3,5,7,-1,9,11,13,-1,15,-1,17,19,21,23,-1,-1,25,27,29,31,33,35,37,39,41,-1,-1,-1,43,45,47,-1,-1,-1,-1,-1,-1,-1,-1,-1,-1,-1,-1,-1,-1,-1,-1,-1],"loss_changes":[4.3441083E2,1.7824918E2,3.0835762E1,2.2029126E2,0E0,4.1375275E0,6.1310223E1,3.2972412E0,0E0,6.5405273E-1,0E0,1.6291275E0,1.0868759E0,2.2134356E0,2.03125E-1,0E0,0E0,5.473709E-2,3.4158733E0,7.5749016E-1,1.9897E0,2.166642E-1,3.5403147E0,1.8254128E0,8.953247E-1,9.7921073E-1,0E0,0E0,0E0,5.579128E-1,1.2201212E-2,5.981828E-1,0E0,0E0,0E0,0E0,0E0,0E0,0E0,0E0,0E0,0E0,0E0,0E0,0E0,0E0,0E0,0E0,0E0],"parents":[2147483647,0,0,1,1,2,2,3,3,5,5,6,6,7,7,9,9,11,11,12,12,13,13,14,14,17,17,18,18,19,19,20,20,21,21,22,22,23,23,24,24,25,25,29,29,30,30,31,31],"right_children":[2,4,6,8,-1,10,12,14,-1,16,-1,18,20,22,24,-1,-1,26,28,30,32,34,36,38,40,42,-1,-1,-1,44,46,48,-1,-1,-1,-1,-1,-1,-1,-1,-1,-1,-1,-1,-1,-1,-1,-1,-1],"split_conditions":[1.9933E2,1E0,1E0,1E0,-6.5576576E-4,1E0,6.1E-1,1.0271E2,-6.5542903E-4,1E0,6.043846E-4,6.369926E9,6.3706173E9,6.3169633E9,1.0881E2,-6.6307664E-4,-8.328537E-7,6.981E1,4.0096E2,9.8043E2,6.3725184E9,6.3152353E9,6.342192E9,6.2E-1,6.3271583E9,6.35472E9,1.3458795E-3,1.191682E-3,-4.3473457E-4,9.5E-1,7.7E-1,6.3716547E9,-4.9908727E-4,1.1719469E-4,-3.528676E-4,1.4399001E-3,2.3798215E-4,1.6988451E-3,6.2362896E-4,1.163508E-3,1.3373537E-3,-8.59809E-7,1.0527623E-3,-4.791965E-4,-2.1704711E-4,-1.0388984E-8,1.17780975E-4,-3.5891813E-7,7.978633E-4],"split_indices":[6,2,1,0,0,3,5,6,0,4,0,8,8,8,6,0,0,7,7,7,8,8,8,5,8,8,0,0,0,5,5,8,0,0,0,0,0,0,0,0,0,0,0,0,0,0,0,0,0],"split_type":[0,0,0,0,0,0,0,0,0,0,0,0,0,0,0,0,0,0,0,0,0,0,0,0,0,0,0,0,0,0,0,0,0,0,0,0,0,0,0,0,0,0,0,0,0,0,0,0,0],"sum_hessian":[1.02030005E3,6.072987E2,4.1300134E2,5.40033E2,6.7265686E1,2.7580746E2,1.371939E2,4.7501062E2,6.5022415E1,2.7392474E2,1.8827105E0,2.867578E1,1.0851811E2,1.2043728E1,4.629669E2,2.7242267E2,1.5020816E0,2.5291557E1,3.384223E0,1.0252157E2,5.9965463E0,2.250617E0,9.793111E0,2.4202688E1,4.387642E2,2.6334105E0,2.2658146E1,1.5094676E0,1.8747553E0,9.98968E1,2.6247706E0,3.0038629E0,2.9926834E0,1.1258596E0,1.1247574E0,4.532938E0,5.260173E0,2.0814396E1,3.3882928E0,1.13973694E2,3.247905E2,1.5021489E0,1.1312617E0,8.828431E1,1.1612484E1,1.5000256E0,1.124745E0,1.5008941E0,1.5029685E0],"tree_param":{"num_deleted":"0","num_feature":"9","num_nodes":"49","size_leaf_vector":"1"}},{"base_weights":[-2.4522786E-1,-6.627704E-1,3.8094896E-1,-6.64396E-4,-3.1489226E-1,8.081619E-1,-4.6475393E-1,-4.8202855E-4,1.182299E-4,-6.542321E-4,1.2080325E0,-5.81359E-1,-3.4848434E-1,1.2774622E0,1.0243312E0,1.1744212E-4,-5.950425E-1,-4.1328686E-1,7.237884E-2,1.41769E0,1.1309172E0,1.114944E0,4.5382577E-1,-4.6025133E-1,-6.5059116E-4,-3.0738485E-1,-6.312679E-4,7.965953E-4,-1.4030194E-1,9.3182E-4,1.4593286E-3,5.7826925E-4,1.2331976E-3,4.3532252E-4,1.1624299E-3,-1.468514E-4,8.7235833E-4,-4.958271E-4,1.1723622E-4,-4.60377E-4,-1.9425583E-4,